<?xml version="1.0"?>
<MethodSetup Method="BDT::BDT">
  <GeneralInfo>
    <Info name="TMVA Release" value="4.0.7 [262151]"/>
    <Info name="ROOT Release" value="5.27/06 [334598]"/>
    <Info name="Creator" value="ivo"/>
    <Info name="Date" value="Thu Apr  5 17:12:48 2012"/>
    <Info name="Host" value="Linux lxbuild051.cern.ch 2.6.18-238.1.1.el5 #1 SMP Wed Jan 19 11:06:36 CET 2011 x86_64 x86_64 x86_64 GNU/Linux"/>
    <Info name="Dir" value="/grid_mnt/vol__vol1__u/llr/cms/ivo/PFAntiElecMVA/CMSSW_4_2_8_patch7/src/IvoNaranjo/ElectronsStudies/test/Macros/tmva"/>
    <Info name="Training events" value="79272"/>
    <Info name="TrainingTime" value="97.4066"/>
    <Info name="AnalysisType" value="Classification"/>
  </GeneralInfo>
  <Options>
    <Option name="V" modified="Yes">False</Option>
    <Option name="VerbosityLevel" modified="No">Default</Option>
    <Option name="VarTransform" modified="No">None</Option>
    <Option name="H" modified="Yes">False</Option>
    <Option name="CreateMVAPdfs" modified="No">False</Option>
    <Option name="IgnoreNegWeightsInTraining" modified="No">False</Option>
    <Option name="NTrees" modified="Yes">400</Option>
    <Option name="BoostType" modified="Yes">AdaBoost</Option>
    <Option name="AdaBoostR2Loss" modified="No">quadratic</Option>
    <Option name="UseBaggedGrad" modified="No">False</Option>
    <Option name="GradBaggingFraction" modified="No">6.000000e-01</Option>
    <Option name="Shrinkage" modified="No">1.000000e+00</Option>
    <Option name="AdaBoostBeta" modified="No">1.000000e+00</Option>
    <Option name="UseRandomisedTrees" modified="No">False</Option>
    <Option name="UseNvars" modified="No">2</Option>
    <Option name="UseNTrainEvents" modified="No">79272</Option>
    <Option name="UseWeightedTrees" modified="No">True</Option>
    <Option name="UseYesNoLeaf" modified="No">True</Option>
    <Option name="NodePurityLimit" modified="No">5.000000e-01</Option>
    <Option name="SeparationType" modified="Yes">giniindex</Option>
    <Option name="nEventsMin" modified="No">40</Option>
    <Option name="nCuts" modified="Yes">20</Option>
    <Option name="PruneStrength" modified="No">-1.000000e+00</Option>
    <Option name="PruneMethod" modified="Yes">nopruning</Option>
    <Option name="PruneBeforeBoost" modified="No">False</Option>
    <Option name="PruningValFraction" modified="No">5.000000e-01</Option>
    <Option name="NNodesMax" modified="No">100000</Option>
    <Option name="MaxDepth" modified="No">3</Option>
  </Options>
  <Variables NVar="19">
    <Variable VarIndex="0" Expression="Elec_Pt" Label="Elec_Pt" Title="Elec_Pt" Unit="     " Internal="Elec_Pt" Type="F" Min="2.40456" Max="305.787"/>
    <Variable VarIndex="1" Expression="Elec_AbsEta" Label="Elec_AbsEta" Title="ElecAbsEta" Unit="     " Internal="Elec_AbsEta" Type="F" Min="1.47904" Max="2.64175"/>
    <Variable VarIndex="2" Expression="Elec_Fbrem" Label="Elec_Fbrem" Title="Fbrem" Unit="     " Internal="Elec_Fbrem" Type="F" Min="-28.8324" Max="0.999303"/>
    <Variable VarIndex="3" Expression="Elec_Chi2KF" Label="Elec_Chi2KF" Title="Chi2KF" Unit="     " Internal="Elec_Chi2KF" Type="F" Min="-99" Max="7.09456"/>
    <Variable VarIndex="4" Expression="Elec_Chi2GSF" Label="Elec_Chi2GSF" Title="Elec_Chi2GSF" Unit="     " Internal="Elec_Chi2GSF" Type="F" Min="0.0526728" Max="232.393"/>
    <Variable VarIndex="5" Expression="Elec_NumHits" Label="Elec_NumHits" Title="NumHits" Unit="     " Internal="Elec_NumHits" Type="I" Min="-99" Max="30"/>
    <Variable VarIndex="6" Expression="Elec_GSFTrackResol" Label="Elec_GSFTrackResol" Title="Elec_GSFTrackResol" Unit="     " Internal="Elec_GSFTrackResol" Type="F" Min="0.0181297" Max="2757.24"/>
    <Variable VarIndex="7" Expression="Elec_GSFTracklnPt" Label="Elec_GSFTracklnPt" Title="Elec_GSFTracklnPt" Unit="     " Internal="Elec_GSFTracklnPt" Type="F" Min="0.21192" Max="26.5732"/>
    <Variable VarIndex="8" Expression="Elec_GSFTrackEta" Label="Elec_GSFTrackEta" Title="Elec_GSFTrackEta" Unit="     " Internal="Elec_GSFTrackEta" Type="F" Min="-2.64214" Max="2.63243"/>
    <Variable VarIndex="9" Expression="Tau_AbsEta" Label="Tau_AbsEta" Title="PFTauEta" Unit="     " Internal="Tau_AbsEta" Type="F" Min="1.47904" Max="2.65084"/>
    <Variable VarIndex="10" Expression="Tau_Pt" Label="Tau_Pt" Title="TauPt" Unit="     " Internal="Tau_Pt" Type="F" Min="7.82827" Max="317.137"/>
    <Variable VarIndex="11" Expression="Tau_EmFraction" Label="Tau_EmFraction" Title="TauEmFraction" Unit="     " Internal="Tau_EmFraction" Type="F" Min="0.201496" Max="1"/>
    <Variable VarIndex="12" Expression="Tau_NumGammaCands" Label="Tau_NumGammaCands" Title="TauNumGammaCands" Unit="     " Internal="Tau_NumGammaCands" Type="I" Min="1" Max="7"/>
    <Variable VarIndex="13" Expression="Tau_HadrHoP" Label="Tau_HadrHoP" Title="TauHadrHoP" Unit="     " Internal="Tau_HadrHoP" Type="F" Min="0" Max="1.34692"/>
    <Variable VarIndex="14" Expression="Tau_HadrEoP" Label="Tau_HadrEoP" Title="TauHadrEoP" Unit="     " Internal="Tau_HadrEoP" Type="F" Min="0" Max="4.63271"/>
    <Variable VarIndex="15" Expression="Tau_VisMass" Label="Tau_VisMass" Title="TauVisMass" Unit="     " Internal="Tau_VisMass" Type="F" Min="0.300788" Max="1.60375"/>
    <Variable VarIndex="16" Expression="Tau_GammaEtaMom" Label="Tau_GammaEtaMom" Title="Tau_GammaEtaMom" Unit="     " Internal="Tau_GammaEtaMom" Type="F" Min="0" Max="4.9598"/>
    <Variable VarIndex="17" Expression="Tau_GammaPhiMom" Label="Tau_GammaPhiMom" Title="Tau_GammaPhiMom" Unit="     " Internal="Tau_GammaPhiMom" Type="F" Min="6.54361e-06" Max="4.9412"/>
    <Variable VarIndex="18" Expression="Tau_GammaEnFrac" Label="Tau_GammaEnFrac" Title="GammaEnFrac" Unit="     " Internal="Tau_GammaEnFrac" Type="F" Min="0.0130873" Max="0.986527"/>
  </Variables>
  <Spectators NSpec="0"/>
  <Transformations NTransformations="0"/>
  <MVAPdfs/>
  <Weights NTrees="400" TreeType="0">
    <BinaryTree type="DecisionTree" boostWeight="3.4445610048437936e+00" itree="0">
      <Node pos="s" depth="0" Seq="0" IVar="7" Cut="6.4884090423583984e+00" cType="1" nS="2.7450000000000000e+03" nB="7.6527000000000000e+04" nEv="7.9272000000000000e+04" nSuw="2.7450000000000000e+03" nBuw="7.6527000000000000e+04" nEvuw="7.9272000000000000e+04" sepI="3.3428538590669632e-02" sepG="1.6530120849609375e+02" res="-9.9000000000000000e+01" rms="0.0000000000000000e+00" nType="0" CC="0.0000000000000000e+00">
        <Node pos="l" depth="1" Seq="0" IVar="15" Cut="6.7306131124496460e-01" cType="0" nS="1.5820000000000000e+03" nB="8.8150000000000000e+03" nEv="1.0397000000000000e+04" nSuw="1.5820000000000000e+03" nBuw="8.8150000000000000e+03" nEvuw="1.0397000000000000e+04" sepI="1.2900683283805847e-01" sepG="1.4486299133300781e+02" res="-9.9000000000000000e+01" rms="0.0000000000000000e+00" nType="0" CC="0.0000000000000000e+00">
          <Node pos="l" depth="2" Seq="0" IVar="2" Cut="7.2395682334899902e-02" cType="1" nS="7.9000000000000000e+02" nB="1.2180000000000000e+03" nEv="2.0080000000000000e+03" nSuw="7.9000000000000000e+02" nBuw="1.2180000000000000e+03" nEvuw="2.0080000000000000e+03" sepI="2.3864205181598663e-01" sepG="1.0840284729003906e+02" res="-9.9000000000000000e+01" rms="0.0000000000000000e+00" nType="0" CC="0.0000000000000000e+00">
            <Node pos="l" depth="3" Seq="0" IVar="-1" Cut="0.0000000000000000e+00" cType="1" nS="5.1300000000000000e+02" nB="2.2000000000000000e+02" nEv="7.3300000000000000e+02" nSuw="5.1300000000000000e+02" nBuw="2.2000000000000000e+02" nEvuw="7.3300000000000000e+02" sepI="2.1005454659461975e-01" sepG="-1.0000000000000000e+00" res="-9.9000000000000000e+01" rms="0.0000000000000000e+00" nType="1" CC="0.0000000000000000e+00"/>
            <Node pos="r" depth="3" Seq="4" IVar="-1" Cut="0.0000000000000000e+00" cType="1" nS="2.7700000000000000e+02" nB="9.9800000000000000e+02" nEv="1.2750000000000000e+03" nSuw="2.7700000000000000e+02" nBuw="9.9800000000000000e+02" nEvuw="1.2750000000000000e+03" sepI="1.7005521059036255e-01" sepG="-1.0000000000000000e+00" res="-9.9000000000000000e+01" rms="0.0000000000000000e+00" nType="-1" CC="0.0000000000000000e+00"/>
          </Node>
          <Node pos="r" depth="2" Seq="2" IVar="-1" Cut="2.1952381134033203e+01" cType="0" nS="7.9200000000000000e+02" nB="7.5970000000000000e+03" nEv="8.3890000000000000e+03" nSuw="7.9200000000000000e+02" nBuw="7.5970000000000000e+03" nEvuw="8.3890000000000000e+03" sepI="8.5496224462985992e-02" sepG="-1.0000000000000000e+00" res="-9.9000000000000000e+01" rms="0.0000000000000000e+00" nType="-1" CC="0.0000000000000000e+00"/>
        </Node>
        <Node pos="r" depth="1" Seq="1" IVar="-1" Cut="1.5215004980564117e-01" cType="1" nS="1.1630000000000000e+03" nB="6.7712000000000000e+04" nEv="6.8875000000000000e+04" nSuw="1.1630000000000000e+03" nBuw="6.7712000000000000e+04" nEvuw="6.8875000000000000e+04" sepI="1.6600536182522774e-02" sepG="-1.0000000000000000e+00" res="-9.9000000000000000e+01" rms="0.0000000000000000e+00" nType="-1" CC="0.0000000000000000e+00"/>
      </Node>
    </BinaryTree>
    <BinaryTree type="DecisionTree" boostWeight="1.2383866841281916e+00" itree="1">
      <Node pos="s" depth="0" Seq="0" IVar="10" Cut="3.7286254882812500e+01" cType="1" nS="3.6344441406250000e+04" nB="4.2927562500000000e+04" nEv="7.9272000000000000e+04" nSuw="2.7450000000000000e+03" nBuw="7.6527000000000000e+04" nEvuw="7.9272000000000000e+04" sepI="2.4827589094638824e-01" sepG="3.3518537597656250e+03" res="-9.9000000000000000e+01" rms="0.0000000000000000e+00" nType="0" CC="0.0000000000000000e+00">
        <Node pos="l" depth="1" Seq="0" IVar="9" Cut="2.0851168632507324e+00" cType="1" nS="2.8443130859375000e+04" nB="1.5946562500000000e+04" nEv="4.4389695312500000e+04" nSuw="2.1410000000000000e+03" nBuw="2.7904000000000000e+04" nEvuw="3.0045000000000000e+04" sepI="2.3018667101860046e-01" sepG="1.4111308593750000e+03" res="-9.9000000000000000e+01" rms="0.0000000000000000e+00" nType="0" CC="0.0000000000000000e+00">
          <Node pos="l" depth="2" Seq="0" IVar="-1" Cut="3.3848440647125244e-01" cType="1" nS="1.8481503906250000e+04" nB="4.1871215820312500e+03" nEv="2.2668625000000000e+04" nSuw="1.4260000000000000e+03" nBuw="7.1750000000000000e+03" nEvuw="8.6010000000000000e+03" sepI="1.5059220790863037e-01" sepG="-1.0000000000000000e+00" res="-9.9000000000000000e+01" rms="0.0000000000000000e+00" nType="1" CC="0.0000000000000000e+00"/>
          <Node pos="r" depth="2" Seq="2" IVar="7" Cut="6.0397920608520508e+00" cType="1" nS="9.9616289062500000e+03" nB="1.1759440429687500e+04" nEv="2.1721068359375000e+04" nSuw="7.1500000000000000e+02" nBuw="2.0729000000000000e+04" nEvuw="2.1444000000000000e+04" sepI="2.4828736484050751e-01" sepG="5.8027105712890625e+02" res="-9.9000000000000000e+01" rms="0.0000000000000000e+00" nType="0" CC="0.0000000000000000e+00">
            <Node pos="l" depth="3" Seq="2" IVar="-1" Cut="0.0000000000000000e+00" cType="1" nS="4.7993930664062500e+03" nB="2.0663229980468750e+03" nEv="6.8657163085937500e+03" nSuw="3.8500000000000000e+02" nBuw="2.5490000000000000e+03" nEvuw="2.9340000000000000e+03" sepI="2.1038407087326050e-01" sepG="-1.0000000000000000e+00" res="-9.9000000000000000e+01" rms="0.0000000000000000e+00" nType="1" CC="0.0000000000000000e+00"/>
            <Node pos="r" depth="3" Seq="6" IVar="-1" Cut="0.0000000000000000e+00" cType="1" nS="5.1622353515625000e+03" nB="9.6931171875000000e+03" nEv="1.4855353515625000e+04" nSuw="3.3000000000000000e+02" nBuw="1.8180000000000000e+04" nEvuw="1.8510000000000000e+04" sepI="2.2674375772476196e-01" sepG="-1.0000000000000000e+00" res="-9.9000000000000000e+01" rms="0.0000000000000000e+00" nType="-1" CC="0.0000000000000000e+00"/>
          </Node>
        </Node>
        <Node pos="r" depth="1" Seq="1" IVar="9" Cut="1.8696601390838623e+00" cType="1" nS="7.9013100585937500e+03" nB="2.6980998046875000e+04" nEv="3.4882308593750000e+04" nSuw="6.0400000000000000e+02" nBuw="4.8623000000000000e+04" nEvuw="4.9227000000000000e+04" sepI="1.7520506680011749e-01" sepG="7.9005010986328125e+02" res="-9.9000000000000000e+01" rms="0.0000000000000000e+00" nType="0" CC="0.0000000000000000e+00">
          <Node pos="l" depth="2" Seq="1" IVar="5" Cut="1.9095237731933594e+01" cType="0" nS="2.9990827636718750e+03" nB="2.0720456542968750e+03" nEv="5.0711284179687500e+03" nSuw="2.3200000000000000e+02" nBuw="3.2880000000000000e+03" nEvuw="3.5200000000000000e+03" sepI="2.4164541065692902e-01" sepG="1.7252748107910156e+02" res="-9.9000000000000000e+01" rms="0.0000000000000000e+00" nType="0" CC="0.0000000000000000e+00">
            <Node pos="l" depth="3" Seq="1" IVar="-1" Cut="0.0000000000000000e+00" cType="1" nS="2.4781984863281250e+03" nB="9.7496966552734375e+02" nEv="3.4531682128906250e+03" nSuw="1.9300000000000000e+02" nBuw="1.5560000000000000e+03" nEvuw="1.7490000000000000e+03" sepI="2.0262439548969269e-01" sepG="-1.0000000000000000e+00" res="-9.9000000000000000e+01" rms="0.0000000000000000e+00" nType="1" CC="0.0000000000000000e+00"/>
            <Node pos="r" depth="3" Seq="5" IVar="-1" Cut="0.0000000000000000e+00" cType="1" nS="5.2088415527343750e+02" nB="1.0970761718750000e+03" nEv="1.6179603271484375e+03" nSuw="3.9000000000000000e+01" nBuw="1.7320000000000000e+03" nEvuw="1.7710000000000000e+03" sepI="2.1829420328140259e-01" sepG="-1.0000000000000000e+00" res="-9.9000000000000000e+01" rms="0.0000000000000000e+00" nType="-1" CC="0.0000000000000000e+00"/>
          </Node>
          <Node pos="r" depth="2" Seq="3" IVar="-1" Cut="1.9241650402545929e-01" cType="0" nS="4.9022270507812500e+03" nB="2.4908953125000000e+04" nEv="2.9811179687500000e+04" nSuw="3.7200000000000000e+02" nBuw="4.5335000000000000e+04" nEvuw="4.5707000000000000e+04" sepI="1.3740120828151703e-01" sepG="-1.0000000000000000e+00" res="-9.9000000000000000e+01" rms="0.0000000000000000e+00" nType="-1" CC="0.0000000000000000e+00"/>
        </Node>
      </Node>
    </BinaryTree>
    <BinaryTree type="DecisionTree" boostWeight="8.3626909982291286e-01" itree="2">
      <Node pos="s" depth="0" Seq="0" IVar="13" Cut="1.2827765941619873e-01" cType="0" nS="4.0165328125000000e+04" nB="3.9106675781250000e+04" nEv="7.9272000000000000e+04" nSuw="2.7450000000000000e+03" nBuw="7.6527000000000000e+04" nEvuw="7.9272000000000000e+04" sepI="2.4995541572570801e-01" sepG="1.3139718017578125e+03" res="-9.9000000000000000e+01" rms="0.0000000000000000e+00" nType="0" CC="0.0000000000000000e+00">
        <Node pos="l" depth="1" Seq="0" IVar="2" Cut="5.1816451549530029e-01" cType="1" nS="2.2263560546875000e+04" nB="1.1708667968750000e+04" nEv="3.3972226562500000e+04" nSuw="1.5230000000000000e+03" nBuw="1.9794000000000000e+04" nEvuw="2.1317000000000000e+04" sepI="2.2586765885353088e-01" sepG="6.2643463134765625e+02" res="-9.9000000000000000e+01" rms="0.0000000000000000e+00" nType="0" CC="0.0000000000000000e+00">
          <Node pos="l" depth="2" Seq="0" IVar="-1" Cut="8.8242059946060181e-01" cType="1" nS="2.0632023437500000e+04" nB="8.3610117187500000e+03" nEv="2.8993035156250000e+04" nSuw="1.4400000000000000e+03" nBuw="1.3122000000000000e+04" nEvuw="1.4562000000000000e+04" sepI="2.0521697402000427e-01" sepG="-1.0000000000000000e+00" res="-9.9000000000000000e+01" rms="0.0000000000000000e+00" nType="1" CC="0.0000000000000000e+00"/>
          <Node pos="r" depth="2" Seq="2" IVar="14" Cut="7.5830698013305664e-01" cType="1" nS="1.6315373535156250e+03" nB="3.3476564941406250e+03" nEv="4.9791938476562500e+03" nSuw="8.3000000000000000e+01" nBuw="6.6720000000000000e+03" nEvuw="6.7550000000000000e+03" sepI="2.2030271589756012e-01" sepG="1.0275391387939453e+02" res="-9.9000000000000000e+01" rms="0.0000000000000000e+00" nType="0" CC="0.0000000000000000e+00">
            <Node pos="l" depth="3" Seq="2" IVar="-1" Cut="0.0000000000000000e+00" cType="1" nS="4.7069515991210938e+02" nB="2.1401321411132812e+02" nEv="6.8470837402343750e+02" nSuw="2.8000000000000000e+01" nBuw="3.8100000000000000e+02" nEvuw="4.0900000000000000e+02" sepI="2.1486666798591614e-01" sepG="-1.0000000000000000e+00" res="-9.9000000000000000e+01" rms="0.0000000000000000e+00" nType="1" CC="0.0000000000000000e+00"/>
            <Node pos="r" depth="3" Seq="6" IVar="-1" Cut="0.0000000000000000e+00" cType="1" nS="1.1608421630859375e+03" nB="3.1336430664062500e+03" nEv="4.2944853515625000e+03" nSuw="5.5000000000000000e+01" nBuw="6.2910000000000000e+03" nEvuw="6.3460000000000000e+03" sepI="1.9724248349666595e-01" sepG="-1.0000000000000000e+00" res="-9.9000000000000000e+01" rms="0.0000000000000000e+00" nType="-1" CC="0.0000000000000000e+00"/>
          </Node>
        </Node>
        <Node pos="r" depth="1" Seq="1" IVar="14" Cut="1.0099972486495972e+00" cType="1" nS="1.7901767578125000e+04" nB="2.7398007812500000e+04" nEv="4.5299773437500000e+04" nSuw="1.2220000000000000e+03" nBuw="5.6733000000000000e+04" nEvuw="5.7955000000000000e+04" sepI="2.3901370167732239e-01" sepG="1.0066941528320312e+03" res="-9.9000000000000000e+01" rms="0.0000000000000000e+00" nType="0" CC="0.0000000000000000e+00">
          <Node pos="l" depth="2" Seq="1" IVar="11" Cut="9.0169948339462280e-01" cType="1" nS="1.1135970703125000e+04" nB="8.5714921875000000e+03" nEv="1.9707462890625000e+04" nSuw="8.3800000000000000e+02" nBuw="1.2992000000000000e+04" nEvuw="1.3830000000000000e+04" sepI="2.4576672911643982e-01" sepG="3.5193231201171875e+02" res="-9.9000000000000000e+01" rms="0.0000000000000000e+00" nType="0" CC="0.0000000000000000e+00">
            <Node pos="l" depth="3" Seq="1" IVar="-1" Cut="0.0000000000000000e+00" cType="1" nS="5.9610908203125000e+03" nB="2.2890585937500000e+03" nEv="8.2501494140625000e+03" nSuw="3.9200000000000000e+02" nBuw="3.8150000000000000e+03" nEvuw="4.2070000000000000e+03" sepI="2.0047444105148315e-01" sepG="-1.0000000000000000e+00" res="-9.9000000000000000e+01" rms="0.0000000000000000e+00" nType="1" CC="0.0000000000000000e+00"/>
            <Node pos="r" depth="3" Seq="5" IVar="-1" Cut="0.0000000000000000e+00" cType="1" nS="5.1748798828125000e+03" nB="6.2824335937500000e+03" nEv="1.1457313476562500e+04" nSuw="4.4600000000000000e+02" nBuw="9.1770000000000000e+03" nEvuw="9.6230000000000000e+03" sepI="2.4766382575035095e-01" sepG="-1.0000000000000000e+00" res="-9.9000000000000000e+01" rms="0.0000000000000000e+00" nType="-1" CC="0.0000000000000000e+00"/>
          </Node>
          <Node pos="r" depth="2" Seq="3" IVar="-1" Cut="7.7355766296386719e+00" cType="1" nS="6.7657968750000000e+03" nB="1.8826515625000000e+04" nEv="2.5592312500000000e+04" nSuw="3.8400000000000000e+02" nBuw="4.3741000000000000e+04" nEvuw="4.4125000000000000e+04" sepI="1.9447770714759827e-01" sepG="-1.0000000000000000e+00" res="-9.9000000000000000e+01" rms="0.0000000000000000e+00" nType="-1" CC="0.0000000000000000e+00"/>
        </Node>
      </Node>
    </BinaryTree>
    <BinaryTree type="DecisionTree" boostWeight="6.6355563452520760e-01" itree="3">
      <Node pos="s" depth="0" Seq="0" IVar="7" Cut="7.7437067031860352e+00" cType="1" nS="4.1063820312500000e+04" nB="3.8208179687500000e+04" nEv="7.9272000000000000e+04" nSuw="2.7450000000000000e+03" nBuw="7.6527000000000000e+04" nEvuw="7.9272000000000000e+04" sepI="2.4967558681964874e-01" sepG="7.2858843994140625e+02" res="-9.9000000000000000e+01" rms="0.0000000000000000e+00" nType="0" CC="0.0000000000000000e+00">
        <Node pos="l" depth="1" Seq="0" IVar="14" Cut="1.1030256748199463e+00" cType="1" nS="3.0425244140625000e+04" nB="2.1324910156250000e+04" nEv="5.1750156250000000e+04" nSuw="2.3170000000000000e+03" nBuw="2.8098000000000000e+04" nEvuw="3.0415000000000000e+04" sepI="2.4226908385753632e-01" sepG="4.6308364868164062e+02" res="-9.9000000000000000e+01" rms="0.0000000000000000e+00" nType="0" CC="0.0000000000000000e+00">
          <Node pos="l" depth="2" Seq="0" IVar="-1" Cut="1.7714284896850586e+01" cType="0" nS="2.1424880859375000e+04" nB="1.0988446289062500e+04" nEv="3.2413328125000000e+04" nSuw="1.6900000000000000e+03" nBuw="1.2802000000000000e+04" nEvuw="1.4492000000000000e+04" sepI="2.2408226132392883e-01" sepG="-1.0000000000000000e+00" res="-9.9000000000000000e+01" rms="0.0000000000000000e+00" nType="1" CC="0.0000000000000000e+00"/>
          <Node pos="r" depth="2" Seq="2" IVar="17" Cut="1.5369924306869507e+00" cType="0" nS="9.0003632812500000e+03" nB="1.0336464843750000e+04" nEv="1.9336828125000000e+04" nSuw="6.2700000000000000e+02" nBuw="1.5296000000000000e+04" nEvuw="1.5923000000000000e+04" sepI="2.4880643188953400e-01" sepG="9.7668342590332031e+01" res="-9.9000000000000000e+01" rms="0.0000000000000000e+00" nType="0" CC="0.0000000000000000e+00">
            <Node pos="l" depth="3" Seq="2" IVar="-1" Cut="0.0000000000000000e+00" cType="1" nS="1.6285919189453125e+03" nB="8.7853002929687500e+02" nEv="2.5071218261718750e+03" nSuw="1.6400000000000000e+02" nBuw="8.1200000000000000e+02" nEvuw="9.7600000000000000e+02" sepI="2.2762395441532135e-01" sepG="-1.0000000000000000e+00" res="-9.9000000000000000e+01" rms="0.0000000000000000e+00" nType="1" CC="0.0000000000000000e+00"/>
            <Node pos="r" depth="3" Seq="6" IVar="-1" Cut="0.0000000000000000e+00" cType="1" nS="7.3717709960937500e+03" nB="9.4579345703125000e+03" nEv="1.6829705078125000e+04" nSuw="4.6300000000000000e+02" nBuw="1.4484000000000000e+04" nEvuw="1.4947000000000000e+04" sepI="2.4615864455699921e-01" sepG="-1.0000000000000000e+00" res="-9.9000000000000000e+01" rms="0.0000000000000000e+00" nType="-1" CC="0.0000000000000000e+00"/>
          </Node>
        </Node>
        <Node pos="r" depth="1" Seq="1" IVar="18" Cut="1.9850429892539978e-01" cType="1" nS="1.0638577148437500e+04" nB="1.6883271484375000e+04" nEv="2.7521847656250000e+04" nSuw="4.2800000000000000e+02" nBuw="4.8429000000000000e+04" nEvuw="4.8857000000000000e+04" sepI="2.3712915182113647e-01" sepG="8.3258978271484375e+02" res="-9.9000000000000000e+01" rms="0.0000000000000000e+00" nType="0" CC="0.0000000000000000e+00">
          <Node pos="l" depth="2" Seq="1" IVar="0" Cut="4.0428455352783203e+01" cType="1" nS="4.2905937500000000e+03" nB="1.6991447753906250e+03" nEv="5.9897382812500000e+03" nSuw="2.0700000000000000e+02" nBuw="3.6580000000000000e+03" nEvuw="3.8650000000000000e+03" sepI="2.0320391654968262e-01" sepG="1.7365316772460938e+02" res="-9.9000000000000000e+01" rms="0.0000000000000000e+00" nType="0" CC="0.0000000000000000e+00">
            <Node pos="l" depth="3" Seq="1" IVar="-1" Cut="0.0000000000000000e+00" cType="1" nS="4.0026267089843750e+03" nB="1.0731330566406250e+03" nEv="5.0757597656250000e+03" nSuw="1.9800000000000000e+02" nBuw="1.8430000000000000e+03" nEvuw="2.0410000000000000e+03" sepI="1.6672340035438538e-01" sepG="-1.0000000000000000e+00" res="-9.9000000000000000e+01" rms="0.0000000000000000e+00" nType="1" CC="0.0000000000000000e+00"/>
            <Node pos="r" depth="3" Seq="5" IVar="-1" Cut="0.0000000000000000e+00" cType="1" nS="2.8796670532226562e+02" nB="6.2601171875000000e+02" nEv="9.1397845458984375e+02" nSuw="9.0000000000000000e+00" nBuw="1.8150000000000000e+03" nEvuw="1.8240000000000000e+03" sepI="2.1580070257186890e-01" sepG="-1.0000000000000000e+00" res="-9.9000000000000000e+01" rms="0.0000000000000000e+00" nType="-1" CC="0.0000000000000000e+00"/>
          </Node>
          <Node pos="r" depth="2" Seq="3" IVar="-1" Cut="8.6404018402099609e+00" cType="1" nS="6.3479838867187500e+03" nB="1.5184125976562500e+04" nEv="2.1532109375000000e+04" nSuw="2.2100000000000000e+02" nBuw="4.4771000000000000e+04" nEvuw="4.4992000000000000e+04" sepI="2.0789901912212372e-01" sepG="-1.0000000000000000e+00" res="-9.9000000000000000e+01" rms="0.0000000000000000e+00" nType="-1" CC="0.0000000000000000e+00"/>
        </Node>
      </Node>
    </BinaryTree>
    <BinaryTree type="DecisionTree" boostWeight="5.6431000919107033e-01" itree="4">
      <Node pos="s" depth="0" Seq="0" IVar="5" Cut="1.7714284896850586e+01" cType="0" nS="4.1098371093750000e+04" nB="3.8173632812500000e+04" nEv="7.9272000000000000e+04" nSuw="2.7450000000000000e+03" nBuw="7.6527000000000000e+04" nEvuw="7.9272000000000000e+04" sepI="2.4965968728065491e-01" sepG="2.5557978820800781e+02" res="-9.9000000000000000e+01" rms="0.0000000000000000e+00" nType="0" CC="0.0000000000000000e+00">
        <Node pos="l" depth="1" Seq="0" IVar="2" Cut="1.2660533189773560e-01" cType="1" nS="2.5128570312500000e+04" nB="1.9027648437500000e+04" nEv="4.4156218750000000e+04" nSuw="2.0840000000000000e+03" nBuw="3.3825000000000000e+04" nEvuw="3.5909000000000000e+04" sepI="2.4522748589515686e-01" sepG="1.1923131103515625e+03" res="-9.9000000000000000e+01" rms="0.0000000000000000e+00" nType="0" CC="0.0000000000000000e+00">
          <Node pos="l" depth="2" Seq="0" IVar="0" Cut="1.5109980583190918e+01" cType="0" nS="1.7828539062500000e+04" nB="7.1813632812500000e+03" nEv="2.5009902343750000e+04" nSuw="1.7490000000000000e+03" nBuw="5.8960000000000000e+03" nEvuw="7.6450000000000000e+03" sepI="2.0469096302986145e-01" sepG="2.2534397888183594e+02" res="-9.9000000000000000e+01" rms="0.0000000000000000e+00" nType="0" CC="0.0000000000000000e+00">
            <Node pos="l" depth="3" Seq="0" IVar="-1" Cut="0.0000000000000000e+00" cType="1" nS="1.7061591796875000e+04" nB="5.9745654296875000e+03" nEv="2.3036156250000000e+04" nSuw="1.6210000000000000e+03" nBuw="5.7390000000000000e+03" nEvuw="7.3600000000000000e+03" sepI="1.9209046661853790e-01" sepG="-1.0000000000000000e+00" res="-9.9000000000000000e+01" rms="0.0000000000000000e+00" nType="1" CC="0.0000000000000000e+00"/>
            <Node pos="r" depth="3" Seq="4" IVar="-1" Cut="0.0000000000000000e+00" cType="1" nS="7.6694683837890625e+02" nB="1.2067979736328125e+03" nEv="1.9737448730468750e+03" nSuw="1.2800000000000000e+02" nBuw="1.5700000000000000e+02" nEvuw="2.8500000000000000e+02" sepI="2.3758435249328613e-01" sepG="-1.0000000000000000e+00" res="-9.9000000000000000e+01" rms="0.0000000000000000e+00" nType="-1" CC="0.0000000000000000e+00"/>
          </Node>
          <Node pos="r" depth="2" Seq="2" IVar="2" Cut="2.5089651346206665e-01" cType="1" nS="7.3000312500000000e+03" nB="1.1846285156250000e+04" nEv="1.9146316406250000e+04" nSuw="3.3500000000000000e+02" nBuw="2.7929000000000000e+04" nEvuw="2.8264000000000000e+04" sepI="2.3590461909770966e-01" sepG="4.3229321289062500e+02" res="-9.9000000000000000e+01" rms="0.0000000000000000e+00" nType="0" CC="0.0000000000000000e+00">
            <Node pos="l" depth="3" Seq="2" IVar="-1" Cut="0.0000000000000000e+00" cType="1" nS="5.6172612304687500e+03" nB="5.3850224609375000e+03" nEv="1.1002284179687500e+04" nSuw="2.6700000000000000e+02" nBuw="1.1119000000000000e+04" nEvuw="1.1386000000000000e+04" sepI="2.4988861382007599e-01" sepG="-1.0000000000000000e+00" res="-9.9000000000000000e+01" rms="0.0000000000000000e+00" nType="1" CC="0.0000000000000000e+00"/>
            <Node pos="r" depth="3" Seq="6" IVar="-1" Cut="0.0000000000000000e+00" cType="1" nS="1.6827701416015625e+03" nB="6.4612626953125000e+03" nEv="8.1440327148437500e+03" nSuw="6.8000000000000000e+01" nBuw="1.6810000000000000e+04" nEvuw="1.6878000000000000e+04" sepI="1.6393178701400757e-01" sepG="-1.0000000000000000e+00" res="-9.9000000000000000e+01" rms="0.0000000000000000e+00" nType="-1" CC="0.0000000000000000e+00"/>
          </Node>
        </Node>
        <Node pos="r" depth="1" Seq="1" IVar="1" Cut="2.4756524562835693e+00" cType="0" nS="1.5969799804687500e+04" nB="1.9145984375000000e+04" nEv="3.5115785156250000e+04" nSuw="6.6100000000000000e+02" nBuw="4.2702000000000000e+04" nEvuw="4.3363000000000000e+04" sepI="2.4795474112033844e-01" sepG="1.1853254699707031e+02" res="-9.9000000000000000e+01" rms="0.0000000000000000e+00" nType="0" CC="0.0000000000000000e+00">
          <Node pos="l" depth="2" Seq="1" IVar="0" Cut="2.9210716247558594e+01" cType="1" nS="2.3471237792968750e+03" nB="1.4248457031250000e+03" nEv="3.7719694824218750e+03" nSuw="7.5000000000000000e+01" nBuw="3.5710000000000000e+03" nEvuw="3.6460000000000000e+03" sepI="2.3505391180515289e-01" sepG="6.7167221069335938e+01" res="-9.9000000000000000e+01" rms="0.0000000000000000e+00" nType="0" CC="0.0000000000000000e+00">
            <Node pos="l" depth="3" Seq="1" IVar="-1" Cut="0.0000000000000000e+00" cType="1" nS="1.6314852294921875e+03" nB="5.9250836181640625e+02" nEv="2.2239936523437500e+03" nSuw="4.9000000000000000e+01" nBuw="9.1600000000000000e+02" nEvuw="9.6500000000000000e+02" sepI="1.9543869793415070e-01" sepG="-1.0000000000000000e+00" res="-9.9000000000000000e+01" rms="0.0000000000000000e+00" nType="1" CC="0.0000000000000000e+00"/>
            <Node pos="r" depth="3" Seq="5" IVar="-1" Cut="0.0000000000000000e+00" cType="1" nS="7.1563848876953125e+02" nB="8.3233728027343750e+02" nEv="1.5479758300781250e+03" nSuw="2.6000000000000000e+01" nBuw="2.6550000000000000e+03" nEvuw="2.6810000000000000e+03" sepI="2.4857915937900543e-01" sepG="-1.0000000000000000e+00" res="-9.9000000000000000e+01" rms="0.0000000000000000e+00" nType="-1" CC="0.0000000000000000e+00"/>
          </Node>
          <Node pos="r" depth="2" Seq="3" IVar="-1" Cut="1.1476190567016602e+01" cType="0" nS="1.3622675781250000e+04" nB="1.7721138671875000e+04" nEv="3.1343814453125000e+04" nSuw="5.8600000000000000e+02" nBuw="3.9131000000000000e+04" nEvuw="3.9717000000000000e+04" sepI="2.4572557210922241e-01" sepG="-1.0000000000000000e+00" res="-9.9000000000000000e+01" rms="0.0000000000000000e+00" nType="-1" CC="0.0000000000000000e+00"/>
        </Node>
      </Node>
    </BinaryTree>
    <BinaryTree type="DecisionTree" boostWeight="3.4058590389428139e-01" itree="5">
      <Node pos="s" depth="0" Seq="0" IVar="18" Cut="1.5215004980564117e-01" cType="1" nS="4.2221113281250000e+04" nB="3.7050890625000000e+04" nEv="7.9272000000000000e+04" nSuw="2.7450000000000000e+03" nBuw="7.6527000000000000e+04" nEvuw="7.9272000000000000e+04" sepI="2.4893654882907867e-01" sepG="2.2324617004394531e+02" res="-9.9000000000000000e+01" rms="0.0000000000000000e+00" nType="0" CC="0.0000000000000000e+00">
        <Node pos="l" depth="1" Seq="0" IVar="14" Cut="3.8874149322509766e-01" cType="0" nS="3.5465317382812500e+03" nB="1.2323082275390625e+03" nEv="4.7788398437500000e+03" nSuw="2.7400000000000000e+02" nBuw="1.3760000000000000e+03" nEvuw="1.6500000000000000e+03" sepI="1.9137191772460938e-01" sepG="1.0357170867919922e+02" res="-9.9000000000000000e+01" rms="0.0000000000000000e+00" nType="0" CC="0.0000000000000000e+00">
          <Node pos="l" depth="2" Seq="0" IVar="7" Cut="6.7890477180480957e+00" cType="0" nS="3.5387265625000000e+03" nB="1.0394733886718750e+03" nEv="4.5782001953125000e+03" nSuw="2.7300000000000000e+02" nBuw="1.2780000000000000e+03" nEvuw="1.5510000000000000e+03" sepI="1.7549747228622437e-01" sepG="7.3451110839843750e+01" res="-9.9000000000000000e+01" rms="0.0000000000000000e+00" nType="0" CC="0.0000000000000000e+00">
            <Node pos="l" depth="3" Seq="0" IVar="-1" Cut="0.0000000000000000e+00" cType="1" nS="3.4015163574218750e+03" nB="7.9072271728515625e+02" nEv="4.1922392578125000e+03" nSuw="2.5800000000000000e+02" nBuw="1.2380000000000000e+03" nEvuw="1.4960000000000000e+03" sepI="1.5303990244865417e-01" sepG="-1.0000000000000000e+00" res="-9.9000000000000000e+01" rms="0.0000000000000000e+00" nType="1" CC="0.0000000000000000e+00"/>
            <Node pos="r" depth="3" Seq="4" IVar="-1" Cut="0.0000000000000000e+00" cType="1" nS="1.3721012878417969e+02" nB="2.4875071716308594e+02" nEv="3.8596084594726562e+02" nSuw="1.5000000000000000e+01" nBuw="4.0000000000000000e+01" nEvuw="5.5000000000000000e+01" sepI="2.2912053763866425e-01" sepG="-1.0000000000000000e+00" res="-9.9000000000000000e+01" rms="0.0000000000000000e+00" nType="-1" CC="0.0000000000000000e+00"/>
          </Node>
          <Node pos="r" depth="2" Seq="2" IVar="-1" Cut="8.3512182235717773e+00" cType="1" nS="7.8051657676696777e+00" nB="1.9283479309082031e+02" nEv="2.0063995361328125e+02" nSuw="1.0000000000000000e+00" nBuw="9.8000000000000000e+01" nEvuw="9.9000000000000000e+01" sepI="3.7388037890195847e-02" sepG="-1.0000000000000000e+00" res="-9.9000000000000000e+01" rms="0.0000000000000000e+00" nType="-1" CC="0.0000000000000000e+00"/>
        </Node>
        <Node pos="r" depth="1" Seq="1" IVar="18" Cut="5.4948115348815918e-01" cType="0" nS="3.8674578125000000e+04" nB="3.5818582031250000e+04" nEv="7.4493164062500000e+04" nSuw="2.4710000000000000e+03" nBuw="7.5151000000000000e+04" nEvuw="7.7622000000000000e+04" sepI="2.4963252246379852e-01" sepG="2.6597314453125000e+02" res="-9.9000000000000000e+01" rms="0.0000000000000000e+00" nType="0" CC="0.0000000000000000e+00">
          <Node pos="l" depth="2" Seq="1" IVar="15" Cut="3.9589726924896240e-01" cType="0" nS="1.7842562500000000e+04" nB="1.2316426757812500e+04" nEv="3.0158988281250000e+04" nSuw="1.4600000000000000e+03" nBuw="1.9651000000000000e+04" nEvuw="2.1111000000000000e+04" sepI="2.4160636961460114e-01" sepG="1.1013868713378906e+02" res="-9.9000000000000000e+01" rms="0.0000000000000000e+00" nType="0" CC="0.0000000000000000e+00">
            <Node pos="l" depth="3" Seq="1" IVar="-1" Cut="0.0000000000000000e+00" cType="1" nS="1.6012065429687500e+04" nB="9.9910058593750000e+03" nEv="2.6003070312500000e+04" nSuw="1.3170000000000000e+03" nBuw="1.5177000000000000e+04" nEvuw="1.6494000000000000e+04" sepI="2.3659592866897583e-01" sepG="-1.0000000000000000e+00" res="-9.9000000000000000e+01" rms="0.0000000000000000e+00" nType="1" CC="0.0000000000000000e+00"/>
            <Node pos="r" depth="3" Seq="5" IVar="-1" Cut="0.0000000000000000e+00" cType="1" nS="1.8304970703125000e+03" nB="2.3254211425781250e+03" nEv="4.1559179687500000e+03" nSuw="1.4300000000000000e+02" nBuw="4.4740000000000000e+03" nEvuw="4.6170000000000000e+03" sepI="2.4645444750785828e-01" sepG="-1.0000000000000000e+00" res="-9.9000000000000000e+01" rms="0.0000000000000000e+00" nType="-1" CC="0.0000000000000000e+00"/>
          </Node>
          <Node pos="r" depth="2" Seq="3" IVar="0" Cut="3.8713935852050781e+01" cType="1" nS="2.0832017578125000e+04" nB="2.3502156250000000e+04" nEv="4.4334171875000000e+04" nSuw="1.0110000000000000e+03" nBuw="5.5500000000000000e+04" nEvuw="5.6511000000000000e+04" sepI="2.4909316003322601e-01" sepG="2.7500598144531250e+02" res="-9.9000000000000000e+01" rms="0.0000000000000000e+00" nType="0" CC="0.0000000000000000e+00">
            <Node pos="l" depth="3" Seq="3" IVar="-1" Cut="0.0000000000000000e+00" cType="1" nS="1.8105347656250000e+04" nB="1.7466857421875000e+04" nEv="3.5572207031250000e+04" nSuw="9.5100000000000000e+02" nBuw="3.0631000000000000e+04" nEvuw="3.1582000000000000e+04" sepI="2.4991945922374725e-01" sepG="-1.0000000000000000e+00" res="-9.9000000000000000e+01" rms="0.0000000000000000e+00" nType="1" CC="0.0000000000000000e+00"/>
            <Node pos="r" depth="3" Seq="7" IVar="-1" Cut="0.0000000000000000e+00" cType="1" nS="2.7266691894531250e+03" nB="6.0352973632812500e+03" nEv="8.7619667968750000e+03" nSuw="6.0000000000000000e+01" nBuw="2.4869000000000000e+04" nEvuw="2.4929000000000000e+04" sepI="2.1435219049453735e-01" sepG="-1.0000000000000000e+00" res="-9.9000000000000000e+01" rms="0.0000000000000000e+00" nType="-1" CC="0.0000000000000000e+00"/>
          </Node>
        </Node>
      </Node>
    </BinaryTree>
    <BinaryTree type="DecisionTree" boostWeight="3.3471420511093991e-01" itree="6">
      <Node pos="s" depth="0" Seq="0" IVar="18" Cut="1.5215004980564117e-01" cType="1" nS="3.7760261718750000e+04" nB="4.1511742187500000e+04" nEv="7.9272000000000000e+04" nSuw="2.7450000000000000e+03" nBuw="7.6527000000000000e+04" nEvuw="7.9272000000000000e+04" sepI="2.4944010376930237e-01" sepG="2.3156695556640625e+02" res="-9.9000000000000000e+01" rms="0.0000000000000000e+00" nType="0" CC="0.0000000000000000e+00">
        <Node pos="l" depth="1" Seq="0" IVar="14" Cut="3.8874149322509766e-01" cType="0" nS="3.0850351562500000e+03" nB="1.3290032958984375e+03" nEv="4.4140385742187500e+03" nSuw="2.7400000000000000e+02" nBuw="1.3760000000000000e+03" nEvuw="1.6500000000000000e+03" sepI="2.1043305099010468e-01" sepG="7.5554397583007812e+01" res="-9.9000000000000000e+01" rms="0.0000000000000000e+00" nType="0" CC="0.0000000000000000e+00">
          <Node pos="l" depth="2" Seq="0" IVar="0" Cut="4.5175132751464844e+01" cType="1" nS="3.0756464843750000e+03" nB="1.1639990234375000e+03" nEv="4.2396455078125000e+03" nSuw="2.7300000000000000e+02" nBuw="1.2780000000000000e+03" nEvuw="1.5510000000000000e+03" sepI="1.9917276501655579e-01" sepG="6.0417064666748047e+01" res="-9.9000000000000000e+01" rms="0.0000000000000000e+00" nType="0" CC="0.0000000000000000e+00">
            <Node pos="l" depth="3" Seq="0" IVar="-1" Cut="0.0000000000000000e+00" cType="1" nS="3.0756464843750000e+03" nB="1.0522246093750000e+03" nEv="4.1278710937500000e+03" nSuw="2.7300000000000000e+02" nBuw="9.1300000000000000e+02" nEvuw="1.1860000000000000e+03" sepI="1.8992958962917328e-01" sepG="-1.0000000000000000e+00" res="-9.9000000000000000e+01" rms="0.0000000000000000e+00" nType="1" CC="0.0000000000000000e+00"/>
            <Node pos="r" depth="3" Seq="4" IVar="-1" Cut="0.0000000000000000e+00" cType="1" nS="0.0000000000000000e+00" nB="1.1177443695068359e+02" nEv="1.1177443695068359e+02" nSuw="0.0000000000000000e+00" nBuw="3.6500000000000000e+02" nEvuw="3.6500000000000000e+02" sepI="0.0000000000000000e+00" sepG="-1.0000000000000000e+00" res="-9.9000000000000000e+01" rms="0.0000000000000000e+00" nType="-1" CC="0.0000000000000000e+00"/>
          </Node>
          <Node pos="r" depth="2" Seq="2" IVar="-1" Cut="8.3512182235717773e+00" cType="1" nS="9.3887205123901367e+00" nB="1.6500424194335938e+02" nEv="1.7439295959472656e+02" nSuw="1.0000000000000000e+00" nBuw="9.8000000000000000e+01" nEvuw="9.9000000000000000e+01" sepI="5.0938203930854797e-02" sepG="-1.0000000000000000e+00" res="-9.9000000000000000e+01" rms="0.0000000000000000e+00" nType="-1" CC="0.0000000000000000e+00"/>
        </Node>
        <Node pos="r" depth="1" Seq="1" IVar="12" Cut="3.2857143878936768e+00" cType="0" nS="3.4675226562500000e+04" nB="4.0182738281250000e+04" nEv="7.4857960937500000e+04" nSuw="2.4710000000000000e+03" nBuw="7.5151000000000000e+04" nEvuw="7.7622000000000000e+04" sepI="2.4864676594734192e-01" sepG="2.4656622314453125e+02" res="-9.9000000000000000e+01" rms="0.0000000000000000e+00" nType="0" CC="0.0000000000000000e+00">
          <Node pos="l" depth="2" Seq="1" IVar="10" Cut="4.8071189880371094e+01" cType="1" nS="1.3224274902343750e+03" nB="2.1641921997070312e+02" nEv="1.5388466796875000e+03" nSuw="9.7000000000000000e+01" nBuw="2.1600000000000000e+02" nEvuw="3.1300000000000000e+02" sepI="1.2085843831300735e-01" sepG="3.9875308990478516e+01" res="-9.9000000000000000e+01" rms="0.0000000000000000e+00" nType="0" CC="0.0000000000000000e+00">
            <Node pos="l" depth="3" Seq="1" IVar="-1" Cut="0.0000000000000000e+00" cType="1" nS="1.3224274902343750e+03" nB="1.6425486755371094e+02" nEv="1.4866823730468750e+03" nSuw="9.7000000000000000e+01" nBuw="1.5000000000000000e+02" nEvuw="2.4700000000000000e+02" sepI="9.8277412354946136e-02" sepG="-1.0000000000000000e+00" res="-9.9000000000000000e+01" rms="0.0000000000000000e+00" nType="1" CC="0.0000000000000000e+00"/>
            <Node pos="r" depth="3" Seq="5" IVar="-1" Cut="0.0000000000000000e+00" cType="1" nS="0.0000000000000000e+00" nB="5.2164356231689453e+01" nEv="5.2164356231689453e+01" nSuw="0.0000000000000000e+00" nBuw="6.6000000000000000e+01" nEvuw="6.6000000000000000e+01" sepI="0.0000000000000000e+00" sepG="-1.0000000000000000e+00" res="-9.9000000000000000e+01" rms="0.0000000000000000e+00" nType="-1" CC="0.0000000000000000e+00"/>
          </Node>
          <Node pos="r" depth="2" Seq="3" IVar="18" Cut="5.4948115348815918e-01" cType="0" nS="3.3352796875000000e+04" nB="3.9966320312500000e+04" nEv="7.3319117187500000e+04" nSuw="2.3740000000000000e+03" nBuw="7.4935000000000000e+04" nEvuw="7.7309000000000000e+04" sepI="2.4796590209007263e-01" sepG="2.4541343688964844e+02" res="-9.9000000000000000e+01" rms="0.0000000000000000e+00" nType="0" CC="0.0000000000000000e+00">
            <Node pos="l" depth="3" Seq="3" IVar="-1" Cut="0.0000000000000000e+00" cType="1" nS="1.5390946289062500e+04" nB="1.3876159179687500e+04" nEv="2.9267105468750000e+04" nSuw="1.3960000000000000e+03" nBuw="1.9562000000000000e+04" nEvuw="2.0958000000000000e+04" sepI="2.4933029711246490e-01" sepG="-1.0000000000000000e+00" res="-9.9000000000000000e+01" rms="0.0000000000000000e+00" nType="1" CC="0.0000000000000000e+00"/>
            <Node pos="r" depth="3" Seq="7" IVar="-1" Cut="0.0000000000000000e+00" cType="1" nS="1.7961851562500000e+04" nB="2.6090160156250000e+04" nEv="4.4052011718750000e+04" nSuw="9.7800000000000000e+02" nBuw="5.5373000000000000e+04" nEvuw="5.6351000000000000e+04" sepI="2.4148844182491302e-01" sepG="-1.0000000000000000e+00" res="-9.9000000000000000e+01" rms="0.0000000000000000e+00" nType="-1" CC="0.0000000000000000e+00"/>
          </Node>
        </Node>
      </Node>
    </BinaryTree>
    <BinaryTree type="DecisionTree" boostWeight="3.2136095038384532e-01" itree="7">
      <Node pos="s" depth="0" Seq="0" IVar="18" Cut="2.4485854804515839e-01" cType="1" nS="3.8517843750000000e+04" nB="4.0754156250000000e+04" nEv="7.9272000000000000e+04" nSuw="2.7450000000000000e+03" nBuw="7.6527000000000000e+04" nEvuw="7.9272000000000000e+04" sepI="2.4980103969573975e-01" sepG="2.4804418945312500e+02" res="-9.9000000000000000e+01" rms="0.0000000000000000e+00" nType="0" CC="0.0000000000000000e+00">
        <Node pos="l" depth="1" Seq="0" IVar="0" Cut="2.7294324874877930e+01" cType="1" nS="7.5721660156250000e+03" nB="4.7096318359375000e+03" nEv="1.2281797851562500e+04" nSuw="5.2700000000000000e+02" nBuw="9.2750000000000000e+03" nEvuw="9.8020000000000000e+03" sepI="2.3641943931579590e-01" sepG="1.3023377990722656e+02" res="-9.9000000000000000e+01" rms="0.0000000000000000e+00" nType="0" CC="0.0000000000000000e+00">
          <Node pos="l" depth="2" Seq="0" IVar="7" Cut="5.9856615066528320e+00" cType="0" nS="4.9333701171875000e+03" nB="2.0524821777343750e+03" nEv="6.9858520507812500e+03" nSuw="3.9500000000000000e+02" nBuw="1.7030000000000000e+03" nEvuw="2.0980000000000000e+03" sepI="2.0748385787010193e-01" sepG="1.3258369445800781e+02" res="-9.9000000000000000e+01" rms="0.0000000000000000e+00" nType="0" CC="0.0000000000000000e+00">
            <Node pos="l" depth="3" Seq="0" IVar="-1" Cut="0.0000000000000000e+00" cType="1" nS="4.9047978515625000e+03" nB="1.7517847900390625e+03" nEv="6.6565825195312500e+03" nSuw="3.9100000000000000e+02" nBuw="1.6620000000000000e+03" nEvuw="2.0530000000000000e+03" sepI="1.9390955567359924e-01" sepG="-1.0000000000000000e+00" res="-9.9000000000000000e+01" rms="0.0000000000000000e+00" nType="1" CC="0.0000000000000000e+00"/>
            <Node pos="r" depth="3" Seq="4" IVar="-1" Cut="0.0000000000000000e+00" cType="1" nS="2.8572240829467773e+01" nB="3.0069747924804688e+02" nEv="3.2926971435546875e+02" nSuw="4.0000000000000000e+00" nBuw="4.1000000000000000e+01" nEvuw="4.5000000000000000e+01" sepI="7.9244747757911682e-02" sepG="-1.0000000000000000e+00" res="-9.9000000000000000e+01" rms="0.0000000000000000e+00" nType="-1" CC="0.0000000000000000e+00"/>
          </Node>
          <Node pos="r" depth="2" Seq="2" IVar="13" Cut="9.6100136637687683e-02" cType="0" nS="2.6387961425781250e+03" nB="2.6571496582031250e+03" nEv="5.2959458007812500e+03" nSuw="1.3200000000000000e+02" nBuw="7.5720000000000000e+03" nEvuw="7.7040000000000000e+03" sepI="2.4999700486660004e-01" sepG="1.6267424011230469e+02" res="-9.9000000000000000e+01" rms="0.0000000000000000e+00" nType="0" CC="0.0000000000000000e+00">
            <Node pos="l" depth="3" Seq="2" IVar="-1" Cut="0.0000000000000000e+00" cType="1" nS="1.4495877685546875e+03" nB="5.5608062744140625e+02" nEv="2.0056684570312500e+03" nSuw="6.7000000000000000e+01" nBuw="9.1500000000000000e+02" nEvuw="9.8200000000000000e+02" sepI="2.0038443803787231e-01" sepG="-1.0000000000000000e+00" res="-9.9000000000000000e+01" rms="0.0000000000000000e+00" nType="1" CC="0.0000000000000000e+00"/>
            <Node pos="r" depth="3" Seq="6" IVar="-1" Cut="0.0000000000000000e+00" cType="1" nS="1.1892083740234375e+03" nB="2.1010690917968750e+03" nEv="3.2902773437500000e+03" nSuw="6.5000000000000000e+01" nBuw="6.6570000000000000e+03" nEvuw="6.7220000000000000e+03" sepI="2.3079864680767059e-01" sepG="-1.0000000000000000e+00" res="-9.9000000000000000e+01" rms="0.0000000000000000e+00" nType="-1" CC="0.0000000000000000e+00"/>
          </Node>
        </Node>
        <Node pos="r" depth="1" Seq="1" IVar="12" Cut="3.2857143878936768e+00" cType="0" nS="3.0945679687500000e+04" nB="3.6044523437500000e+04" nEv="6.6990203125000000e+04" nSuw="2.2180000000000000e+03" nBuw="6.7252000000000000e+04" nEvuw="6.9470000000000000e+04" sepI="2.4855169653892517e-01" sepG="1.8570751953125000e+02" res="-9.9000000000000000e+01" rms="0.0000000000000000e+00" nType="0" CC="0.0000000000000000e+00">
          <Node pos="l" depth="2" Seq="1" IVar="3" Cut="1.8497630357742310e+00" cType="1" nS="1.1310820312500000e+03" nB="2.3736271667480469e+02" nEv="1.3684448242187500e+03" nSuw="9.6000000000000000e+01" nBuw="2.0900000000000000e+02" nEvuw="3.0500000000000000e+02" sepI="1.4336794614791870e-01" sepG="3.3927104949951172e+01" res="-9.9000000000000000e+01" rms="0.0000000000000000e+00" nType="0" CC="0.0000000000000000e+00">
            <Node pos="l" depth="3" Seq="1" IVar="-1" Cut="0.0000000000000000e+00" cType="1" nS="1.0459718017578125e+03" nB="1.2859523010253906e+02" nEv="1.1745670166015625e+03" nSuw="9.2000000000000000e+01" nBuw="1.6000000000000000e+02" nEvuw="2.5200000000000000e+02" sepI="9.7496546804904938e-02" sepG="-1.0000000000000000e+00" res="-9.9000000000000000e+01" rms="0.0000000000000000e+00" nType="1" CC="0.0000000000000000e+00"/>
            <Node pos="r" depth="3" Seq="5" IVar="-1" Cut="0.0000000000000000e+00" cType="1" nS="8.5110328674316406e+01" nB="1.0876748657226562e+02" nEv="1.9387780761718750e+02" nSuw="4.0000000000000000e+00" nBuw="4.9000000000000000e+01" nEvuw="5.3000000000000000e+01" sepI="2.4627771973609924e-01" sepG="-1.0000000000000000e+00" res="-9.9000000000000000e+01" rms="0.0000000000000000e+00" nType="-1" CC="0.0000000000000000e+00"/>
          </Node>
          <Node pos="r" depth="2" Seq="3" IVar="5" Cut="1.7714284896850586e+01" cType="1" nS="2.9814597656250000e+04" nB="3.5807164062500000e+04" nEv="6.5621757812500000e+04" nSuw="2.1220000000000000e+03" nBuw="6.7043000000000000e+04" nEvuw="6.9165000000000000e+04" sepI="2.4791517853736877e-01" sepG="1.4142707824707031e+02" res="-9.9000000000000000e+01" rms="0.0000000000000000e+00" nType="0" CC="0.0000000000000000e+00">
            <Node pos="l" depth="3" Seq="3" IVar="-1" Cut="0.0000000000000000e+00" cType="1" nS="1.5490599609375000e+04" nB="1.5258169921875000e+04" nEv="3.0748769531250000e+04" nSuw="5.3300000000000000e+02" nBuw="3.7965000000000000e+04" nEvuw="3.8498000000000000e+04" sepI="2.4998570978641510e-01" sepG="-1.0000000000000000e+00" res="-9.9000000000000000e+01" rms="0.0000000000000000e+00" nType="1" CC="0.0000000000000000e+00"/>
            <Node pos="r" depth="3" Seq="7" IVar="-1" Cut="0.0000000000000000e+00" cType="1" nS="1.4323998046875000e+04" nB="2.0548992187500000e+04" nEv="3.4872988281250000e+04" nSuw="1.5890000000000000e+03" nBuw="2.9078000000000000e+04" nEvuw="3.0667000000000000e+04" sepI="2.4203401803970337e-01" sepG="-1.0000000000000000e+00" res="-9.9000000000000000e+01" rms="0.0000000000000000e+00" nType="-1" CC="0.0000000000000000e+00"/>
          </Node>
        </Node>
      </Node>
    </BinaryTree>
    <BinaryTree type="DecisionTree" boostWeight="4.0907706275330030e-01" itree="8">
      <Node pos="s" depth="0" Seq="0" IVar="5" Cut="1.1571428298950195e+01" cType="0" nS="3.8333507812500000e+04" nB="4.0938496093750000e+04" nEv="7.9272000000000000e+04" nSuw="2.7450000000000000e+03" nBuw="7.6527000000000000e+04" nEvuw="7.9272000000000000e+04" sepI="2.4973003566265106e-01" sepG="1.9829745483398438e+02" res="-9.9000000000000000e+01" rms="0.0000000000000000e+00" nType="0" CC="0.0000000000000000e+00">
        <Node pos="l" depth="1" Seq="0" IVar="3" Cut="9.1574591398239136e-01" cType="1" nS="3.3058761718750000e+04" nB="3.2175423828125000e+04" nEv="6.5234187500000000e+04" nSuw="2.5210000000000000e+03" nBuw="6.1021000000000000e+04" nEvuw="6.3542000000000000e+04" sepI="2.4995416402816772e-01" sepG="4.5389920043945312e+02" res="-9.9000000000000000e+01" rms="0.0000000000000000e+00" nType="0" CC="0.0000000000000000e+00">
          <Node pos="l" depth="2" Seq="0" IVar="2" Cut="1.2810626626014709e-01" cType="1" nS="2.5811669921875000e+04" nB="2.0228927734375000e+04" nEv="4.6040597656250000e+04" nSuw="2.0060000000000000e+03" nBuw="3.7117000000000000e+04" nEvuw="3.9123000000000000e+04" sepI="2.4632419645786285e-01" sepG="2.0472888183593750e+02" res="-9.9000000000000000e+01" rms="0.0000000000000000e+00" nType="0" CC="0.0000000000000000e+00">
            <Node pos="l" depth="3" Seq="0" IVar="-1" Cut="0.0000000000000000e+00" cType="1" nS="1.5955887695312500e+04" nB="9.7858955078125000e+03" nEv="2.5741783203125000e+04" nSuw="1.6120000000000000e+03" nBuw="7.7750000000000000e+03" nEvuw="9.3870000000000000e+03" sepI="2.3563742637634277e-01" sepG="-1.0000000000000000e+00" res="-9.9000000000000000e+01" rms="0.0000000000000000e+00" nType="1" CC="0.0000000000000000e+00"/>
            <Node pos="r" depth="3" Seq="4" IVar="-1" Cut="0.0000000000000000e+00" cType="1" nS="9.8557812500000000e+03" nB="1.0443032226562500e+04" nEv="2.0298814453125000e+04" nSuw="3.9400000000000000e+02" nBuw="2.9342000000000000e+04" nEvuw="2.9736000000000000e+04" sepI="2.4979075789451599e-01" sepG="-1.0000000000000000e+00" res="-9.9000000000000000e+01" rms="0.0000000000000000e+00" nType="-1" CC="0.0000000000000000e+00"/>
          </Node>
          <Node pos="r" depth="2" Seq="2" IVar="-1" Cut="3.8392129540443420e-01" cType="1" nS="7.2470937500000000e+03" nB="1.1946495117187500e+04" nEv="1.9193589843750000e+04" nSuw="5.1500000000000000e+02" nBuw="2.3904000000000000e+04" nEvuw="2.4419000000000000e+04" sepI="2.3501306772232056e-01" sepG="-1.0000000000000000e+00" res="-9.9000000000000000e+01" rms="0.0000000000000000e+00" nType="-1" CC="0.0000000000000000e+00"/>
        </Node>
        <Node pos="r" depth="1" Seq="1" IVar="7" Cut="6.3032217025756836e+00" cType="0" nS="5.2747446289062500e+03" nB="8.7630712890625000e+03" nEv="1.4037816406250000e+04" nSuw="2.2400000000000000e+02" nBuw="1.5506000000000000e+04" nEvuw="1.5730000000000000e+04" sepI="2.3456256091594696e-01" sepG="1.0274207305908203e+02" res="-9.9000000000000000e+01" rms="0.0000000000000000e+00" nType="0" CC="0.0000000000000000e+00">
          <Node pos="l" depth="2" Seq="1" IVar="8" Cut="-2.1325583457946777e+00" cType="1" nS="3.7765402832031250e+03" nB="4.7114028320312500e+03" nEv="8.4879433593750000e+03" nSuw="1.1000000000000000e+02" nBuw="1.3055000000000000e+04" nEvuw="1.3165000000000000e+04" sepI="2.4696728587150574e-01" sepG="9.8377593994140625e+01" res="-9.9000000000000000e+01" rms="0.0000000000000000e+00" nType="0" CC="0.0000000000000000e+00">
            <Node pos="l" depth="3" Seq="1" IVar="-1" Cut="0.0000000000000000e+00" cType="1" nS="1.9438470458984375e+03" nB="1.4204394531250000e+03" nEv="3.3642863769531250e+03" nSuw="3.9000000000000000e+01" nBuw="4.9890000000000000e+03" nEvuw="5.0280000000000000e+03" sepI="2.4394890666007996e-01" sepG="-1.0000000000000000e+00" res="-9.9000000000000000e+01" rms="0.0000000000000000e+00" nType="1" CC="0.0000000000000000e+00"/>
            <Node pos="r" depth="3" Seq="5" IVar="-1" Cut="0.0000000000000000e+00" cType="1" nS="1.8326932373046875e+03" nB="3.2909633789062500e+03" nEv="5.1236567382812500e+03" nSuw="7.1000000000000000e+01" nBuw="8.0660000000000000e+03" nEvuw="8.1370000000000000e+03" sepI="2.2974856197834015e-01" sepG="-1.0000000000000000e+00" res="-9.9000000000000000e+01" rms="0.0000000000000000e+00" nType="-1" CC="0.0000000000000000e+00"/>
          </Node>
          <Node pos="r" depth="2" Seq="3" IVar="-1" Cut="6.7318063974380493e-01" cType="1" nS="1.4982042236328125e+03" nB="4.0516687011718750e+03" nEv="5.5498730468750000e+03" nSuw="1.1400000000000000e+02" nBuw="2.4510000000000000e+03" nEvuw="2.5650000000000000e+03" sepI="1.9707831740379333e-01" sepG="-1.0000000000000000e+00" res="-9.9000000000000000e+01" rms="0.0000000000000000e+00" nType="-1" CC="0.0000000000000000e+00"/>
        </Node>
      </Node>
    </BinaryTree>
    <BinaryTree type="DecisionTree" boostWeight="6.0828379903422292e-01" itree="9">
      <Node pos="s" depth="0" Seq="0" IVar="7" Cut="6.4884090423583984e+00" cType="0" nS="4.0492605468750000e+04" nB="3.8779398437500000e+04" nEv="7.9272000000000000e+04" nSuw="2.7450000000000000e+03" nBuw="7.6527000000000000e+04" nEvuw="7.9272000000000000e+04" sepI="2.4988323450088501e-01" sepG="2.4635945129394531e+02" res="-9.9000000000000000e+01" rms="0.0000000000000000e+00" nType="0" CC="0.0000000000000000e+00">
        <Node pos="l" depth="1" Seq="0" IVar="15" Cut="7.0769548416137695e-01" cType="0" nS="2.7496734375000000e+04" nB="2.2147830078125000e+04" nEv="4.9644562500000000e+04" nSuw="1.1630000000000000e+03" nBuw="6.7712000000000000e+04" nEvuw="6.8875000000000000e+04" sepI="2.4709780514240265e-01" sepG="3.7185607910156250e+02" res="-9.9000000000000000e+01" rms="0.0000000000000000e+00" nType="0" CC="0.0000000000000000e+00">
          <Node pos="l" depth="2" Seq="0" IVar="7" Cut="9.1979188919067383e+00" cType="1" nS="8.7160273437500000e+03" nB="3.6642629394531250e+03" nEv="1.2380291015625000e+04" nSuw="4.2200000000000000e+02" nBuw="1.2195000000000000e+04" nEvuw="1.2617000000000000e+04" sepI="2.0837400853633881e-01" sepG="1.7467802429199219e+02" res="-9.9000000000000000e+01" rms="0.0000000000000000e+00" nType="0" CC="0.0000000000000000e+00">
            <Node pos="l" depth="3" Seq="0" IVar="-1" Cut="0.0000000000000000e+00" cType="1" nS="8.5920205078125000e+03" nB="3.1503620605468750e+03" nEv="1.1742381835937500e+04" nSuw="4.1700000000000000e+02" nBuw="9.0870000000000000e+03" nEvuw="9.5040000000000000e+03" sepI="1.9631041586399078e-01" sepG="-1.0000000000000000e+00" res="-9.9000000000000000e+01" rms="0.0000000000000000e+00" nType="1" CC="0.0000000000000000e+00"/>
            <Node pos="r" depth="3" Seq="4" IVar="-1" Cut="0.0000000000000000e+00" cType="1" nS="1.2400757598876953e+02" nB="5.1390075683593750e+02" nEv="6.3790832519531250e+02" nSuw="5.0000000000000000e+00" nBuw="3.1080000000000000e+03" nEvuw="3.1130000000000000e+03" sepI="1.5660691261291504e-01" sepG="-1.0000000000000000e+00" res="-9.9000000000000000e+01" rms="0.0000000000000000e+00" nType="-1" CC="0.0000000000000000e+00"/>
          </Node>
          <Node pos="r" depth="2" Seq="2" IVar="18" Cut="2.2043263912200928e-01" cType="1" nS="1.8780707031250000e+04" nB="1.8483566406250000e+04" nEv="3.7264273437500000e+04" nSuw="7.4100000000000000e+02" nBuw="5.5517000000000000e+04" nEvuw="5.6258000000000000e+04" sepI="2.4998410046100616e-01" sepG="1.3526464843750000e+02" res="-9.9000000000000000e+01" rms="0.0000000000000000e+00" nType="0" CC="0.0000000000000000e+00">
            <Node pos="l" depth="3" Seq="2" IVar="-1" Cut="0.0000000000000000e+00" cType="1" nS="4.3982084960937500e+03" nB="2.5898024902343750e+03" nEv="6.9880107421875000e+03" nSuw="3.1400000000000000e+02" nBuw="5.0870000000000000e+03" nEvuw="5.4010000000000000e+03" sepI="2.3325733840465546e-01" sepG="-1.0000000000000000e+00" res="-9.9000000000000000e+01" rms="0.0000000000000000e+00" nType="1" CC="0.0000000000000000e+00"/>
            <Node pos="r" depth="3" Seq="6" IVar="-1" Cut="0.0000000000000000e+00" cType="1" nS="1.4382498046875000e+04" nB="1.5893764648437500e+04" nEv="3.0276261718750000e+04" nSuw="4.2700000000000000e+02" nBuw="5.0430000000000000e+04" nEvuw="5.0857000000000000e+04" sepI="2.4937710165977478e-01" sepG="-1.0000000000000000e+00" res="-9.9000000000000000e+01" rms="0.0000000000000000e+00" nType="-1" CC="0.0000000000000000e+00"/>
          </Node>
        </Node>
        <Node pos="r" depth="1" Seq="1" IVar="15" Cut="6.7306131124496460e-01" cType="1" nS="1.2995870117187500e+04" nB="1.6631568359375000e+04" nEv="2.9627437500000000e+04" nSuw="1.5820000000000000e+03" nBuw="8.8150000000000000e+03" nEvuw="1.0397000000000000e+04" sepI="2.4623532593250275e-01" sepG="6.1607855224609375e+02" res="-9.9000000000000000e+01" rms="0.0000000000000000e+00" nType="0" CC="0.0000000000000000e+00">
          <Node pos="l" depth="2" Seq="1" IVar="6" Cut="3.5713982582092285e-01" cType="1" nS="9.6849648437500000e+03" nB="7.5922822265625000e+03" nEv="1.7277248046875000e+04" nSuw="7.9200000000000000e+02" nBuw="7.5970000000000000e+03" nEvuw="8.3890000000000000e+03" sepI="2.4633227288722992e-01" sepG="1.7119851684570312e+02" res="-9.9000000000000000e+01" rms="0.0000000000000000e+00" nType="0" CC="0.0000000000000000e+00">
            <Node pos="l" depth="3" Seq="1" IVar="-1" Cut="0.0000000000000000e+00" cType="1" nS="8.5384023437500000e+03" nB="5.4953989257812500e+03" nEv="1.4033801757812500e+04" nSuw="7.4900000000000000e+02" nBuw="4.9250000000000000e+03" nEvuw="5.6740000000000000e+03" sepI="2.3824577033519745e-01" sepG="-1.0000000000000000e+00" res="-9.9000000000000000e+01" rms="0.0000000000000000e+00" nType="1" CC="0.0000000000000000e+00"/>
            <Node pos="r" depth="3" Seq="5" IVar="-1" Cut="0.0000000000000000e+00" cType="1" nS="1.1465626220703125e+03" nB="2.0968830566406250e+03" nEv="3.2434455566406250e+03" nSuw="4.3000000000000000e+01" nBuw="2.6720000000000000e+03" nEvuw="2.7150000000000000e+03" sepI="2.2853815555572510e-01" sepG="-1.0000000000000000e+00" res="-9.9000000000000000e+01" rms="0.0000000000000000e+00" nType="-1" CC="0.0000000000000000e+00"/>
          </Node>
          <Node pos="r" depth="2" Seq="3" IVar="2" Cut="7.2395682334899902e-02" cType="0" nS="3.3109047851562500e+03" nB="9.0392861328125000e+03" nEv="1.2350190429687500e+04" nSuw="7.9000000000000000e+02" nBuw="1.2180000000000000e+03" nEvuw="2.0080000000000000e+03" sepI="1.9621556997299194e-01" sepG="1.5763066406250000e+03" res="-9.9000000000000000e+01" rms="0.0000000000000000e+00" nType="0" CC="0.0000000000000000e+00">
            <Node pos="l" depth="3" Seq="3" IVar="-1" Cut="0.0000000000000000e+00" cType="1" nS="3.1652287597656250e+03" nB="9.0517108154296875e+02" nEv="4.0703996582031250e+03" nSuw="2.7700000000000000e+02" nBuw="9.9800000000000000e+02" nEvuw="1.2750000000000000e+03" sepI="1.7292653024196625e-01" sepG="-1.0000000000000000e+00" res="-9.9000000000000000e+01" rms="0.0000000000000000e+00" nType="1" CC="0.0000000000000000e+00"/>
            <Node pos="r" depth="3" Seq="7" IVar="-1" Cut="0.0000000000000000e+00" cType="1" nS="1.4567601013183594e+02" nB="8.1341147460937500e+03" nEv="8.2797910156250000e+03" nSuw="5.1300000000000000e+02" nBuw="2.2000000000000000e+02" nEvuw="7.3300000000000000e+02" sepI="1.7284611240029335e-02" sepG="-1.0000000000000000e+00" res="-9.9000000000000000e+01" rms="0.0000000000000000e+00" nType="-1" CC="0.0000000000000000e+00"/>
          </Node>
        </Node>
      </Node>
    </BinaryTree>
    <BinaryTree type="DecisionTree" boostWeight="5.9244176082500233e-01" itree="10">
      <Node pos="s" depth="0" Seq="0" IVar="7" Cut="6.4884090423583984e+00" cType="0" nS="4.1479863281250000e+04" nB="3.7792136718750000e+04" nEv="7.9272000000000000e+04" nSuw="2.7450000000000000e+03" nBuw="7.6527000000000000e+04" nEvuw="7.9272000000000000e+04" sepI="2.4945896863937378e-01" sepG="7.5889062500000000e+02" res="-9.9000000000000000e+01" rms="0.0000000000000000e+00" nType="0" CC="0.0000000000000000e+00">
        <Node pos="l" depth="1" Seq="0" IVar="12" Cut="1.2857142686843872e+00" cType="0" nS="3.0609779296875000e+04" nB="2.0812263671875000e+04" nEv="5.1422042968750000e+04" nSuw="1.1630000000000000e+03" nBuw="6.7712000000000000e+04" nEvuw="6.8875000000000000e+04" sepI="2.4092444777488708e-01" sepG="1.3959208679199219e+02" res="-9.9000000000000000e+01" rms="0.0000000000000000e+00" nType="0" CC="0.0000000000000000e+00">
          <Node pos="l" depth="2" Seq="0" IVar="-1" Cut="3.3833026885986328e-01" cType="0" nS="9.5113740234375000e+03" nB="4.4646450195312500e+03" nEv="1.3976018554687500e+04" nSuw="3.6100000000000000e+02" nBuw="1.2602000000000000e+04" nEvuw="1.2963000000000000e+04" sepI="2.1740184724330902e-01" sepG="-1.0000000000000000e+00" res="-9.9000000000000000e+01" rms="0.0000000000000000e+00" nType="1" CC="0.0000000000000000e+00"/>
          <Node pos="r" depth="2" Seq="2" IVar="1" Cut="2.0840539932250977e+00" cType="0" nS="2.1098406250000000e+04" nB="1.6347618164062500e+04" nEv="3.7446023437500000e+04" nSuw="8.0200000000000000e+02" nBuw="5.5110000000000000e+04" nEvuw="5.5912000000000000e+04" sepI="2.4597598612308502e-01" sepG="2.4157838439941406e+02" res="-9.9000000000000000e+01" rms="0.0000000000000000e+00" nType="0" CC="0.0000000000000000e+00">
            <Node pos="l" depth="3" Seq="2" IVar="-1" Cut="0.0000000000000000e+00" cType="1" nS="1.5305479492187500e+04" nB="9.3264501953125000e+03" nEv="2.4631929687500000e+04" nSuw="3.2300000000000000e+02" nBuw="4.3499000000000000e+04" nEvuw="4.3822000000000000e+04" sepI="2.3526993393898010e-01" sepG="-1.0000000000000000e+00" res="-9.9000000000000000e+01" rms="0.0000000000000000e+00" nType="1" CC="0.0000000000000000e+00"/>
            <Node pos="r" depth="3" Seq="6" IVar="-1" Cut="0.0000000000000000e+00" cType="1" nS="5.7929262695312500e+03" nB="7.0211679687500000e+03" nEv="1.2814093750000000e+04" nSuw="4.7900000000000000e+02" nBuw="1.1611000000000000e+04" nEvuw="1.2090000000000000e+04" sepI="2.4770314991474152e-01" sepG="-1.0000000000000000e+00" res="-9.9000000000000000e+01" rms="0.0000000000000000e+00" nType="-1" CC="0.0000000000000000e+00"/>
          </Node>
        </Node>
        <Node pos="r" depth="1" Seq="1" IVar="15" Cut="6.7306131124496460e-01" cType="1" nS="1.0870084960937500e+04" nB="1.6979875000000000e+04" nEv="2.7849958984375000e+04" nSuw="1.5820000000000000e+03" nBuw="8.8150000000000000e+03" nEvuw="1.0397000000000000e+04" sepI="2.3796784877777100e-01" sepG="2.7615594482421875e+02" res="-9.9000000000000000e+01" rms="0.0000000000000000e+00" nType="0" CC="0.0000000000000000e+00">
          <Node pos="l" depth="2" Seq="1" IVar="13" Cut="1.2720662355422974e-01" cType="1" nS="8.2194169921875000e+03" nB="9.4150722656250000e+03" nEv="1.7634490234375000e+04" nSuw="7.9200000000000000e+02" nBuw="7.5970000000000000e+03" nEvuw="8.3890000000000000e+03" sepI="2.4885071814060211e-01" sepG="1.4591453552246094e+02" res="-9.9000000000000000e+01" rms="0.0000000000000000e+00" nType="0" CC="0.0000000000000000e+00">
            <Node pos="l" depth="3" Seq="1" IVar="-1" Cut="0.0000000000000000e+00" cType="1" nS="4.4020102539062500e+03" nB="3.3345627441406250e+03" nEv="7.7365727539062500e+03" nSuw="3.0700000000000000e+02" nBuw="3.5490000000000000e+03" nEvuw="3.8560000000000000e+03" sepI="2.4524077773094177e-01" sepG="-1.0000000000000000e+00" res="-9.9000000000000000e+01" rms="0.0000000000000000e+00" nType="1" CC="0.0000000000000000e+00"/>
            <Node pos="r" depth="3" Seq="5" IVar="-1" Cut="0.0000000000000000e+00" cType="1" nS="3.8174064941406250e+03" nB="6.0805097656250000e+03" nEv="9.8979160156250000e+03" nSuw="4.8500000000000000e+02" nBuw="4.0480000000000000e+03" nEvuw="4.5330000000000000e+03" sepI="2.3693042993545532e-01" sepG="-1.0000000000000000e+00" res="-9.9000000000000000e+01" rms="0.0000000000000000e+00" nType="-1" CC="0.0000000000000000e+00"/>
          </Node>
          <Node pos="r" depth="2" Seq="3" IVar="2" Cut="7.2395682334899902e-02" cType="0" nS="2.6506677246093750e+03" nB="7.5648022460937500e+03" nEv="1.0215469726562500e+04" nSuw="7.9000000000000000e+02" nBuw="1.2180000000000000e+03" nEvuw="2.0080000000000000e+03" sepI="1.9214813411235809e-01" sepG="9.2099346923828125e+02" res="-9.9000000000000000e+01" rms="0.0000000000000000e+00" nType="0" CC="0.0000000000000000e+00">
            <Node pos="l" depth="3" Seq="3" IVar="-1" Cut="0.0000000000000000e+00" cType="1" nS="2.4440063476562500e+03" nB="1.2841099853515625e+03" nEv="3.7281162109375000e+03" nSuw="2.7700000000000000e+02" nBuw="9.9800000000000000e+02" nEvuw="1.2750000000000000e+03" sepI="2.2580088675022125e-01" sepG="-1.0000000000000000e+00" res="-9.9000000000000000e+01" rms="0.0000000000000000e+00" nType="1" CC="0.0000000000000000e+00"/>
            <Node pos="r" depth="3" Seq="7" IVar="-1" Cut="0.0000000000000000e+00" cType="1" nS="2.0666149902343750e+02" nB="6.2806923828125000e+03" nEv="6.4873540039062500e+03" nSuw="5.1300000000000000e+02" nBuw="2.2000000000000000e+02" nEvuw="7.3300000000000000e+02" sepI="3.0841246247291565e-02" sepG="-1.0000000000000000e+00" res="-9.9000000000000000e+01" rms="0.0000000000000000e+00" nType="-1" CC="0.0000000000000000e+00"/>
          </Node>
        </Node>
      </Node>
    </BinaryTree>
    <BinaryTree type="DecisionTree" boostWeight="4.3461737615861401e-01" itree="11">
      <Node pos="s" depth="0" Seq="0" IVar="7" Cut="6.4884090423583984e+00" cType="0" nS="3.8370843750000000e+04" nB="4.0901156250000000e+04" nEv="7.9272000000000000e+04" nSuw="2.7450000000000000e+03" nBuw="7.6527000000000000e+04" nEvuw="7.9272000000000000e+04" sepI="2.4974529445171356e-01" sepG="2.5388059997558594e+02" res="-9.9000000000000000e+01" rms="0.0000000000000000e+00" nType="0" CC="0.0000000000000000e+00">
        <Node pos="l" depth="1" Seq="0" IVar="9" Cut="2.1486437320709229e+00" cType="1" nS="2.7404404296875000e+04" nB="2.4817296875000000e+04" nEv="5.2221703125000000e+04" nSuw="1.1630000000000000e+03" nBuw="6.7712000000000000e+04" nEvuw="6.8875000000000000e+04" sepI="2.4938642978668213e-01" sepG="1.4409599304199219e+02" res="-9.9000000000000000e+01" rms="0.0000000000000000e+00" nType="0" CC="0.0000000000000000e+00">
          <Node pos="l" depth="2" Seq="0" IVar="2" Cut="1.5924975275993347e-01" cType="1" nS="1.5098052734375000e+04" nB="1.1059049804687500e+04" nEv="2.6157101562500000e+04" nSuw="8.4700000000000000e+02" nBuw="2.2035000000000000e+04" nEvuw="2.2882000000000000e+04" sepI="2.4403913319110870e-01" sepG="2.7697695922851562e+02" res="-9.9000000000000000e+01" rms="0.0000000000000000e+00" nType="0" CC="0.0000000000000000e+00">
            <Node pos="l" depth="3" Seq="0" IVar="-1" Cut="0.0000000000000000e+00" cType="1" nS="8.8120205078125000e+03" nB="4.1231787109375000e+03" nEv="1.2935199218750000e+04" nSuw="6.5300000000000000e+02" nBuw="4.4270000000000000e+03" nEvuw="5.0800000000000000e+03" sepI="2.1715079247951508e-01" sepG="-1.0000000000000000e+00" res="-9.9000000000000000e+01" rms="0.0000000000000000e+00" nType="1" CC="0.0000000000000000e+00"/>
            <Node pos="r" depth="3" Seq="4" IVar="-1" Cut="0.0000000000000000e+00" cType="1" nS="6.2860317382812500e+03" nB="6.9358715820312500e+03" nEv="1.3221903320312500e+04" nSuw="1.9400000000000000e+02" nBuw="1.7608000000000000e+04" nEvuw="1.7802000000000000e+04" sepI="2.4939610064029694e-01" sepG="-1.0000000000000000e+00" res="-9.9000000000000000e+01" rms="0.0000000000000000e+00" nType="-1" CC="0.0000000000000000e+00"/>
          </Node>
          <Node pos="r" depth="2" Seq="2" IVar="10" Cut="3.7776237487792969e+01" cType="1" nS="1.2306351562500000e+04" nB="1.3758248046875000e+04" nEv="2.6064599609375000e+04" nSuw="3.1600000000000000e+02" nBuw="4.5677000000000000e+04" nEvuw="4.5993000000000000e+04" sepI="2.4922427535057068e-01" sepG="2.0214978027343750e+02" res="-9.9000000000000000e+01" rms="0.0000000000000000e+00" nType="0" CC="0.0000000000000000e+00">
            <Node pos="l" depth="3" Seq="2" IVar="-1" Cut="0.0000000000000000e+00" cType="1" nS="7.5907875976562500e+03" nB="6.0582416992187500e+03" nEv="1.3649029296875000e+04" nSuw="2.1700000000000000e+02" nBuw="1.5216000000000000e+04" nEvuw="1.5433000000000000e+04" sepI="2.4684816598892212e-01" sepG="-1.0000000000000000e+00" res="-9.9000000000000000e+01" rms="0.0000000000000000e+00" nType="1" CC="0.0000000000000000e+00"/>
            <Node pos="r" depth="3" Seq="6" IVar="-1" Cut="0.0000000000000000e+00" cType="1" nS="4.7155639648437500e+03" nB="7.7000063476562500e+03" nEv="1.2415570312500000e+04" nSuw="9.9000000000000000e+01" nBuw="3.0461000000000000e+04" nEvuw="3.0560000000000000e+04" sepI="2.3555448651313782e-01" sepG="-1.0000000000000000e+00" res="-9.9000000000000000e+01" rms="0.0000000000000000e+00" nType="-1" CC="0.0000000000000000e+00"/>
          </Node>
        </Node>
        <Node pos="r" depth="1" Seq="1" IVar="15" Cut="6.7306131124496460e-01" cType="1" nS="1.0966441406250000e+04" nB="1.6083858398437500e+04" nEv="2.7050300781250000e+04" nSuw="1.5820000000000000e+03" nBuw="8.8150000000000000e+03" nEvuw="1.0397000000000000e+04" sepI="2.4105258285999298e-01" sepG="3.3221691894531250e+02" res="-9.9000000000000000e+01" rms="0.0000000000000000e+00" nType="0" CC="0.0000000000000000e+00">
          <Node pos="l" depth="2" Seq="1" IVar="13" Cut="6.3603311777114868e-02" cType="0" nS="8.7785068359375000e+03" nB="9.4038320312500000e+03" nEv="1.8182337890625000e+04" nSuw="7.9200000000000000e+02" nBuw="7.5970000000000000e+03" nEvuw="8.3890000000000000e+03" sepI="2.4970430135726929e-01" sepG="1.3710754394531250e+02" res="-9.9000000000000000e+01" rms="0.0000000000000000e+00" nType="0" CC="0.0000000000000000e+00">
            <Node pos="l" depth="3" Seq="1" IVar="-1" Cut="0.0000000000000000e+00" cType="1" nS="7.2654287109375000e+03" nB="6.3663876953125000e+03" nEv="1.3631816406250000e+04" nSuw="6.0500000000000000e+02" nBuw="5.8800000000000000e+03" nEvuw="6.4850000000000000e+03" sepI="2.4891258776187897e-01" sepG="-1.0000000000000000e+00" res="-9.9000000000000000e+01" rms="0.0000000000000000e+00" nType="1" CC="0.0000000000000000e+00"/>
            <Node pos="r" depth="3" Seq="5" IVar="-1" Cut="0.0000000000000000e+00" cType="1" nS="1.5130778808593750e+03" nB="3.0374440917968750e+03" nEv="4.5505219726562500e+03" nSuw="1.8700000000000000e+02" nBuw="1.7170000000000000e+03" nEvuw="1.9040000000000000e+03" sepI="2.2194591164588928e-01" sepG="-1.0000000000000000e+00" res="-9.9000000000000000e+01" rms="0.0000000000000000e+00" nType="-1" CC="0.0000000000000000e+00"/>
          </Node>
          <Node pos="r" depth="2" Seq="3" IVar="2" Cut="7.2395682334899902e-02" cType="0" nS="2.1879348144531250e+03" nB="6.6800268554687500e+03" nEv="8.8679619140625000e+03" nSuw="7.9000000000000000e+02" nBuw="1.2180000000000000e+03" nEvuw="2.0080000000000000e+03" sepI="1.8585102260112762e-01" sepG="4.4960641479492188e+02" res="-9.9000000000000000e+01" rms="0.0000000000000000e+00" nType="0" CC="0.0000000000000000e+00">
            <Node pos="l" depth="3" Seq="3" IVar="-1" Cut="0.0000000000000000e+00" cType="1" nS="1.8977408447265625e+03" nB="1.8031463623046875e+03" nEv="3.7008872070312500e+03" nSuw="2.7700000000000000e+02" nBuw="9.9800000000000000e+02" nEvuw="1.2750000000000000e+03" sepI="2.4983666837215424e-01" sepG="-1.0000000000000000e+00" res="-9.9000000000000000e+01" rms="0.0000000000000000e+00" nType="1" CC="0.0000000000000000e+00"/>
            <Node pos="r" depth="3" Seq="7" IVar="-1" Cut="0.0000000000000000e+00" cType="1" nS="2.9019393920898438e+02" nB="4.8768803710937500e+03" nEv="5.1670742187500000e+03" nSuw="5.1300000000000000e+02" nBuw="2.2000000000000000e+02" nEvuw="7.3300000000000000e+02" sepI="5.3007952868938446e-02" sepG="-1.0000000000000000e+00" res="-9.9000000000000000e+01" rms="0.0000000000000000e+00" nType="-1" CC="0.0000000000000000e+00"/>
          </Node>
        </Node>
      </Node>
    </BinaryTree>
    <BinaryTree type="DecisionTree" boostWeight="4.6302129628570948e-01" itree="12">
      <Node pos="s" depth="0" Seq="0" IVar="7" Cut="6.4884090423583984e+00" cType="0" nS="3.7350304687500000e+04" nB="4.1921695312500000e+04" nEv="7.9272000000000000e+04" nSuw="2.7450000000000000e+03" nBuw="7.6527000000000000e+04" nEvuw="7.9272000000000000e+04" sepI="2.4916861951351166e-01" sepG="4.3092733764648438e+02" res="-9.9000000000000000e+01" rms="0.0000000000000000e+00" nType="0" CC="0.0000000000000000e+00">
        <Node pos="l" depth="1" Seq="0" IVar="9" Cut="2.1486437320709229e+00" cType="1" nS="2.7507992187500000e+04" nB="2.5009054687500000e+04" nEv="5.2517046875000000e+04" nSuw="1.1630000000000000e+03" nBuw="6.7712000000000000e+04" nEvuw="6.8875000000000000e+04" sepI="2.4943394958972931e-01" sepG="1.7709277343750000e+02" res="-9.9000000000000000e+01" rms="0.0000000000000000e+00" nType="0" CC="0.0000000000000000e+00">
          <Node pos="l" depth="2" Seq="0" IVar="13" Cut="4.8128645867109299e-02" cType="0" nS="1.5255958007812500e+04" nB="1.0958916992187500e+04" nEv="2.6214875000000000e+04" nSuw="8.4700000000000000e+02" nBuw="2.2035000000000000e+04" nEvuw="2.2882000000000000e+04" sepI="2.4328286945819855e-01" sepG="1.6225553894042969e+02" res="-9.9000000000000000e+01" rms="0.0000000000000000e+00" nType="0" CC="0.0000000000000000e+00">
            <Node pos="l" depth="3" Seq="0" IVar="-1" Cut="0.0000000000000000e+00" cType="1" nS="1.2067743164062500e+04" nB="7.0973374023437500e+03" nEv="1.9165080078125000e+04" nSuw="6.2600000000000000e+02" nBuw="1.5367000000000000e+04" nEvuw="1.5993000000000000e+04" sepI="2.3318478465080261e-01" sepG="-1.0000000000000000e+00" res="-9.9000000000000000e+01" rms="0.0000000000000000e+00" nType="1" CC="0.0000000000000000e+00"/>
            <Node pos="r" depth="3" Seq="4" IVar="-1" Cut="0.0000000000000000e+00" cType="1" nS="3.1882148437500000e+03" nB="3.8615795898437500e+03" nEv="7.0497944335937500e+03" nSuw="2.2100000000000000e+02" nBuw="6.6680000000000000e+03" nEvuw="6.8890000000000000e+03" sepI="2.4771919846534729e-01" sepG="-1.0000000000000000e+00" res="-9.9000000000000000e+01" rms="0.0000000000000000e+00" nType="-1" CC="0.0000000000000000e+00"/>
          </Node>
          <Node pos="r" depth="2" Seq="2" IVar="14" Cut="9.8944163322448730e-01" cType="1" nS="1.2252033203125000e+04" nB="1.4050137695312500e+04" nEv="2.6302171875000000e+04" nSuw="3.1600000000000000e+02" nBuw="4.5677000000000000e+04" nEvuw="4.5993000000000000e+04" sepI="2.4883161485195160e-01" sepG="1.4118331909179688e+02" res="-9.9000000000000000e+01" rms="0.0000000000000000e+00" nType="0" CC="0.0000000000000000e+00">
            <Node pos="l" depth="3" Seq="2" IVar="-1" Cut="0.0000000000000000e+00" cType="1" nS="4.1101904296875000e+03" nB="2.8855249023437500e+03" nEv="6.9957153320312500e+03" nSuw="1.5900000000000000e+02" nBuw="4.8430000000000000e+03" nEvuw="5.0020000000000000e+03" sepI="2.4233855307102203e-01" sepG="-1.0000000000000000e+00" res="-9.9000000000000000e+01" rms="0.0000000000000000e+00" nType="1" CC="0.0000000000000000e+00"/>
            <Node pos="r" depth="3" Seq="6" IVar="-1" Cut="0.0000000000000000e+00" cType="1" nS="8.1418427734375000e+03" nB="1.1164613281250000e+04" nEv="1.9306455078125000e+04" nSuw="1.5700000000000000e+02" nBuw="4.0834000000000000e+04" nEvuw="4.0991000000000000e+04" sepI="2.4387162923812866e-01" sepG="-1.0000000000000000e+00" res="-9.9000000000000000e+01" rms="0.0000000000000000e+00" nType="-1" CC="0.0000000000000000e+00"/>
          </Node>
        </Node>
        <Node pos="r" depth="1" Seq="1" IVar="15" Cut="6.7306131124496460e-01" cType="1" nS="9.8423144531250000e+03" nB="1.6912640625000000e+04" nEv="2.6754955078125000e+04" nSuw="1.5820000000000000e+03" nBuw="8.8150000000000000e+03" nEvuw="1.0397000000000000e+04" sepI="2.3254136741161346e-01" sepG="2.1220690917968750e+02" res="-9.9000000000000000e+01" rms="0.0000000000000000e+00" nType="0" CC="0.0000000000000000e+00">
          <Node pos="l" depth="2" Seq="1" IVar="15" Cut="5.3121834993362427e-01" cType="0" nS="7.9098583984375000e+03" nB="1.0601342773437500e+04" nEv="1.8511201171875000e+04" nSuw="7.9200000000000000e+02" nBuw="7.5970000000000000e+03" nEvuw="8.3890000000000000e+03" sepI="2.4471488595008850e-01" sepG="1.1322835540771484e+02" res="-9.9000000000000000e+01" rms="0.0000000000000000e+00" nType="0" CC="0.0000000000000000e+00">
            <Node pos="l" depth="3" Seq="1" IVar="-1" Cut="0.0000000000000000e+00" cType="1" nS="2.9409196777343750e+03" nB="2.4060280761718750e+03" nEv="5.3469477539062500e+03" nSuw="3.2700000000000000e+02" nBuw="1.7880000000000000e+03" nEvuw="2.1150000000000000e+03" sepI="2.4749815464019775e-01" sepG="-1.0000000000000000e+00" res="-9.9000000000000000e+01" rms="0.0000000000000000e+00" nType="1" CC="0.0000000000000000e+00"/>
            <Node pos="r" depth="3" Seq="5" IVar="-1" Cut="0.0000000000000000e+00" cType="1" nS="4.9689389648437500e+03" nB="8.1953144531250000e+03" nEv="1.3164253906250000e+04" nSuw="4.6500000000000000e+02" nBuw="5.8090000000000000e+03" nEvuw="6.2740000000000000e+03" sepI="2.3498319089412689e-01" sepG="-1.0000000000000000e+00" res="-9.9000000000000000e+01" rms="0.0000000000000000e+00" nType="-1" CC="0.0000000000000000e+00"/>
          </Node>
          <Node pos="r" depth="2" Seq="3" IVar="-1" Cut="7.2395682334899902e-02" cType="0" nS="1.9324564208984375e+03" nB="6.3112978515625000e+03" nEv="8.2437539062500000e+03" nSuw="7.9000000000000000e+02" nBuw="1.2180000000000000e+03" nEvuw="2.0080000000000000e+03" sepI="1.7946439981460571e-01" sepG="-1.0000000000000000e+00" res="-9.9000000000000000e+01" rms="0.0000000000000000e+00" nType="-1" CC="0.0000000000000000e+00"/>
        </Node>
      </Node>
    </BinaryTree>
    <BinaryTree type="DecisionTree" boostWeight="2.8112042940059306e-01" itree="13">
      <Node pos="s" depth="0" Seq="0" IVar="12" Cut="3.2857143878936768e+00" cType="0" nS="3.9175335937500000e+04" nB="4.0096664062500000e+04" nEv="7.9272000000000000e+04" nSuw="2.7450000000000000e+03" nBuw="7.6527000000000000e+04" nEvuw="7.9272000000000000e+04" sepI="2.4996623396873474e-01" sepG="1.8309896850585938e+02" res="-9.9000000000000000e+01" rms="0.0000000000000000e+00" nType="0" CC="0.0000000000000000e+00">
        <Node pos="l" depth="1" Seq="0" IVar="16" Cut="3.3138477802276611e-01" cType="0" nS="1.2814771728515625e+03" nB="2.5036114501953125e+02" nEv="1.5318383789062500e+03" nSuw="9.7000000000000000e+01" nBuw="2.1600000000000000e+02" nEvuw="3.1300000000000000e+02" sepI="1.3672626018524170e-01" sepG="4.3277961730957031e+01" res="-9.9000000000000000e+01" rms="0.0000000000000000e+00" nType="0" CC="0.0000000000000000e+00">
          <Node pos="l" depth="2" Seq="0" IVar="10" Cut="4.8367904663085938e+01" cType="1" nS="1.1149792480468750e+03" nB="9.2022521972656250e+01" nEv="1.2070018310546875e+03" nSuw="5.0000000000000000e+01" nBuw="9.1000000000000000e+01" nEvuw="1.4100000000000000e+02" sepI="7.0427961647510529e-02" sepG="2.4025962829589844e+01" res="-9.9000000000000000e+01" rms="0.0000000000000000e+00" nType="0" CC="0.0000000000000000e+00">
            <Node pos="l" depth="3" Seq="0" IVar="-1" Cut="0.0000000000000000e+00" cType="1" nS="1.1149792480468750e+03" nB="6.4508842468261719e+01" nEv="1.1794881591796875e+03" nSuw="5.0000000000000000e+01" nBuw="5.0000000000000000e+01" nEvuw="1.0000000000000000e+02" sepI="5.1700994372367859e-02" sepG="-1.0000000000000000e+00" res="-9.9000000000000000e+01" rms="0.0000000000000000e+00" nType="1" CC="0.0000000000000000e+00"/>
            <Node pos="r" depth="3" Seq="4" IVar="-1" Cut="0.0000000000000000e+00" cType="1" nS="0.0000000000000000e+00" nB="2.7513681411743164e+01" nEv="2.7513681411743164e+01" nSuw="0.0000000000000000e+00" nBuw="4.1000000000000000e+01" nEvuw="4.1000000000000000e+01" sepI="0.0000000000000000e+00" sepG="-1.0000000000000000e+00" res="-9.9000000000000000e+01" rms="0.0000000000000000e+00" nType="-1" CC="0.0000000000000000e+00"/>
          </Node>
          <Node pos="r" depth="2" Seq="2" IVar="7" Cut="5.8554282188415527e+00" cType="1" nS="1.6649790954589844e+02" nB="1.5833862304687500e+02" nEv="3.2483651733398438e+02" nSuw="4.7000000000000000e+01" nBuw="1.2500000000000000e+02" nEvuw="1.7200000000000000e+02" sepI="2.4984227120876312e-01" sepG="2.6586936950683594e+01" res="-9.9000000000000000e+01" rms="0.0000000000000000e+00" nType="0" CC="0.0000000000000000e+00">
            <Node pos="l" depth="3" Seq="2" IVar="-1" Cut="0.0000000000000000e+00" cType="1" nS="1.3489198303222656e+02" nB="3.7808200836181641e+01" nEv="1.7270018005371094e+02" nSuw="3.5000000000000000e+01" nBuw="1.7000000000000000e+01" nEvuw="5.2000000000000000e+01" sepI="1.7099623382091522e-01" sepG="-1.0000000000000000e+00" res="-9.9000000000000000e+01" rms="0.0000000000000000e+00" nType="1" CC="0.0000000000000000e+00"/>
            <Node pos="r" depth="3" Seq="6" IVar="-1" Cut="0.0000000000000000e+00" cType="1" nS="3.1605926513671875e+01" nB="1.2053042602539062e+02" nEv="1.5213635253906250e+02" nSuw="1.2000000000000000e+01" nBuw="1.0800000000000000e+02" nEvuw="1.2000000000000000e+02" sepI="1.6458839178085327e-01" sepG="-1.0000000000000000e+00" res="-9.9000000000000000e+01" rms="0.0000000000000000e+00" nType="-1" CC="0.0000000000000000e+00"/>
          </Node>
        </Node>
        <Node pos="r" depth="1" Seq="1" IVar="7" Cut="6.4884090423583984e+00" cType="0" nS="3.7893859375000000e+04" nB="3.9846304687500000e+04" nEv="7.7740164062500000e+04" nSuw="2.6480000000000000e+03" nBuw="7.6311000000000000e+04" nEvuw="7.8959000000000000e+04" sepI="2.4984231591224670e-01" sepG="1.4958757019042969e+02" res="-9.9000000000000000e+01" rms="0.0000000000000000e+00" nType="0" CC="0.0000000000000000e+00">
          <Node pos="l" depth="2" Seq="1" IVar="16" Cut="2.3620395362377167e-01" cType="0" nS="2.6915144531250000e+04" nB="2.5007044921875000e+04" nEv="5.1922191406250000e+04" nSuw="1.1370000000000000e+03" nBuw="6.7531000000000000e+04" nEvuw="6.8668000000000000e+04" sepI="2.4966236948966980e-01" sepG="1.6442773437500000e+02" res="-9.9000000000000000e+01" rms="0.0000000000000000e+00" nType="0" CC="0.0000000000000000e+00">
            <Node pos="l" depth="3" Seq="1" IVar="-1" Cut="0.0000000000000000e+00" cType="1" nS="1.5701131835937500e+04" nB="1.1774508789062500e+04" nEv="2.7475640625000000e+04" nSuw="5.6600000000000000e+02" nBuw="3.7534000000000000e+04" nEvuw="3.8100000000000000e+04" sepI="2.4489398300647736e-01" sepG="-1.0000000000000000e+00" res="-9.9000000000000000e+01" rms="0.0000000000000000e+00" nType="1" CC="0.0000000000000000e+00"/>
            <Node pos="r" depth="3" Seq="5" IVar="-1" Cut="0.0000000000000000e+00" cType="1" nS="1.1214013671875000e+04" nB="1.3232537109375000e+04" nEv="2.4446550781250000e+04" nSuw="5.7100000000000000e+02" nBuw="2.9997000000000000e+04" nEvuw="3.0568000000000000e+04" sepI="2.4829559028148651e-01" sepG="-1.0000000000000000e+00" res="-9.9000000000000000e+01" rms="0.0000000000000000e+00" nType="-1" CC="0.0000000000000000e+00"/>
          </Node>
          <Node pos="r" depth="2" Seq="3" IVar="-1" Cut="6.7306131124496460e-01" cType="1" nS="1.0978713867187500e+04" nB="1.4839258789062500e+04" nEv="2.5817972656250000e+04" nSuw="1.5110000000000000e+03" nBuw="8.7800000000000000e+03" nEvuw="1.0291000000000000e+04" sepI="2.4441024661064148e-01" sepG="-1.0000000000000000e+00" res="-9.9000000000000000e+01" rms="0.0000000000000000e+00" nType="-1" CC="0.0000000000000000e+00"/>
        </Node>
      </Node>
    </BinaryTree>
    <BinaryTree type="DecisionTree" boostWeight="1.2030705568028512e-01" itree="14">
      <Node pos="s" depth="0" Seq="0" IVar="12" Cut="3.2857143878936768e+00" cType="0" nS="4.0705464843750000e+04" nB="3.8566539062500000e+04" nEv="7.9272000000000000e+04" nSuw="2.7450000000000000e+03" nBuw="7.6527000000000000e+04" nEvuw="7.9272000000000000e+04" sepI="2.4981799721717834e-01" sepG="1.3215718078613281e+02" res="-9.9000000000000000e+01" rms="0.0000000000000000e+00" nType="0" CC="0.0000000000000000e+00">
        <Node pos="l" depth="1" Seq="0" IVar="16" Cut="3.3138477802276611e-01" cType="0" nS="1.1334587402343750e+03" nB="2.4882783508300781e+02" nEv="1.3822864990234375e+03" nSuw="9.7000000000000000e+01" nBuw="2.1600000000000000e+02" nEvuw="3.1300000000000000e+02" sepI="1.4760753512382507e-01" sepG="3.7855442047119141e+01" res="-9.9000000000000000e+01" rms="0.0000000000000000e+00" nType="0" CC="0.0000000000000000e+00">
          <Node pos="l" depth="2" Seq="0" IVar="10" Cut="4.8367904663085938e+01" cType="1" nS="9.7835943603515625e+02" nB="9.9121444702148438e+01" nEv="1.0774808349609375e+03" nSuw="5.0000000000000000e+01" nBuw="9.1000000000000000e+01" nEvuw="1.4100000000000000e+02" sepI="8.3530858159065247e-02" sepG="2.0361026763916016e+01" res="-9.9000000000000000e+01" rms="0.0000000000000000e+00" nType="0" CC="0.0000000000000000e+00">
            <Node pos="l" depth="3" Seq="0" IVar="-1" Cut="0.0000000000000000e+00" cType="1" nS="9.7835943603515625e+02" nB="7.4979049682617188e+01" nEv="1.0533385009765625e+03" nSuw="5.0000000000000000e+01" nBuw="5.0000000000000000e+01" nEvuw="1.0000000000000000e+02" sepI="6.6115379333496094e-02" sepG="-1.0000000000000000e+00" res="-9.9000000000000000e+01" rms="0.0000000000000000e+00" nType="1" CC="0.0000000000000000e+00"/>
            <Node pos="r" depth="3" Seq="4" IVar="-1" Cut="0.0000000000000000e+00" cType="1" nS="0.0000000000000000e+00" nB="2.4142395019531250e+01" nEv="2.4142395019531250e+01" nSuw="0.0000000000000000e+00" nBuw="4.1000000000000000e+01" nEvuw="4.1000000000000000e+01" sepI="0.0000000000000000e+00" sepG="-1.0000000000000000e+00" res="-9.9000000000000000e+01" rms="0.0000000000000000e+00" nType="-1" CC="0.0000000000000000e+00"/>
          </Node>
          <Node pos="r" depth="2" Seq="2" IVar="2" Cut="2.3732638359069824e-01" cType="1" nS="1.5509927368164062e+02" nB="1.4970639038085938e+02" nEv="3.0480566406250000e+02" nSuw="4.7000000000000000e+01" nBuw="1.2500000000000000e+02" nEvuw="1.7200000000000000e+02" sepI="2.4992173910140991e-01" sepG="2.1191127777099609e+01" res="-9.9000000000000000e+01" rms="0.0000000000000000e+00" nType="0" CC="0.0000000000000000e+00">
            <Node pos="l" depth="3" Seq="2" IVar="-1" Cut="0.0000000000000000e+00" cType="1" nS="1.5509927368164062e+02" nB="8.5187438964843750e+01" nEv="2.4028671264648438e+02" nSuw="4.7000000000000000e+01" nBuw="3.8000000000000000e+01" nEvuw="8.5000000000000000e+01" sepI="2.2883677482604980e-01" sepG="-1.0000000000000000e+00" res="-9.9000000000000000e+01" rms="0.0000000000000000e+00" nType="1" CC="0.0000000000000000e+00"/>
            <Node pos="r" depth="3" Seq="6" IVar="-1" Cut="0.0000000000000000e+00" cType="1" nS="0.0000000000000000e+00" nB="6.4518959045410156e+01" nEv="6.4518959045410156e+01" nSuw="0.0000000000000000e+00" nBuw="8.7000000000000000e+01" nEvuw="8.7000000000000000e+01" sepI="0.0000000000000000e+00" sepG="-1.0000000000000000e+00" res="-9.9000000000000000e+01" rms="0.0000000000000000e+00" nType="-1" CC="0.0000000000000000e+00"/>
          </Node>
        </Node>
        <Node pos="r" depth="1" Seq="1" IVar="7" Cut="1.0254302024841309e+01" cType="0" nS="3.9572003906250000e+04" nB="3.8317710937500000e+04" nEv="7.7889718750000000e+04" nSuw="2.6480000000000000e+03" nBuw="7.6311000000000000e+04" nEvuw="7.8959000000000000e+04" sepI="2.4993516504764557e-01" sepG="1.2783295440673828e+02" res="-9.9000000000000000e+01" rms="0.0000000000000000e+00" nType="0" CC="0.0000000000000000e+00">
          <Node pos="l" depth="2" Seq="1" IVar="18" Cut="2.0664907991886139e-01" cType="0" nS="1.6849593505859375e+03" nB="5.8649743652343750e+02" nEv="2.2714567871093750e+03" nSuw="1.8000000000000000e+01" nBuw="3.0510000000000000e+03" nEvuw="3.0690000000000000e+03" sepI="1.9153431057929993e-01" sepG="6.1805965423583984e+01" res="-9.9000000000000000e+01" rms="0.0000000000000000e+00" nType="0" CC="0.0000000000000000e+00">
            <Node pos="l" depth="3" Seq="1" IVar="-1" Cut="0.0000000000000000e+00" cType="1" nS="1.6849593505859375e+03" nB="4.7946896362304688e+02" nEv="2.1644282226562500e+03" nSuw="1.8000000000000000e+01" nBuw="2.6970000000000000e+03" nEvuw="2.7150000000000000e+03" sepI="1.7245012521743774e-01" sepG="-1.0000000000000000e+00" res="-9.9000000000000000e+01" rms="0.0000000000000000e+00" nType="1" CC="0.0000000000000000e+00"/>
            <Node pos="r" depth="3" Seq="5" IVar="-1" Cut="0.0000000000000000e+00" cType="1" nS="0.0000000000000000e+00" nB="1.0702845001220703e+02" nEv="1.0702845001220703e+02" nSuw="0.0000000000000000e+00" nBuw="3.5400000000000000e+02" nEvuw="3.5400000000000000e+02" sepI="0.0000000000000000e+00" sepG="-1.0000000000000000e+00" res="-9.9000000000000000e+01" rms="0.0000000000000000e+00" nType="-1" CC="0.0000000000000000e+00"/>
          </Node>
          <Node pos="r" depth="2" Seq="3" IVar="16" Cut="9.7493034601211548e-01" cType="1" nS="3.7887046875000000e+04" nB="3.7731214843750000e+04" nEv="7.5618257812500000e+04" nSuw="2.6300000000000000e+03" nBuw="7.3260000000000000e+04" nEvuw="7.5890000000000000e+04" sepI="2.4999894201755524e-01" sepG="9.3933311462402344e+01" res="-9.9000000000000000e+01" rms="0.0000000000000000e+00" nType="0" CC="0.0000000000000000e+00">
            <Node pos="l" depth="3" Seq="3" IVar="-1" Cut="0.0000000000000000e+00" cType="1" nS="3.6683398437500000e+04" nB="3.5411343750000000e+04" nEv="7.2094742187500000e+04" nSuw="2.5180000000000000e+03" nBuw="7.0072000000000000e+04" nEvuw="7.2590000000000000e+04" sepI="2.4992217123508453e-01" sepG="-1.0000000000000000e+00" res="-9.9000000000000000e+01" rms="0.0000000000000000e+00" nType="1" CC="0.0000000000000000e+00"/>
            <Node pos="r" depth="3" Seq="7" IVar="-1" Cut="0.0000000000000000e+00" cType="1" nS="1.2036479492187500e+03" nB="2.3198696289062500e+03" nEv="3.5235175781250000e+03" nSuw="1.1200000000000000e+02" nBuw="3.1880000000000000e+03" nEvuw="3.3000000000000000e+03" sepI="2.2491072118282318e-01" sepG="-1.0000000000000000e+00" res="-9.9000000000000000e+01" rms="0.0000000000000000e+00" nType="-1" CC="0.0000000000000000e+00"/>
          </Node>
        </Node>
      </Node>
    </BinaryTree>
    <BinaryTree type="DecisionTree" boostWeight="1.5607080241267471e-01" itree="15">
      <Node pos="s" depth="0" Seq="0" IVar="12" Cut="3.2857143878936768e+00" cType="0" nS="3.8543601562500000e+04" nB="4.0728402343750000e+04" nEv="7.9272000000000000e+04" nSuw="2.7450000000000000e+03" nBuw="7.6527000000000000e+04" nEvuw="7.9272000000000000e+04" sepI="2.4981009960174561e-01" sepG="1.3935606384277344e+02" res="-9.9000000000000000e+01" rms="0.0000000000000000e+00" nType="0" CC="0.0000000000000000e+00">
        <Node pos="l" depth="1" Seq="0" IVar="16" Cut="3.3138477802276611e-01" cType="0" nS="1.0692188720703125e+03" nB="2.5404096984863281e+02" nEv="1.3232598876953125e+03" nSuw="9.7000000000000000e+01" nBuw="2.1600000000000000e+02" nEvuw="3.1300000000000000e+02" sepI="1.5512439608573914e-01" sepG="3.8550186157226562e+01" res="-9.9000000000000000e+01" rms="0.0000000000000000e+00" nType="0" CC="0.0000000000000000e+00">
          <Node pos="l" depth="2" Seq="0" IVar="10" Cut="4.8367904663085938e+01" cType="1" nS="9.2290997314453125e+02" nB="1.0254592895507812e+02" nEv="1.0254559326171875e+03" nSuw="5.0000000000000000e+01" nBuw="9.1000000000000000e+01" nEvuw="1.4100000000000000e+02" sepI="9.0000264346599579e-02" sepG="1.8865999221801758e+01" res="-9.9000000000000000e+01" rms="0.0000000000000000e+00" nType="0" CC="0.0000000000000000e+00">
            <Node pos="l" depth="3" Seq="0" IVar="-1" Cut="0.0000000000000000e+00" cType="1" nS="9.2290997314453125e+02" nB="7.9771827697753906e+01" nEv="1.0026818237304688e+03" nSuw="5.0000000000000000e+01" nBuw="5.0000000000000000e+01" nEvuw="1.0000000000000000e+02" sepI="7.3228918015956879e-02" sepG="-1.0000000000000000e+00" res="-9.9000000000000000e+01" rms="0.0000000000000000e+00" nType="1" CC="0.0000000000000000e+00"/>
            <Node pos="r" depth="3" Seq="4" IVar="-1" Cut="0.0000000000000000e+00" cType="1" nS="0.0000000000000000e+00" nB="2.2774101257324219e+01" nEv="2.2774101257324219e+01" nSuw="0.0000000000000000e+00" nBuw="4.1000000000000000e+01" nEvuw="4.1000000000000000e+01" sepI="0.0000000000000000e+00" sepG="-1.0000000000000000e+00" res="-9.9000000000000000e+01" rms="0.0000000000000000e+00" nType="-1" CC="0.0000000000000000e+00"/>
          </Node>
          <Node pos="r" depth="2" Seq="2" IVar="10" Cut="2.9700939178466797e+01" cType="1" nS="1.4630886840820312e+02" nB="1.5149504089355469e+02" nEv="2.9780392456054688e+02" nSuw="4.7000000000000000e+01" nBuw="1.2500000000000000e+02" nEvuw="1.7200000000000000e+02" sepI="2.4992418289184570e-01" sepG="1.9784357070922852e+01" res="-9.9000000000000000e+01" rms="0.0000000000000000e+00" nType="0" CC="0.0000000000000000e+00">
            <Node pos="l" depth="3" Seq="2" IVar="-1" Cut="0.0000000000000000e+00" cType="1" nS="1.2619413757324219e+02" nB="5.4330413818359375e+01" nEv="1.8052455139160156e+02" nSuw="4.0000000000000000e+01" nBuw="3.1000000000000000e+01" nEvuw="7.1000000000000000e+01" sepI="2.1038252115249634e-01" sepG="-1.0000000000000000e+00" res="-9.9000000000000000e+01" rms="0.0000000000000000e+00" nType="1" CC="0.0000000000000000e+00"/>
            <Node pos="r" depth="3" Seq="6" IVar="-1" Cut="0.0000000000000000e+00" cType="1" nS="2.0114738464355469e+01" nB="9.7164627075195312e+01" nEv="1.1727936553955078e+02" nSuw="7.0000000000000000e+00" nBuw="9.4000000000000000e+01" nEvuw="1.0100000000000000e+02" sepI="1.4209519326686859e-01" sepG="-1.0000000000000000e+00" res="-9.9000000000000000e+01" rms="0.0000000000000000e+00" nType="-1" CC="0.0000000000000000e+00"/>
          </Node>
        </Node>
        <Node pos="r" depth="1" Seq="1" IVar="7" Cut="1.0254302024841309e+01" cType="0" nS="3.7474382812500000e+04" nB="4.0474359375000000e+04" nEv="7.7948742187500000e+04" nSuw="2.6480000000000000e+03" nBuw="7.6311000000000000e+04" nEvuw="7.8959000000000000e+04" sepI="2.4962969124317169e-01" sepG="1.3212170410156250e+02" res="-9.9000000000000000e+01" rms="0.0000000000000000e+00" nType="0" CC="0.0000000000000000e+00">
          <Node pos="l" depth="2" Seq="1" IVar="18" Cut="2.0664907991886139e-01" cType="0" nS="1.5894626464843750e+03" nB="6.1107989501953125e+02" nEv="2.2005424804687500e+03" nSuw="1.8000000000000000e+01" nBuw="3.0510000000000000e+03" nEvuw="3.0690000000000000e+03" sepI="2.0058052241802216e-01" sepG="5.5207569122314453e+01" res="-9.9000000000000000e+01" rms="0.0000000000000000e+00" nType="0" CC="0.0000000000000000e+00">
            <Node pos="l" depth="3" Seq="1" IVar="-1" Cut="0.0000000000000000e+00" cType="1" nS="1.5894626464843750e+03" nB="5.1011737060546875e+02" nEv="2.0995800781250000e+03" nSuw="1.8000000000000000e+01" nBuw="2.6970000000000000e+03" nEvuw="2.7150000000000000e+03" sepI="1.8393126130104065e-01" sepG="-1.0000000000000000e+00" res="-9.9000000000000000e+01" rms="0.0000000000000000e+00" nType="1" CC="0.0000000000000000e+00"/>
            <Node pos="r" depth="3" Seq="5" IVar="-1" Cut="0.0000000000000000e+00" cType="1" nS="0.0000000000000000e+00" nB="1.0096250915527344e+02" nEv="1.0096250915527344e+02" nSuw="0.0000000000000000e+00" nBuw="3.5400000000000000e+02" nEvuw="3.5400000000000000e+02" sepI="0.0000000000000000e+00" sepG="-1.0000000000000000e+00" res="-9.9000000000000000e+01" rms="0.0000000000000000e+00" nType="-1" CC="0.0000000000000000e+00"/>
          </Node>
          <Node pos="r" depth="2" Seq="3" IVar="-1" Cut="2.2060514986515045e-01" cType="0" nS="3.5884917968750000e+04" nB="3.9863281250000000e+04" nEv="7.5748203125000000e+04" nSuw="2.6300000000000000e+03" nBuw="7.3260000000000000e+04" nEvuw="7.5890000000000000e+04" sepI="2.4931038916110992e-01" sepG="-1.0000000000000000e+00" res="-9.9000000000000000e+01" rms="0.0000000000000000e+00" nType="-1" CC="0.0000000000000000e+00"/>
        </Node>
      </Node>
    </BinaryTree>
    <BinaryTree type="DecisionTree" boostWeight="2.3837887292422899e-01" itree="16">
      <Node pos="s" depth="0" Seq="0" IVar="12" Cut="3.2857143878936768e+00" cType="0" nS="4.1385300781250000e+04" nB="3.7886699218750000e+04" nEv="7.9272000000000000e+04" nSuw="2.7450000000000000e+03" nBuw="7.6527000000000000e+04" nEvuw="7.9272000000000000e+04" sepI="2.4951304495334625e-01" sepG="9.4704132080078125e+01" res="-9.9000000000000000e+01" rms="0.0000000000000000e+00" nType="0" CC="0.0000000000000000e+00">
        <Node pos="l" depth="1" Seq="0" IVar="16" Cut="3.3138477802276611e-01" cType="0" nS="9.9511914062500000e+02" nB="2.5670083618164062e+02" nEv="1.2518200683593750e+03" nSuw="9.7000000000000000e+01" nBuw="2.1600000000000000e+02" nEvuw="3.1300000000000000e+02" sepI="1.6301164031028748e-01" sepG="3.6545356750488281e+01" res="-9.9000000000000000e+01" rms="0.0000000000000000e+00" nType="0" CC="0.0000000000000000e+00">
          <Node pos="l" depth="2" Seq="0" IVar="10" Cut="4.8367904663085938e+01" cType="1" nS="8.5622912597656250e+02" nB="1.0763757324218750e+02" nEv="9.6386669921875000e+02" nSuw="5.0000000000000000e+01" nBuw="9.1000000000000000e+01" nEvuw="1.4100000000000000e+02" sepI="9.9201887845993042e-02" sepG="1.7046840667724609e+01" res="-9.9000000000000000e+01" rms="0.0000000000000000e+00" nType="0" CC="0.0000000000000000e+00">
            <Node pos="l" depth="3" Seq="0" IVar="-1" Cut="0.0000000000000000e+00" cType="1" nS="8.5622912597656250e+02" nB="8.6508918762207031e+01" nEv="9.4273803710937500e+02" nSuw="5.0000000000000000e+01" nBuw="5.0000000000000000e+01" nEvuw="1.0000000000000000e+02" sepI="8.3342939615249634e-02" sepG="-1.0000000000000000e+00" res="-9.9000000000000000e+01" rms="0.0000000000000000e+00" nType="1" CC="0.0000000000000000e+00"/>
            <Node pos="r" depth="3" Seq="4" IVar="-1" Cut="0.0000000000000000e+00" cType="1" nS="0.0000000000000000e+00" nB="2.1128656387329102e+01" nEv="2.1128656387329102e+01" nSuw="0.0000000000000000e+00" nBuw="4.1000000000000000e+01" nEvuw="4.1000000000000000e+01" sepI="0.0000000000000000e+00" sepG="-1.0000000000000000e+00" res="-9.9000000000000000e+01" rms="0.0000000000000000e+00" nType="-1" CC="0.0000000000000000e+00"/>
          </Node>
          <Node pos="r" depth="2" Seq="2" IVar="2" Cut="2.3732638359069824e-01" cType="1" nS="1.3889004516601562e+02" nB="1.4906327819824219e+02" nEv="2.8795330810546875e+02" nSuw="4.7000000000000000e+01" nBuw="1.2500000000000000e+02" nEvuw="1.7200000000000000e+02" sepI="2.4968795478343964e-01" sepG="1.7883569717407227e+01" res="-9.9000000000000000e+01" rms="0.0000000000000000e+00" nType="0" CC="0.0000000000000000e+00">
            <Node pos="l" depth="3" Seq="2" IVar="-1" Cut="0.0000000000000000e+00" cType="1" nS="1.3889004516601562e+02" nB="8.8390220642089844e+01" nEv="2.2728025817871094e+02" nSuw="4.7000000000000000e+01" nBuw="3.8000000000000000e+01" nEvuw="8.5000000000000000e+01" sepI="2.3765769600868225e-01" sepG="-1.0000000000000000e+00" res="-9.9000000000000000e+01" rms="0.0000000000000000e+00" nType="1" CC="0.0000000000000000e+00"/>
            <Node pos="r" depth="3" Seq="6" IVar="-1" Cut="0.0000000000000000e+00" cType="1" nS="0.0000000000000000e+00" nB="6.0673049926757812e+01" nEv="6.0673049926757812e+01" nSuw="0.0000000000000000e+00" nBuw="8.7000000000000000e+01" nEvuw="8.7000000000000000e+01" sepI="0.0000000000000000e+00" sepG="-1.0000000000000000e+00" res="-9.9000000000000000e+01" rms="0.0000000000000000e+00" nType="-1" CC="0.0000000000000000e+00"/>
          </Node>
        </Node>
        <Node pos="r" depth="1" Seq="1" IVar="5" Cut="5.4285712242126465e+00" cType="0" nS="4.0390183593750000e+04" nB="3.7630000000000000e+04" nEv="7.8020179687500000e+04" nSuw="2.6480000000000000e+03" nBuw="7.6311000000000000e+04" nEvuw="7.8959000000000000e+04" sepI="2.4968710541725159e-01" sepG="7.5104408264160156e+01" res="-9.9000000000000000e+01" rms="0.0000000000000000e+00" nType="0" CC="0.0000000000000000e+00">
          <Node pos="l" depth="2" Seq="1" IVar="3" Cut="1.0311994552612305e+00" cType="1" nS="3.9870824218750000e+04" nB="3.6466933593750000e+04" nEv="7.6337757812500000e+04" nSuw="2.6260000000000000e+03" nBuw="7.4052000000000000e+04" nEvuw="7.6678000000000000e+04" sepI="2.4950294196605682e-01" sepG="1.5658052062988281e+02" res="-9.9000000000000000e+01" rms="0.0000000000000000e+00" nType="0" CC="0.0000000000000000e+00">
