<?xml version="1.0"?>
<MethodSetup Method="BDT::BDT">
  <GeneralInfo>
    <Info name="TMVA Release" value="4.0.7 [262151]"/>
    <Info name="ROOT Release" value="5.27/06 [334598]"/>
    <Info name="Creator" value="ivo"/>
    <Info name="Date" value="Thu Apr  5 17:10:57 2012"/>
    <Info name="Host" value="Linux lxbuild051.cern.ch 2.6.18-238.1.1.el5 #1 SMP Wed Jan 19 11:06:36 CET 2011 x86_64 x86_64 x86_64 GNU/Linux"/>
    <Info name="Dir" value="/grid_mnt/vol__vol1__u/llr/cms/ivo/PFAntiElecMVA/CMSSW_4_2_8_patch7/src/IvoNaranjo/ElectronsStudies/test/Macros/tmva"/>
    <Info name="Training events" value="15359"/>
    <Info name="TrainingTime" value="19.8394"/>
    <Info name="AnalysisType" value="Classification"/>
  </GeneralInfo>
  <Options>
    <Option name="V" modified="Yes">False</Option>
    <Option name="VerbosityLevel" modified="No">Default</Option>
    <Option name="VarTransform" modified="No">None</Option>
    <Option name="H" modified="Yes">False</Option>
    <Option name="CreateMVAPdfs" modified="No">False</Option>
    <Option name="IgnoreNegWeightsInTraining" modified="No">False</Option>
    <Option name="NTrees" modified="Yes">400</Option>
    <Option name="BoostType" modified="Yes">AdaBoost</Option>
    <Option name="AdaBoostR2Loss" modified="No">quadratic</Option>
    <Option name="UseBaggedGrad" modified="No">False</Option>
    <Option name="GradBaggingFraction" modified="No">6.000000e-01</Option>
    <Option name="Shrinkage" modified="No">1.000000e+00</Option>
    <Option name="AdaBoostBeta" modified="No">1.000000e+00</Option>
    <Option name="UseRandomisedTrees" modified="No">False</Option>
    <Option name="UseNvars" modified="No">2</Option>
    <Option name="UseNTrainEvents" modified="No">15359</Option>
    <Option name="UseWeightedTrees" modified="No">True</Option>
    <Option name="UseYesNoLeaf" modified="No">True</Option>
    <Option name="NodePurityLimit" modified="No">5.000000e-01</Option>
    <Option name="SeparationType" modified="Yes">giniindex</Option>
    <Option name="nEventsMin" modified="No">40</Option>
    <Option name="nCuts" modified="Yes">20</Option>
    <Option name="PruneStrength" modified="No">-1.000000e+00</Option>
    <Option name="PruneMethod" modified="Yes">nopruning</Option>
    <Option name="PruneBeforeBoost" modified="No">False</Option>
    <Option name="PruningValFraction" modified="No">5.000000e-01</Option>
    <Option name="NNodesMax" modified="No">100000</Option>
    <Option name="MaxDepth" modified="No">3</Option>
  </Options>
  <Variables NVar="22">
    <Variable VarIndex="0" Expression="Elec_Pt" Label="Elec_Pt" Title="Elec_Pt" Unit="     " Internal="Elec_Pt" Type="F" Min="0.35406" Max="252.193"/>
    <Variable VarIndex="1" Expression="Elec_AbsEta" Label="Elec_AbsEta" Title="ElecAbsEta" Unit="     " Internal="Elec_AbsEta" Type="F" Min="1.47922" Max="2.58711"/>
    <Variable VarIndex="2" Expression="Elec_EtotOverPin" Label="Elec_EtotOverPin" Title="EtotOverPin" Unit="     " Internal="Elec_EtotOverPin" Type="F" Min="-99" Max="39.6657"/>
    <Variable VarIndex="3" Expression="Elec_EgammaOverPdif" Label="Elec_EgammaOverPdif" Title="EgammaOverPdif" Unit="     " Internal="Elec_EgammaOverPdif" Type="F" Min="-624.931" Max="440.881"/>
    <Variable VarIndex="4" Expression="Elec_EarlyBrem" Label="Elec_EarlyBrem" Title="EarlyBrem" Unit="     " Internal="Elec_EarlyBrem" Type="I" Min="-2" Max="1"/>
    <Variable VarIndex="5" Expression="Elec_LateBrem" Label="Elec_LateBrem" Title="LateBrem" Unit="     " Internal="Elec_LateBrem" Type="I" Min="-2" Max="1"/>
    <Variable VarIndex="6" Expression="Elec_Fbrem" Label="Elec_Fbrem" Title="Fbrem" Unit="     " Internal="Elec_Fbrem" Type="F" Min="-411.06" Max="0.999346"/>
    <Variable VarIndex="7" Expression="Elec_Chi2GSF" Label="Elec_Chi2GSF" Title="Elec_Chi2GSF" Unit="     " Internal="Elec_Chi2GSF" Type="F" Min="0.292549" Max="763.407"/>
    <Variable VarIndex="8" Expression="Elec_NumHits" Label="Elec_NumHits" Title="NumHits" Unit="     " Internal="Elec_NumHits" Type="I" Min="-99" Max="29"/>
    <Variable VarIndex="9" Expression="Elec_GSFTrackResol" Label="Elec_GSFTrackResol" Title="Elec_GSFTrackResol" Unit="     " Internal="Elec_GSFTrackResol" Type="F" Min="0.0138307" Max="580.111"/>
    <Variable VarIndex="10" Expression="Elec_GSFTracklnPt" Label="Elec_GSFTracklnPt" Title="Elec_GSFTracklnPt" Unit="     " Internal="Elec_GSFTracklnPt" Type="F" Min="-2.49345" Max="23.0485"/>
    <Variable VarIndex="11" Expression="Elec_GSFTrackEta" Label="Elec_GSFTrackEta" Title="Elec_GSFTrackEta" Unit="     " Internal="Elec_GSFTrackEta" Type="F" Min="-2.56895" Max="2.58688"/>
    <Variable VarIndex="12" Expression="Tau_AbsEta" Label="Tau_AbsEta" Title="PFTauEta" Unit="     " Internal="Tau_AbsEta" Type="F" Min="1.479" Max="2.61671"/>
    <Variable VarIndex="13" Expression="Tau_Pt" Label="Tau_Pt" Title="TauPt" Unit="     " Internal="Tau_Pt" Type="F" Min="1.34523" Max="260.904"/>
    <Variable VarIndex="14" Expression="Tau_EmFraction" Label="Tau_EmFraction" Title="TauEmFraction" Unit="     " Internal="Tau_EmFraction" Type="F" Min="0.0236318" Max="1"/>
    <Variable VarIndex="15" Expression="Tau_NumGammaCands" Label="Tau_NumGammaCands" Title="TauNumGammaCands" Unit="     " Internal="Tau_NumGammaCands" Type="I" Min="1" Max="6"/>
    <Variable VarIndex="16" Expression="Tau_HadrHoP" Label="Tau_HadrHoP" Title="TauHadrHoP" Unit="     " Internal="Tau_HadrHoP" Type="F" Min="0" Max="2.78448"/>
    <Variable VarIndex="17" Expression="Tau_HadrEoP" Label="Tau_HadrEoP" Title="TauHadrEoP" Unit="     " Internal="Tau_HadrEoP" Type="F" Min="-0.349563" Max="5.32474"/>
    <Variable VarIndex="18" Expression="Tau_VisMass" Label="Tau_VisMass" Title="TauVisMass" Unit="     " Internal="Tau_VisMass" Type="F" Min="0.300877" Max="1.47763"/>
    <Variable VarIndex="19" Expression="Tau_GammaEtaMom" Label="Tau_GammaEtaMom" Title="Tau_GammaEtaMom" Unit="     " Internal="Tau_GammaEtaMom" Type="F" Min="2.61072e-05" Max="4.45805"/>
    <Variable VarIndex="20" Expression="Tau_GammaPhiMom" Label="Tau_GammaPhiMom" Title="Tau_GammaPhiMom" Unit="     " Internal="Tau_GammaPhiMom" Type="F" Min="0.000117396" Max="4.11552"/>
    <Variable VarIndex="21" Expression="Tau_GammaEnFrac" Label="Tau_GammaEnFrac" Title="GammaEnFrac" Unit="     " Internal="Tau_GammaEnFrac" Type="F" Min="0.0137888" Max="0.988647"/>
  </Variables>
  <Spectators NSpec="0"/>
  <Transformations NTransformations="0"/>
  <MVAPdfs/>
  <Weights NTrees="400" TreeType="0">
    <BinaryTree type="DecisionTree" boostWeight="2.3617235725881498e+00" itree="0">
      <Node pos="s" depth="0" Seq="0" IVar="10" Cut="6.0205321311950684e+00" cType="1" nS="1.7070000000000000e+03" nB="1.3652000000000000e+04" nEv="1.5359000000000000e+04" nSuw="1.7070000000000000e+03" nBuw="1.3652000000000000e+04" nEvuw="1.5359000000000000e+04" sepI="9.8787941038608551e-02" sepG="2.4640916442871094e+02" res="-9.9000000000000000e+01" rms="0.0000000000000000e+00" nType="0" CC="0.0000000000000000e+00">
        <Node pos="l" depth="1" Seq="0" IVar="14" Cut="8.1402510404586792e-01" cType="1" nS="1.1600000000000000e+03" nB="2.1110000000000000e+03" nEv="3.2710000000000000e+03" nSuw="1.1600000000000000e+03" nBuw="2.1110000000000000e+03" nEvuw="3.2710000000000000e+03" sepI="2.2886803746223450e-01" sepG="1.0156459045410156e+02" res="-9.9000000000000000e+01" rms="0.0000000000000000e+00" nType="0" CC="0.0000000000000000e+00">
          <Node pos="l" depth="2" Seq="0" IVar="1" Cut="1.5850629806518555e+00" cType="0" nS="5.8100000000000000e+02" nB="3.2900000000000000e+02" nEv="9.1000000000000000e+02" nSuw="5.8100000000000000e+02" nBuw="3.2900000000000000e+02" nEvuw="9.1000000000000000e+02" sepI="2.3082840442657471e-01" sepG="3.2896354675292969e+01" res="-9.9000000000000000e+01" rms="0.0000000000000000e+00" nType="0" CC="0.0000000000000000e+00">
            <Node pos="l" depth="3" Seq="0" IVar="-1" Cut="0.0000000000000000e+00" cType="1" nS="5.2800000000000000e+02" nB="1.8800000000000000e+02" nEv="7.1600000000000000e+02" nSuw="5.2800000000000000e+02" nBuw="1.8800000000000000e+02" nEvuw="7.1600000000000000e+02" sepI="1.9362691044807434e-01" sepG="-1.0000000000000000e+00" res="-9.9000000000000000e+01" rms="0.0000000000000000e+00" nType="1" CC="0.0000000000000000e+00"/>
            <Node pos="r" depth="3" Seq="4" IVar="-1" Cut="0.0000000000000000e+00" cType="1" nS="5.3000000000000000e+01" nB="1.4100000000000000e+02" nEv="1.9400000000000000e+02" nSuw="5.3000000000000000e+01" nBuw="1.4100000000000000e+02" nEvuw="1.9400000000000000e+02" sepI="1.9855989515781403e-01" sepG="-1.0000000000000000e+00" res="-9.9000000000000000e+01" rms="0.0000000000000000e+00" nType="-1" CC="0.0000000000000000e+00"/>
          </Node>
          <Node pos="r" depth="2" Seq="2" IVar="-1" Cut="4.0347015857696533e-01" cType="0" nS="5.7900000000000000e+02" nB="1.7820000000000000e+03" nEv="2.3610000000000000e+03" nSuw="5.7900000000000000e+02" nBuw="1.7820000000000000e+03" nEvuw="2.3610000000000000e+03" sepI="1.8509483337402344e-01" sepG="-1.0000000000000000e+00" res="-9.9000000000000000e+01" rms="0.0000000000000000e+00" nType="-1" CC="0.0000000000000000e+00"/>
        </Node>
        <Node pos="r" depth="1" Seq="1" IVar="13" Cut="1.3705194473266602e+01" cType="1" nS="5.4700000000000000e+02" nB="1.1541000000000000e+04" nEv="1.2088000000000000e+04" nSuw="5.4700000000000000e+02" nBuw="1.1541000000000000e+04" nEvuw="1.2088000000000000e+04" sepI="4.3203793466091156e-02" sepG="4.9378772735595703e+01" res="-9.9000000000000000e+01" rms="0.0000000000000000e+00" nType="0" CC="0.0000000000000000e+00">
          <Node pos="l" depth="2" Seq="1" IVar="21" Cut="6.2237763404846191e-01" cType="1" nS="9.1000000000000000e+01" nB="5.5000000000000000e+01" nEv="1.4600000000000000e+02" nSuw="9.1000000000000000e+01" nBuw="5.5000000000000000e+01" nEvuw="1.4600000000000000e+02" sepI="2.3480014503002167e-01" sepG="3.3379876613616943e+00" res="-9.9000000000000000e+01" rms="0.0000000000000000e+00" nType="0" CC="0.0000000000000000e+00">
            <Node pos="l" depth="3" Seq="1" IVar="-1" Cut="0.0000000000000000e+00" cType="1" nS="6.8000000000000000e+01" nB="2.4000000000000000e+01" nEv="9.2000000000000000e+01" nSuw="6.8000000000000000e+01" nBuw="2.4000000000000000e+01" nEvuw="9.2000000000000000e+01" sepI="1.9281663000583649e-01" sepG="-1.0000000000000000e+00" res="-9.9000000000000000e+01" rms="0.0000000000000000e+00" nType="1" CC="0.0000000000000000e+00"/>
            <Node pos="r" depth="3" Seq="5" IVar="-1" Cut="0.0000000000000000e+00" cType="1" nS="2.3000000000000000e+01" nB="3.1000000000000000e+01" nEv="5.4000000000000000e+01" nSuw="2.3000000000000000e+01" nBuw="3.1000000000000000e+01" nEvuw="5.4000000000000000e+01" sepI="2.4451303482055664e-01" sepG="-1.0000000000000000e+00" res="-9.9000000000000000e+01" rms="0.0000000000000000e+00" nType="-1" CC="0.0000000000000000e+00"/>
          </Node>
          <Node pos="r" depth="2" Seq="3" IVar="-1" Cut="9.4222474098205566e-01" cType="1" nS="4.5600000000000000e+02" nB="1.1486000000000000e+04" nEv="1.1942000000000000e+04" nSuw="4.5600000000000000e+02" nBuw="1.1486000000000000e+04" nEvuw="1.1942000000000000e+04" sepI="3.6726497113704681e-02" sepG="-1.0000000000000000e+00" res="-9.9000000000000000e+01" rms="0.0000000000000000e+00" nType="-1" CC="0.0000000000000000e+00"/>
        </Node>
      </Node>
    </BinaryTree>
    <BinaryTree type="DecisionTree" boostWeight="1.1885423891428228e+00" itree="1">
      <Node pos="s" depth="0" Seq="0" IVar="10" Cut="7.2368149757385254e+00" cType="1" nS="6.7750112304687500e+03" nB="8.5839882812500000e+03" nEv="1.5359000000000000e+04" nSuw="1.7070000000000000e+03" nBuw="1.3652000000000000e+04" nEvuw="1.5359000000000000e+04" sepI="2.4653199315071106e-01" sepG="6.9019476318359375e+02" res="-9.9000000000000000e+01" rms="0.0000000000000000e+00" nType="0" CC="0.0000000000000000e+00">
        <Node pos="l" depth="1" Seq="0" IVar="21" Cut="9.4220662117004395e-01" cType="1" nS="5.6203466796875000e+03" nB="3.4956149902343750e+03" nEv="9.1159619140625000e+03" nSuw="1.4800000000000000e+03" nBuw="4.4960000000000000e+03" nEvuw="5.9760000000000000e+03" sepI="2.3641864955425262e-01" sepG="2.0230735778808594e+02" res="-9.9000000000000000e+01" rms="0.0000000000000000e+00" nType="0" CC="0.0000000000000000e+00">
          <Node pos="l" depth="2" Seq="0" IVar="19" Cut="2.6707863807678223e-01" cType="0" nS="5.1247661132812500e+03" nB="2.3388520507812500e+03" nEv="7.4636181640625000e+03" nSuw="1.3910000000000000e+03" nBuw="2.8430000000000000e+03" nEvuw="4.2340000000000000e+03" sepI="2.1516814827919006e-01" sepG="2.3737353515625000e+02" res="-9.9000000000000000e+01" rms="0.0000000000000000e+00" nType="0" CC="0.0000000000000000e+00">
            <Node pos="l" depth="3" Seq="0" IVar="-1" Cut="0.0000000000000000e+00" cType="1" nS="3.9679885253906250e+03" nB="8.8657568359375000e+02" nEv="4.8545644531250000e+03" nSuw="1.0160000000000000e+03" nBuw="1.1880000000000000e+03" nEvuw="2.2040000000000000e+03" sepI="1.4927452802658081e-01" sepG="-1.0000000000000000e+00" res="-9.9000000000000000e+01" rms="0.0000000000000000e+00" nType="1" CC="0.0000000000000000e+00"/>
            <Node pos="r" depth="3" Seq="4" IVar="-1" Cut="0.0000000000000000e+00" cType="1" nS="1.1567775878906250e+03" nB="1.4522762451171875e+03" nEv="2.6090537109375000e+03" nSuw="3.7500000000000000e+02" nBuw="1.6550000000000000e+03" nEvuw="2.0300000000000000e+03" sepI="2.4679310619831085e-01" sepG="-1.0000000000000000e+00" res="-9.9000000000000000e+01" rms="0.0000000000000000e+00" nType="-1" CC="0.0000000000000000e+00"/>
          </Node>
          <Node pos="r" depth="2" Seq="2" IVar="-1" Cut="9.6646779775619507e-01" cType="1" nS="4.9558041381835938e+02" nB="1.1567630615234375e+03" nEv="1.6523435058593750e+03" nSuw="8.9000000000000000e+01" nBuw="1.6530000000000000e+03" nEvuw="1.7420000000000000e+03" sepI="2.0997031033039093e-01" sepG="-1.0000000000000000e+00" res="-9.9000000000000000e+01" rms="0.0000000000000000e+00" nType="-1" CC="0.0000000000000000e+00"/>
        </Node>
        <Node pos="r" depth="1" Seq="1" IVar="21" Cut="9.4222474098205566e-01" cType="1" nS="1.1546646728515625e+03" nB="5.0883735351562500e+03" nEv="6.2430380859375000e+03" nSuw="2.2700000000000000e+02" nBuw="9.1560000000000000e+03" nEvuw="9.3830000000000000e+03" sepI="1.5074498951435089e-01" sepG="9.4605537414550781e+01" res="-9.9000000000000000e+01" rms="0.0000000000000000e+00" nType="0" CC="0.0000000000000000e+00">
          <Node pos="l" depth="2" Seq="1" IVar="21" Cut="6.3274520635604858e-01" cType="0" nS="9.4569873046875000e+02" nB="2.0906547851562500e+03" nEv="3.0363535156250000e+03" nSuw="1.9100000000000000e+02" nBuw="3.6770000000000000e+03" nEvuw="3.8680000000000000e+03" sepI="2.1445217728614807e-01" sepG="1.5604570007324219e+02" res="-9.9000000000000000e+01" rms="0.0000000000000000e+00" nType="0" CC="0.0000000000000000e+00">
            <Node pos="l" depth="3" Seq="1" IVar="-1" Cut="0.0000000000000000e+00" cType="1" nS="8.2425469970703125e+02" nB="7.1728582763671875e+02" nEv="1.5415405273437500e+03" nSuw="1.4200000000000000e+02" nBuw="1.3110000000000000e+03" nEvuw="1.4530000000000000e+03" sepI="2.4879622459411621e-01" sepG="-1.0000000000000000e+00" res="-9.9000000000000000e+01" rms="0.0000000000000000e+00" nType="1" CC="0.0000000000000000e+00"/>
            <Node pos="r" depth="3" Seq="5" IVar="-1" Cut="0.0000000000000000e+00" cType="1" nS="1.2144398498535156e+02" nB="1.3733690185546875e+03" nEv="1.4948129882812500e+03" nSuw="4.9000000000000000e+01" nBuw="2.3660000000000000e+03" nEvuw="2.4150000000000000e+03" sepI="7.4643075466156006e-02" sepG="-1.0000000000000000e+00" res="-9.9000000000000000e+01" rms="0.0000000000000000e+00" nType="-1" CC="0.0000000000000000e+00"/>
          </Node>
          <Node pos="r" depth="2" Seq="3" IVar="-1" Cut="9.4886064529418945e-01" cType="1" nS="2.0896598815917969e+02" nB="2.9977187500000000e+03" nEv="3.2066845703125000e+03" nSuw="3.6000000000000000e+01" nBuw="5.4790000000000000e+03" nEvuw="5.5150000000000000e+03" sepI="6.0919169336557388e-02" sepG="-1.0000000000000000e+00" res="-9.9000000000000000e+01" rms="0.0000000000000000e+00" nType="-1" CC="0.0000000000000000e+00"/>
        </Node>
      </Node>
    </BinaryTree>
    <BinaryTree type="DecisionTree" boostWeight="8.9892789377542170e-01" itree="2">
      <Node pos="s" depth="0" Seq="0" IVar="10" Cut="7.2368149757385254e+00" cType="1" nS="7.3715332031250000e+03" nB="7.9874667968750000e+03" nEv="1.5359000000000000e+04" nSuw="1.7070000000000000e+03" nBuw="1.3652000000000000e+04" nEvuw="1.5359000000000000e+04" sepI="2.4959795176982880e-01" sepG="5.9605255126953125e+02" res="-9.9000000000000000e+01" rms="0.0000000000000000e+00" nType="0" CC="0.0000000000000000e+00">
        <Node pos="l" depth="1" Seq="0" IVar="13" Cut="4.0948764801025391e+01" cType="1" nS="6.1263886718750000e+03" nB="3.6002497558593750e+03" nEv="9.7266386718750000e+03" nSuw="1.4800000000000000e+03" nBuw="4.4960000000000000e+03" nEvuw="5.9760000000000000e+03" sepI="2.3313723504543304e-01" sepG="1.0053335571289062e+02" res="-9.9000000000000000e+01" rms="0.0000000000000000e+00" nType="0" CC="0.0000000000000000e+00">
          <Node pos="l" depth="2" Seq="0" IVar="-1" Cut="8.1402510404586792e-01" cType="0" nS="5.7434785156250000e+03" nB="2.8767448730468750e+03" nEv="8.6202236328125000e+03" nSuw="1.3820000000000000e+03" nBuw="3.5640000000000000e+03" nEvuw="4.9460000000000000e+03" sepI="2.2235111892223358e-01" sepG="-1.0000000000000000e+00" res="-9.9000000000000000e+01" rms="0.0000000000000000e+00" nType="1" CC="0.0000000000000000e+00"/>
          <Node pos="r" depth="2" Seq="2" IVar="21" Cut="8.0841696262359619e-01" cType="0" nS="3.8291033935546875e+02" nB="7.2350500488281250e+02" nEv="1.1064152832031250e+03" nSuw="9.8000000000000000e+01" nBuw="9.3200000000000000e+02" nEvuw="1.0300000000000000e+03" sepI="2.2630922496318817e-01" sepG="4.4253856658935547e+01" res="-9.9000000000000000e+01" rms="0.0000000000000000e+00" nType="0" CC="0.0000000000000000e+00">
            <Node pos="l" depth="3" Seq="2" IVar="-1" Cut="0.0000000000000000e+00" cType="1" nS="2.8902124023437500e+02" nB="2.2713288879394531e+02" nEv="5.1615411376953125e+02" nSuw="4.3000000000000000e+01" nBuw="4.0900000000000000e+02" nEvuw="4.5200000000000000e+02" sepI="2.4640582501888275e-01" sepG="-1.0000000000000000e+00" res="-9.9000000000000000e+01" rms="0.0000000000000000e+00" nType="1" CC="0.0000000000000000e+00"/>
            <Node pos="r" depth="3" Seq="6" IVar="-1" Cut="0.0000000000000000e+00" cType="1" nS="9.3889091491699219e+01" nB="4.9637213134765625e+02" nEv="5.9026123046875000e+02" nSuw="5.5000000000000000e+01" nBuw="5.2300000000000000e+02" nEvuw="5.7800000000000000e+02" sepI="1.3376238942146301e-01" sepG="-1.0000000000000000e+00" res="-9.9000000000000000e+01" rms="0.0000000000000000e+00" nType="-1" CC="0.0000000000000000e+00"/>
          </Node>
        </Node>
        <Node pos="r" depth="1" Seq="1" IVar="-1" Cut="9.7330439090728760e-01" cType="1" nS="1.2451444091796875e+03" nB="4.3872167968750000e+03" nEv="5.6323613281250000e+03" nSuw="2.2700000000000000e+02" nBuw="9.1560000000000000e+03" nEvuw="9.3830000000000000e+03" sepI="1.7219787836074829e-01" sepG="-1.0000000000000000e+00" res="-9.9000000000000000e+01" rms="0.0000000000000000e+00" nType="-1" CC="0.0000000000000000e+00"/>
      </Node>
    </BinaryTree>
    <BinaryTree type="DecisionTree" boostWeight="5.9039856019461789e-01" itree="3">
      <Node pos="s" depth="0" Seq="0" IVar="13" Cut="1.3705194473266602e+01" cType="1" nS="6.5583784179687500e+03" nB="8.8006210937500000e+03" nEv="1.5359000000000000e+04" nSuw="1.7070000000000000e+03" nBuw="1.3652000000000000e+04" nEvuw="1.5359000000000000e+04" sepI="2.4467180669307709e-01" sepG="8.0952468872070312e+01" res="-9.9000000000000000e+01" rms="0.0000000000000000e+00" nType="0" CC="0.0000000000000000e+00">
        <Node pos="l" depth="1" Seq="0" IVar="0" Cut="3.8841548919677734e+01" cType="1" nS="6.3093304443359375e+02" nB="2.4203468322753906e+02" nEv="8.7296777343750000e+02" nSuw="2.3200000000000000e+02" nBuw="8.4000000000000000e+01" nEvuw="3.1600000000000000e+02" sepI="2.0038467645645142e-01" sepG="1.3731978416442871e+01" res="-9.9000000000000000e+01" rms="0.0000000000000000e+00" nType="0" CC="0.0000000000000000e+00">
          <Node pos="l" depth="2" Seq="0" IVar="-1" Cut="3.1368252635002136e-01" cType="1" nS="5.7542999267578125e+02" nB="1.6666250610351562e+02" nEv="7.4209252929687500e+02" nSuw="2.1300000000000000e+02" nBuw="5.6000000000000000e+01" nEvuw="2.6900000000000000e+02" sepI="1.7414632439613342e-01" sepG="-1.0000000000000000e+00" res="-9.9000000000000000e+01" rms="0.0000000000000000e+00" nType="1" CC="0.0000000000000000e+00"/>
          <Node pos="r" depth="2" Seq="2" IVar="-1" Cut="0.0000000000000000e+00" cType="1" nS="5.5503063201904297e+01" nB="7.5372177124023438e+01" nEv="1.3087524414062500e+02" nSuw="1.9000000000000000e+01" nBuw="2.8000000000000000e+01" nEvuw="4.7000000000000000e+01" sepI="2.4423788487911224e-01" sepG="-1.0000000000000000e+00" res="-9.9000000000000000e+01" rms="0.0000000000000000e+00" nType="-1" CC="0.0000000000000000e+00"/>
        </Node>
        <Node pos="r" depth="1" Seq="1" IVar="18" Cut="5.8105480670928955e-01" cType="0" nS="5.9274453125000000e+03" nB="8.5585869140625000e+03" nEv="1.4486032226562500e+04" nSuw="1.4750000000000000e+03" nBuw="1.3568000000000000e+04" nEvuw="1.5043000000000000e+04" sepI="2.4175237119197845e-01" sepG="5.9473804473876953e+01" res="-9.9000000000000000e+01" rms="0.0000000000000000e+00" nType="0" CC="0.0000000000000000e+00">
          <Node pos="l" depth="2" Seq="1" IVar="21" Cut="8.9580291509628296e-01" cType="1" nS="4.4884785156250000e+03" nB="5.4266835937500000e+03" nEv="9.9151621093750000e+03" nSuw="1.1280000000000000e+03" nBuw="9.9710000000000000e+03" nEvuw="1.1099000000000000e+04" sepI="2.4776160717010498e-01" sepG="1.1460171508789062e+02" res="-9.9000000000000000e+01" rms="0.0000000000000000e+00" nType="0" CC="0.0000000000000000e+00">
            <Node pos="l" depth="3" Seq="1" IVar="-1" Cut="0.0000000000000000e+00" cType="1" nS="2.2755117187500000e+03" nB="1.6020510253906250e+03" nEv="3.8775627441406250e+03" nSuw="8.1700000000000000e+02" nBuw="2.0520000000000000e+03" nEvuw="2.8690000000000000e+03" sepI="2.4245868623256683e-01" sepG="-1.0000000000000000e+00" res="-9.9000000000000000e+01" rms="0.0000000000000000e+00" nType="1" CC="0.0000000000000000e+00"/>
            <Node pos="r" depth="3" Seq="5" IVar="-1" Cut="0.0000000000000000e+00" cType="1" nS="2.2129667968750000e+03" nB="3.8246328125000000e+03" nEv="6.0375996093750000e+03" nSuw="3.1100000000000000e+02" nBuw="7.9190000000000000e+03" nEvuw="8.2300000000000000e+03" sepI="2.3218598961830139e-01" sepG="-1.0000000000000000e+00" res="-9.9000000000000000e+01" rms="0.0000000000000000e+00" nType="-1" CC="0.0000000000000000e+00"/>
          </Node>
          <Node pos="r" depth="2" Seq="3" IVar="-1" Cut="2.8386640548706055e+01" cType="1" nS="1.4389669189453125e+03" nB="3.1319028320312500e+03" nEv="4.5708696289062500e+03" nSuw="3.4700000000000000e+02" nBuw="3.5970000000000000e+03" nEvuw="3.9440000000000000e+03" sepI="2.1570558845996857e-01" sepG="-1.0000000000000000e+00" res="-9.9000000000000000e+01" rms="0.0000000000000000e+00" nType="-1" CC="0.0000000000000000e+00"/>
        </Node>
      </Node>
    </BinaryTree>
    <BinaryTree type="DecisionTree" boostWeight="4.8683196238453347e-01" itree="4">
      <Node pos="s" depth="0" Seq="0" IVar="12" Cut="1.5331805944442749e+00" cType="0" nS="7.4144711914062500e+03" nB="7.9445283203125000e+03" nEv="1.5358999023437500e+04" nSuw="1.7070000000000000e+03" nBuw="1.3652000000000000e+04" nEvuw="1.5359000000000000e+04" sepI="2.4970224499702454e-01" sepG="9.5130844116210938e+01" res="-9.9000000000000000e+01" rms="0.0000000000000000e+00" nType="0" CC="0.0000000000000000e+00">
        <Node pos="l" depth="1" Seq="0" IVar="18" Cut="9.7220772504806519e-01" cType="1" nS="7.2189726562500000e+03" nB="7.1082416992187500e+03" nEv="1.4327214843750000e+04" nSuw="1.6660000000000000e+03" nBuw="1.2236000000000000e+04" nEvuw="1.3902000000000000e+04" sepI="2.4998506903648376e-01" sepG="7.4553588867187500e+01" res="-9.9000000000000000e+01" rms="0.0000000000000000e+00" nType="0" CC="0.0000000000000000e+00">
          <Node pos="l" depth="2" Seq="0" IVar="17" Cut="1.0014610290527344e+00" cType="1" nS="6.8223071289062500e+03" nB="6.1094970703125000e+03" nEv="1.2931804687500000e+04" nSuw="1.5400000000000000e+03" nBuw="9.3850000000000000e+03" nEvuw="1.0925000000000000e+04" sepI="2.4924042820930481e-01" sepG="8.6670585632324219e+01" res="-9.9000000000000000e+01" rms="0.0000000000000000e+00" nType="0" CC="0.0000000000000000e+00">
            <Node pos="l" depth="3" Seq="0" IVar="-1" Cut="0.0000000000000000e+00" cType="1" nS="5.7888784179687500e+03" nB="4.3592680664062500e+03" nEv="1.0148146484375000e+04" nSuw="1.3250000000000000e+03" nBuw="7.2010000000000000e+03" nEvuw="8.5260000000000000e+03" sepI="2.4503862857818604e-01" sepG="-1.0000000000000000e+00" res="-9.9000000000000000e+01" rms="0.0000000000000000e+00" nType="1" CC="0.0000000000000000e+00"/>
            <Node pos="r" depth="3" Seq="4" IVar="-1" Cut="0.0000000000000000e+00" cType="1" nS="1.0334289550781250e+03" nB="1.7502288818359375e+03" nEv="2.7836579589843750e+03" nSuw="2.1500000000000000e+02" nBuw="2.1840000000000000e+03" nEvuw="2.3990000000000000e+03" sepI="2.3342306911945343e-01" sepG="-1.0000000000000000e+00" res="-9.9000000000000000e+01" rms="0.0000000000000000e+00" nType="-1" CC="0.0000000000000000e+00"/>
          </Node>
          <Node pos="r" depth="2" Seq="2" IVar="6" Cut="1.3230772316455841e-01" cType="1" nS="3.9666561889648438e+02" nB="9.9874462890625000e+02" nEv="1.3954102783203125e+03" nSuw="1.2600000000000000e+02" nBuw="2.8510000000000000e+03" nEvuw="2.9770000000000000e+03" sepI="2.0345820486545563e-01" sepG="5.9394760131835938e+01" res="-9.9000000000000000e+01" rms="0.0000000000000000e+00" nType="0" CC="0.0000000000000000e+00">
            <Node pos="l" depth="3" Seq="2" IVar="-1" Cut="0.0000000000000000e+00" cType="1" nS="1.6643916320800781e+02" nB="5.1447586059570312e+01" nEv="2.1788674926757812e+02" nSuw="3.7000000000000000e+01" nBuw="1.4100000000000000e+02" nEvuw="1.7800000000000000e+02" sepI="1.8036775290966034e-01" sepG="-1.0000000000000000e+00" res="-9.9000000000000000e+01" rms="0.0000000000000000e+00" nType="1" CC="0.0000000000000000e+00"/>
            <Node pos="r" depth="3" Seq="6" IVar="-1" Cut="0.0000000000000000e+00" cType="1" nS="2.3022645568847656e+02" nB="9.4729699707031250e+02" nEv="1.1775234375000000e+03" nSuw="8.9000000000000000e+01" nBuw="2.7100000000000000e+03" nEvuw="2.7990000000000000e+03" sepI="1.5729041397571564e-01" sepG="-1.0000000000000000e+00" res="-9.9000000000000000e+01" rms="0.0000000000000000e+00" nType="-1" CC="0.0000000000000000e+00"/>
          </Node>
        </Node>
        <Node pos="r" depth="1" Seq="1" IVar="4" Cut="-8.5714286565780640e-01" cType="0" nS="1.9549822998046875e+02" nB="8.3628643798828125e+02" nEv="1.0317846679687500e+03" nSuw="4.1000000000000000e+01" nBuw="1.4160000000000000e+03" nEvuw="1.4570000000000000e+03" sepI="1.5357472002506256e-01" sepG="1.9984136581420898e+01" res="-9.9000000000000000e+01" rms="0.0000000000000000e+00" nType="0" CC="0.0000000000000000e+00">
          <Node pos="l" depth="2" Seq="1" IVar="18" Cut="8.4237492084503174e-01" cType="1" nS="1.1820091247558594e+02" nB="1.6678129577636719e+02" nEv="2.8498220825195312e+02" nSuw="2.5000000000000000e+01" nBuw="2.8500000000000000e+02" nEvuw="3.1000000000000000e+02" sepI="2.4273514747619629e-01" sepG="1.4804039955139160e+01" res="-9.9000000000000000e+01" rms="0.0000000000000000e+00" nType="0" CC="0.0000000000000000e+00">
            <Node pos="l" depth="3" Seq="1" IVar="-1" Cut="0.0000000000000000e+00" cType="1" nS="1.1406102752685547e+02" nB="9.0443428039550781e+01" nEv="2.0450445556640625e+02" nSuw="2.3000000000000000e+01" nBuw="1.3400000000000000e+02" nEvuw="1.5700000000000000e+02" sepI="2.4666568636894226e-01" sepG="-1.0000000000000000e+00" res="-9.9000000000000000e+01" rms="0.0000000000000000e+00" nType="1" CC="0.0000000000000000e+00"/>
            <Node pos="r" depth="3" Seq="5" IVar="-1" Cut="0.0000000000000000e+00" cType="1" nS="4.1398892402648926e+00" nB="7.6337867736816406e+01" nEv="8.0477752685546875e+01" nSuw="2.0000000000000000e+00" nBuw="1.5100000000000000e+02" nEvuw="1.5300000000000000e+02" sepI="4.8795189708471298e-02" sepG="-1.0000000000000000e+00" res="-9.9000000000000000e+01" rms="0.0000000000000000e+00" nType="-1" CC="0.0000000000000000e+00"/>
          </Node>
          <Node pos="r" depth="2" Seq="3" IVar="-1" Cut="7.3123484849929810e-02" cType="0" nS="7.7297317504882812e+01" nB="6.6950512695312500e+02" nEv="7.4680242919921875e+02" nSuw="1.6000000000000000e+01" nBuw="1.1310000000000000e+03" nEvuw="1.1470000000000000e+03" sepI="9.2791214585304260e-02" sepG="-1.0000000000000000e+00" res="-9.9000000000000000e+01" rms="0.0000000000000000e+00" nType="-1" CC="0.0000000000000000e+00"/>
        </Node>
      </Node>
    </BinaryTree>
    <BinaryTree type="DecisionTree" boostWeight="6.6473851224956748e-01" itree="5">
      <Node pos="s" depth="0" Seq="0" IVar="14" Cut="8.1402510404586792e-01" cType="0" nS="6.6666010742187500e+03" nB="8.6923984375000000e+03" nEv="1.5358999023437500e+04" nSuw="1.7070000000000000e+03" nBuw="1.3652000000000000e+04" nEvuw="1.5359000000000000e+04" sepI="2.4565082788467407e-01" sepG="7.3547592163085938e+01" res="-9.9000000000000000e+01" rms="0.0000000000000000e+00" nType="0" CC="0.0000000000000000e+00">
        <Node pos="l" depth="1" Seq="0" IVar="10" Cut="6.0205321311950684e+00" cType="1" nS="5.3828359375000000e+03" nB="5.9408408203125000e+03" nEv="1.1323676757812500e+04" nSuw="9.4400000000000000e+02" nBuw="1.1991000000000000e+04" nEvuw="1.2935000000000000e+04" sepI="2.4939292669296265e-01" sepG="1.7967735290527344e+02" res="-9.9000000000000000e+01" rms="0.0000000000000000e+00" nType="0" CC="0.0000000000000000e+00">
          <Node pos="l" depth="2" Seq="0" IVar="-1" Cut="3.1965944290161133e+01" cType="1" nS="2.7003041992187500e+03" nB="1.5287340087890625e+03" nEv="4.2290380859375000e+03" nSuw="5.7900000000000000e+02" nBuw="1.7820000000000000e+03" nEvuw="2.3610000000000000e+03" sepI="2.3081360757350922e-01" sepG="-1.0000000000000000e+00" res="-9.9000000000000000e+01" rms="0.0000000000000000e+00" nType="1" CC="0.0000000000000000e+00"/>
          <Node pos="r" depth="2" Seq="2" IVar="-1" Cut="5.2512079477310181e-01" cType="0" nS="2.6825317382812500e+03" nB="4.4121069335937500e+03" nEv="7.0946386718750000e+03" nSuw="3.6500000000000000e+02" nBuw="1.0209000000000000e+04" nEvuw="1.0574000000000000e+04" sepI="2.3514206707477570e-01" sepG="-1.0000000000000000e+00" res="-9.9000000000000000e+01" rms="0.0000000000000000e+00" nType="-1" CC="0.0000000000000000e+00"/>
        </Node>
        <Node pos="r" depth="1" Seq="1" IVar="10" Cut="6.3801579475402832e+00" cType="0" nS="1.2837655029296875e+03" nB="2.7515571289062500e+03" nEv="4.0353225097656250e+03" nSuw="7.6300000000000000e+02" nBuw="1.6610000000000000e+03" nEvuw="2.4240000000000000e+03" sepI="2.1692405641078949e-01" sepG="1.1730435943603516e+02" res="-9.9000000000000000e+01" rms="0.0000000000000000e+00" nType="0" CC="0.0000000000000000e+00">
          <Node pos="l" depth="2" Seq="1" IVar="21" Cut="1.9929845631122589e-01" cType="0" nS="7.9182495117187500e+02" nB="6.5932427978515625e+02" nEv="1.4511491699218750e+03" nSuw="1.5300000000000000e+02" nBuw="1.2700000000000000e+03" nEvuw="1.4230000000000000e+03" sepI="2.4791574478149414e-01" sepG="3.4384330749511719e+01" res="-9.9000000000000000e+01" rms="0.0000000000000000e+00" nType="0" CC="0.0000000000000000e+00">
            <Node pos="l" depth="3" Seq="1" IVar="-1" Cut="0.0000000000000000e+00" cType="1" nS="7.8220349121093750e+02" nB="5.3140118408203125e+02" nEv="1.3136046142578125e+03" nSuw="1.4400000000000000e+02" nBuw="9.9500000000000000e+02" nEvuw="1.1390000000000000e+03" sepI="2.4088674783706665e-01" sepG="-1.0000000000000000e+00" res="-9.9000000000000000e+01" rms="0.0000000000000000e+00" nType="1" CC="0.0000000000000000e+00"/>
            <Node pos="r" depth="3" Seq="5" IVar="-1" Cut="0.0000000000000000e+00" cType="1" nS="9.6214952468872070e+00" nB="1.2792307281494141e+02" nEv="1.3754457092285156e+02" nSuw="9.0000000000000000e+00" nBuw="2.7500000000000000e+02" nEvuw="2.8400000000000000e+02" sepI="6.5058574080467224e-02" sepG="-1.0000000000000000e+00" res="-9.9000000000000000e+01" rms="0.0000000000000000e+00" nType="-1" CC="0.0000000000000000e+00"/>
          </Node>
          <Node pos="r" depth="2" Seq="3" IVar="1" Cut="1.5850629806518555e+00" cType="1" nS="4.9194055175781250e+02" nB="2.0922329101562500e+03" nEv="2.5841733398437500e+03" nSuw="6.1000000000000000e+02" nBuw="3.9100000000000000e+02" nEvuw="1.0010000000000000e+03" sepI="1.5412721037864685e-01" sepG="5.7276119232177734e+01" res="-9.9000000000000000e+01" rms="0.0000000000000000e+00" nType="0" CC="0.0000000000000000e+00">
            <Node pos="l" depth="3" Seq="3" IVar="-1" Cut="0.0000000000000000e+00" cType="1" nS="2.1868572998046875e+02" nB="1.9153991699218750e+02" nEv="4.1022564697265625e+02" nSuw="5.7000000000000000e+01" nBuw="1.6600000000000000e+02" nEvuw="2.2300000000000000e+02" sepI="2.4890528619289398e-01" sepG="-1.0000000000000000e+00" res="-9.9000000000000000e+01" rms="0.0000000000000000e+00" nType="1" CC="0.0000000000000000e+00"/>
            <Node pos="r" depth="3" Seq="7" IVar="-1" Cut="0.0000000000000000e+00" cType="1" nS="2.7325482177734375e+02" nB="1.9006928710937500e+03" nEv="2.1739477539062500e+03" nSuw="5.5300000000000000e+02" nBuw="2.2500000000000000e+02" nEvuw="7.7800000000000000e+02" sepI="1.0989592969417572e-01" sepG="-1.0000000000000000e+00" res="-9.9000000000000000e+01" rms="0.0000000000000000e+00" nType="-1" CC="0.0000000000000000e+00"/>
          </Node>
        </Node>
      </Node>
    </BinaryTree>
    <BinaryTree type="DecisionTree" boostWeight="6.2314338223927634e-01" itree="6">
      <Node pos="s" depth="0" Seq="0" IVar="14" Cut="8.1402510404586792e-01" cType="0" nS="7.1676123046875000e+03" nB="8.1913867187500000e+03" nEv="1.5358999023437500e+04" nSuw="1.7070000000000000e+03" nBuw="1.3652000000000000e+04" nEvuw="1.5359000000000000e+04" sepI="2.4888923764228821e-01" sepG="1.2110987091064453e+02" res="-9.9000000000000000e+01" rms="0.0000000000000000e+00" nType="0" CC="0.0000000000000000e+00">
        <Node pos="l" depth="1" Seq="0" IVar="21" Cut="5.2512079477310181e-01" cType="0" nS="5.9933437500000000e+03" nB="5.5911479492187500e+03" nEv="1.1584491210937500e+04" nSuw="9.4400000000000000e+02" nBuw="1.1991000000000000e+04" nEvuw="1.2935000000000000e+04" sepI="2.4969865381717682e-01" sepG="9.7527755737304688e+01" res="-9.9000000000000000e+01" rms="0.0000000000000000e+00" nType="0" CC="0.0000000000000000e+00">
          <Node pos="l" depth="2" Seq="0" IVar="21" Cut="9.6657598018646240e-01" cType="1" nS="5.6177724609375000e+03" nB="4.5722412109375000e+03" nEv="1.0190013671875000e+04" nSuw="8.6000000000000000e+02" nBuw="9.6800000000000000e+03" nEvuw="1.0540000000000000e+04" sepI="2.4736812710762024e-01" sepG="1.4662435913085938e+02" res="-9.9000000000000000e+01" rms="0.0000000000000000e+00" nType="0" CC="0.0000000000000000e+00">
            <Node pos="l" depth="3" Seq="0" IVar="-1" Cut="0.0000000000000000e+00" cType="1" nS="5.2948129882812500e+03" nB="3.5616235351562500e+03" nEv="8.8564365234375000e+03" nSuw="8.4200000000000000e+02" nBuw="5.0960000000000000e+03" nEvuw="5.9380000000000000e+03" sepI="2.4042554199695587e-01" sepG="-1.0000000000000000e+00" res="-9.9000000000000000e+01" rms="0.0000000000000000e+00" nType="1" CC="0.0000000000000000e+00"/>
            <Node pos="r" depth="3" Seq="4" IVar="-1" Cut="0.0000000000000000e+00" cType="1" nS="3.2295965576171875e+02" nB="1.0106178588867188e+03" nEv="1.3335775146484375e+03" nSuw="1.8000000000000000e+01" nBuw="4.5840000000000000e+03" nEvuw="4.6020000000000000e+03" sepI="1.8352647125720978e-01" sepG="-1.0000000000000000e+00" res="-9.9000000000000000e+01" rms="0.0000000000000000e+00" nType="-1" CC="0.0000000000000000e+00"/>
          </Node>
          <Node pos="r" depth="2" Seq="2" IVar="13" Cut="2.2116065979003906e+01" cType="1" nS="3.7557113647460938e+02" nB="1.0189063720703125e+03" nEv="1.3944775390625000e+03" nSuw="8.4000000000000000e+01" nBuw="2.3110000000000000e+03" nEvuw="2.3950000000000000e+03" sepI="1.9679018855094910e-01" sepG="6.9451408386230469e+01" res="-9.9000000000000000e+01" rms="0.0000000000000000e+00" nType="0" CC="0.0000000000000000e+00">
            <Node pos="l" depth="3" Seq="2" IVar="-1" Cut="0.0000000000000000e+00" cType="1" nS="2.7839096069335938e+02" nB="2.0528575134277344e+02" nEv="4.8367672729492188e+02" nSuw="6.7000000000000000e+01" nBuw="2.3400000000000000e+02" nEvuw="3.0100000000000000e+02" sepI="2.4428881704807281e-01" sepG="-1.0000000000000000e+00" res="-9.9000000000000000e+01" rms="0.0000000000000000e+00" nType="1" CC="0.0000000000000000e+00"/>
            <Node pos="r" depth="3" Seq="6" IVar="-1" Cut="0.0000000000000000e+00" cType="1" nS="9.7180160522460938e+01" nB="8.1362066650390625e+02" nEv="9.1080078125000000e+02" nSuw="1.7000000000000000e+01" nBuw="2.0770000000000000e+03" nEvuw="2.0940000000000000e+03" sepI="9.5313139259815216e-02" sepG="-1.0000000000000000e+00" res="-9.9000000000000000e+01" rms="0.0000000000000000e+00" nType="-1" CC="0.0000000000000000e+00"/>
          </Node>
        </Node>
        <Node pos="r" depth="1" Seq="1" IVar="-1" Cut="8.4858226776123047e-01" cType="1" nS="1.1742687988281250e+03" nB="2.6002390136718750e+03" nEv="3.7745078125000000e+03" nSuw="7.6300000000000000e+02" nBuw="1.6610000000000000e+03" nEvuw="2.4240000000000000e+03" sepI="2.1431873738765717e-01" sepG="-1.0000000000000000e+00" res="-9.9000000000000000e+01" rms="0.0000000000000000e+00" nType="-1" CC="0.0000000000000000e+00"/>
      </Node>
    </BinaryTree>
    <BinaryTree type="DecisionTree" boostWeight="6.1640226199370707e-01" itree="7">
      <Node pos="s" depth="0" Seq="0" IVar="10" Cut="7.2368149757385254e+00" cType="0" nS="6.5647495117187500e+03" nB="8.7942490234375000e+03" nEv="1.5358999023437500e+04" nSuw="1.7070000000000000e+03" nBuw="1.3652000000000000e+04" nEvuw="1.5359000000000000e+04" sepI="2.4473220109939575e-01" sepG="6.0620193481445312e+01" res="-9.9000000000000000e+01" rms="0.0000000000000000e+00" nType="0" CC="0.0000000000000000e+00">
        <Node pos="l" depth="1" Seq="0" IVar="13" Cut="3.8896911621093750e+01" cType="1" nS="2.7058823242187500e+03" nB="2.5535888671875000e+03" nEv="5.2594711914062500e+03" nSuw="2.2700000000000000e+02" nBuw="9.1560000000000000e+03" nEvuw="9.3830000000000000e+03" sepI="2.4979038536548615e-01" sepG="3.8006198883056641e+01" res="-9.9000000000000000e+01" rms="0.0000000000000000e+00" nType="0" CC="0.0000000000000000e+00">
          <Node pos="l" depth="2" Seq="0" IVar="21" Cut="1.9915403425693512e-01" cType="0" nS="2.0055294189453125e+03" nB="1.4819023437500000e+03" nEv="3.4874318847656250e+03" nSuw="1.7500000000000000e+02" nBuw="5.0370000000000000e+03" nEvuw="5.2120000000000000e+03" sepI="2.4436397850513458e-01" sepG="3.1900758743286133e+01" res="-9.9000000000000000e+01" rms="0.0000000000000000e+00" nType="0" CC="0.0000000000000000e+00">
            <Node pos="l" depth="3" Seq="0" IVar="-1" Cut="0.0000000000000000e+00" cType="1" nS="1.9987368164062500e+03" nB="1.3730156250000000e+03" nEv="3.3717524414062500e+03" nSuw="1.7200000000000000e+02" nBuw="4.6030000000000000e+03" nEvuw="4.7750000000000000e+03" sepI="2.4139025807380676e-01" sepG="-1.0000000000000000e+00" res="-9.9000000000000000e+01" rms="0.0000000000000000e+00" nType="1" CC="0.0000000000000000e+00"/>
            <Node pos="r" depth="3" Seq="4" IVar="-1" Cut="0.0000000000000000e+00" cType="1" nS="6.7926416397094727e+00" nB="1.0888675689697266e+02" nEv="1.1567939758300781e+02" nSuw="3.0000000000000000e+00" nBuw="4.3400000000000000e+02" nEvuw="4.3700000000000000e+02" sepI="5.5271558463573456e-02" sepG="-1.0000000000000000e+00" res="-9.9000000000000000e+01" rms="0.0000000000000000e+00" nType="-1" CC="0.0000000000000000e+00"/>
          </Node>
          <Node pos="r" depth="2" Seq="2" IVar="2" Cut="1.3419381380081177e+00" cType="0" nS="7.0035278320312500e+02" nB="1.0716865234375000e+03" nEv="1.7720393066406250e+03" nSuw="5.2000000000000000e+01" nBuw="4.1190000000000000e+03" nEvuw="4.1710000000000000e+03" sepI="2.3902203142642975e-01" sepG="1.1554206848144531e+02" res="-9.9000000000000000e+01" rms="0.0000000000000000e+00" nType="0" CC="0.0000000000000000e+00">
            <Node pos="l" depth="3" Seq="2" IVar="-1" Cut="0.0000000000000000e+00" cType="1" nS="4.3955844116210938e+02" nB="1.3637463378906250e+02" nEv="5.7593310546875000e+02" nSuw="2.3000000000000000e+01" nBuw="5.4500000000000000e+02" nEvuw="5.6800000000000000e+02" sepI="1.8071998655796051e-01" sepG="-1.0000000000000000e+00" res="-9.9000000000000000e+01" rms="0.0000000000000000e+00" nType="1" CC="0.0000000000000000e+00"/>
            <Node pos="r" depth="3" Seq="6" IVar="-1" Cut="0.0000000000000000e+00" cType="1" nS="2.6079434204101562e+02" nB="9.3531195068359375e+02" nEv="1.1961063232421875e+03" nSuw="2.9000000000000000e+01" nBuw="3.5740000000000000e+03" nEvuw="3.6030000000000000e+03" sepI="1.7049634456634521e-01" sepG="-1.0000000000000000e+00" res="-9.9000000000000000e+01" rms="0.0000000000000000e+00" nType="-1" CC="0.0000000000000000e+00"/>
          </Node>
        </Node>
        <Node pos="r" depth="1" Seq="1" IVar="19" Cut="2.6983302831649780e-01" cType="1" nS="3.8588674316406250e+03" nB="6.2406606445312500e+03" nEv="1.0099528320312500e+04" nSuw="1.4800000000000000e+03" nBuw="4.4960000000000000e+03" nEvuw="5.9760000000000000e+03" sepI="2.3609580099582672e-01" sepG="5.1243026733398438e+01" res="-9.9000000000000000e+01" rms="0.0000000000000000e+00" nType="0" CC="0.0000000000000000e+00">
          <Node pos="l" depth="2" Seq="1" IVar="16" Cut="2.2373196482658386e-01" cType="0" nS="1.6845048828125000e+03" nB="1.8275245361328125e+03" nEv="3.5120292968750000e+03" nSuw="3.9500000000000000e+02" nBuw="1.9340000000000000e+03" nEvuw="2.3290000000000000e+03" sepI="2.4958541989326477e-01" sepG="2.8160451889038086e+01" res="-9.9000000000000000e+01" rms="0.0000000000000000e+00" nType="0" CC="0.0000000000000000e+00">
            <Node pos="l" depth="3" Seq="1" IVar="-1" Cut="0.0000000000000000e+00" cType="1" nS="8.1946282958984375e+02" nB="5.6848553466796875e+02" nEv="1.3879483642578125e+03" nSuw="2.2800000000000000e+02" nBuw="4.5400000000000000e+02" nEvuw="6.8200000000000000e+02" sepI="2.4182547628879547e-01" sepG="-1.0000000000000000e+00" res="-9.9000000000000000e+01" rms="0.0000000000000000e+00" nType="1" CC="0.0000000000000000e+00"/>
            <Node pos="r" depth="3" Seq="5" IVar="-1" Cut="0.0000000000000000e+00" cType="1" nS="8.6504199218750000e+02" nB="1.2590389404296875e+03" nEv="2.1240810546875000e+03" nSuw="1.6700000000000000e+02" nBuw="1.4800000000000000e+03" nEvuw="1.6470000000000000e+03" sepI="2.4139831960201263e-01" sepG="-1.0000000000000000e+00" res="-9.9000000000000000e+01" rms="0.0000000000000000e+00" nType="-1" CC="0.0000000000000000e+00"/>
          </Node>
          <Node pos="r" depth="2" Seq="3" IVar="-1" Cut="6.3662981986999512e-01" cType="0" nS="2.1743625488281250e+03" nB="4.4131362304687500e+03" nEv="6.5874985351562500e+03" nSuw="1.0850000000000000e+03" nBuw="2.5620000000000000e+03" nEvuw="3.6470000000000000e+03" sepI="2.2112518548965454e-01" sepG="-1.0000000000000000e+00" res="-9.9000000000000000e+01" rms="0.0000000000000000e+00" nType="-1" CC="0.0000000000000000e+00"/>
        </Node>
      </Node>
    </BinaryTree>
    <BinaryTree type="DecisionTree" boostWeight="3.7364052998941399e-01" itree="8">
      <Node pos="s" depth="0" Seq="0" IVar="12" Cut="1.5331805944442749e+00" cType="0" nS="7.2244702148437500e+03" nB="8.1345288085937500e+03" nEv="1.5358999023437500e+04" nSuw="1.7070000000000000e+03" nBuw="1.3652000000000000e+04" nEvuw="1.5359000000000000e+04" sepI="2.4912229180335999e-01" sepG="4.0786544799804688e+01" res="-9.9000000000000000e+01" rms="0.0000000000000000e+00" nType="0" CC="0.0000000000000000e+00">
        <Node pos="l" depth="1" Seq="0" IVar="15" Cut="1.2380952835083008e+00" cType="0" nS="6.9863544921875000e+03" nB="7.4708398437500000e+03" nEv="1.4457194335937500e+04" nSuw="1.6660000000000000e+03" nBuw="1.2236000000000000e+04" nEvuw="1.3902000000000000e+04" sepI="2.4971924722194672e-01" sepG="3.1710481643676758e+01" res="-9.9000000000000000e+01" rms="0.0000000000000000e+00" nType="0" CC="0.0000000000000000e+00">
          <Node pos="l" depth="2" Seq="0" IVar="19" Cut="4.1971531510353088e-01" cType="0" nS="2.3821887207031250e+03" nB="1.9073453369140625e+03" nEv="4.2895341796875000e+03" nSuw="5.7700000000000000e+02" nBuw="2.4950000000000000e+03" nEvuw="3.0720000000000000e+03" sepI="2.4693648517131805e-01" sepG="5.8855113983154297e+01" res="-9.9000000000000000e+01" rms="0.0000000000000000e+00" nType="0" CC="0.0000000000000000e+00">
            <Node pos="l" depth="3" Seq="0" IVar="-1" Cut="0.0000000000000000e+00" cType="1" nS="1.5028162841796875e+03" nB="7.5147143554687500e+02" nEv="2.2542878417968750e+03" nSuw="4.0500000000000000e+02" nBuw="9.8200000000000000e+02" nEvuw="1.3870000000000000e+03" sepI="2.2222845256328583e-01" sepG="-1.0000000000000000e+00" res="-9.9000000000000000e+01" rms="0.0000000000000000e+00" nType="1" CC="0.0000000000000000e+00"/>
            <Node pos="r" depth="3" Seq="4" IVar="-1" Cut="0.0000000000000000e+00" cType="1" nS="8.7937243652343750e+02" nB="1.1558740234375000e+03" nEv="2.0352464599609375e+03" nSuw="1.7200000000000000e+02" nBuw="1.5130000000000000e+03" nEvuw="1.6850000000000000e+03" sepI="2.4538575112819672e-01" sepG="-1.0000000000000000e+00" res="-9.9000000000000000e+01" rms="0.0000000000000000e+00" nType="-1" CC="0.0000000000000000e+00"/>
          </Node>
          <Node pos="r" depth="2" Seq="2" IVar="20" Cut="1.5063408613204956e+00" cType="0" nS="4.6041660156250000e+03" nB="5.5634946289062500e+03" nEv="1.0167660156250000e+04" nSuw="1.0890000000000000e+03" nBuw="9.7410000000000000e+03" nEvuw="1.0830000000000000e+04" sepI="2.4777446687221527e-01" sepG="2.4622228622436523e+01" res="-9.9000000000000000e+01" rms="0.0000000000000000e+00" nType="0" CC="0.0000000000000000e+00">
            <Node pos="l" depth="3" Seq="2" IVar="-1" Cut="0.0000000000000000e+00" cType="1" nS="1.0376503906250000e+03" nB="8.2631518554687500e+02" nEv="1.8639655761718750e+03" nSuw="1.5900000000000000e+02" nBuw="2.0880000000000000e+03" nEvuw="2.2470000000000000e+03" sepI="2.4678628146648407e-01" sepG="-1.0000000000000000e+00" res="-9.9000000000000000e+01" rms="0.0000000000000000e+00" nType="1" CC="0.0000000000000000e+00"/>
            <Node pos="r" depth="3" Seq="6" IVar="-1" Cut="0.0000000000000000e+00" cType="1" nS="3.5665153808593750e+03" nB="4.7371791992187500e+03" nEv="8.3036943359375000e+03" nSuw="9.3000000000000000e+02" nBuw="7.6530000000000000e+03" nEvuw="8.5830000000000000e+03" sepI="2.4503108859062195e-01" sepG="-1.0000000000000000e+00" res="-9.9000000000000000e+01" rms="0.0000000000000000e+00" nType="-1" CC="0.0000000000000000e+00"/>
          </Node>
        </Node>
        <Node pos="r" depth="1" Seq="1" IVar="3" Cut="-9.7219619750976562e+01" cType="0" nS="2.3811573791503906e+02" nB="6.6368890380859375e+02" nEv="9.0180462646484375e+02" nSuw="4.1000000000000000e+01" nBuw="1.4160000000000000e+03" nEvuw="1.4570000000000000e+03" sepI="1.9432456791400909e-01" sepG="1.2671056747436523e+01" res="-9.9000000000000000e+01" rms="0.0000000000000000e+00" nType="0" CC="0.0000000000000000e+00">
          <Node pos="l" depth="2" Seq="1" IVar="-1" Cut="1.5511175990104675e-01" cType="0" nS="1.9136135864257812e+02" nB="3.3370803833007812e+02" nEv="5.2506939697265625e+02" nSuw="3.4000000000000000e+01" nBuw="5.4000000000000000e+02" nEvuw="5.7400000000000000e+02" sepI="2.3162610828876495e-01" sepG="-1.0000000000000000e+00" res="-9.9000000000000000e+01" rms="0.0000000000000000e+00" nType="-1" CC="0.0000000000000000e+00"/>
          <Node pos="r" depth="2" Seq="3" IVar="21" Cut="3.3823657035827637e-01" cType="1" nS="4.6754371643066406e+01" nB="3.2998086547851562e+02" nEv="3.7673526000976562e+02" nSuw="7.0000000000000000e+00" nBuw="8.7600000000000000e+02" nEvuw="8.8300000000000000e+02" sepI="1.0870224237442017e-01" sepG="5.8590769767761230e+00" res="-9.9000000000000000e+01" rms="0.0000000000000000e+00" nType="0" CC="0.0000000000000000e+00">
            <Node pos="l" depth="3" Seq="3" IVar="-1" Cut="0.0000000000000000e+00" cType="1" nS="1.8311460494995117e+01" nB="1.7795900344848633e+01" nEv="3.6107360839843750e+01" nSuw="1.0000000000000000e+00" nBuw="4.3000000000000000e+01" nEvuw="4.4000000000000000e+01" sepI="2.4994903802871704e-01" sepG="-1.0000000000000000e+00" res="-9.9000000000000000e+01" rms="0.0000000000000000e+00" nType="1" CC="0.0000000000000000e+00"/>
            <Node pos="r" depth="3" Seq="7" IVar="-1" Cut="0.0000000000000000e+00" cType="1" nS="2.8442913055419922e+01" nB="3.1218496704101562e+02" nEv="3.4062789916992188e+02" nSuw="6.0000000000000000e+00" nBuw="8.3300000000000000e+02" nEvuw="8.3900000000000000e+02" sepI="7.6528936624526978e-02" sepG="-1.0000000000000000e+00" res="-9.9000000000000000e+01" rms="0.0000000000000000e+00" nType="-1" CC="0.0000000000000000e+00"/>
          </Node>
        </Node>
      </Node>
    </BinaryTree>
    <BinaryTree type="DecisionTree" boostWeight="4.4749333792278545e-01" itree="9">
      <Node pos="s" depth="0" Seq="0" IVar="17" Cut="1.9084650278091431e-01" cType="0" nS="7.8824013671875000e+03" nB="7.4765976562500000e+03" nEv="1.5358999023437500e+04" nSuw="1.7070000000000000e+03" nBuw="1.3652000000000000e+04" nEvuw="1.5359000000000000e+04" sepI="2.4982547760009766e-01" sepG="3.5000000000000000e+01" res="-9.9000000000000000e+01" rms="0.0000000000000000e+00" nType="0" CC="0.0000000000000000e+00">
        <Node pos="l" depth="1" Seq="0" IVar="13" Cut="2.1456489562988281e+01" cType="1" nS="4.7095019531250000e+03" nB="3.7564868164062500e+03" nEv="8.4659882812500000e+03" nSuw="1.0350000000000000e+03" nBuw="5.7650000000000000e+03" nEvuw="6.8000000000000000e+03" sepI="2.4683201313018799e-01" sepG="3.4553199768066406e+01" res="-9.9000000000000000e+01" rms="0.0000000000000000e+00" nType="0" CC="0.0000000000000000e+00">
          <Node pos="l" depth="2" Seq="0" IVar="21" Cut="8.8633525371551514e-01" cType="1" nS="1.4122229003906250e+03" nB="7.0536877441406250e+02" nEv="2.1175915527343750e+03" nSuw="3.6400000000000000e+02" nBuw="5.7700000000000000e+02" nEvuw="9.4100000000000000e+02" sepI="2.2214423120021820e-01" sepG="2.6331604003906250e+01" res="-9.9000000000000000e+01" rms="0.0000000000000000e+00" nType="0" CC="0.0000000000000000e+00">
            <Node pos="l" depth="3" Seq="0" IVar="-1" Cut="0.0000000000000000e+00" cType="1" nS="1.2364801025390625e+03" nB="4.7867193603515625e+02" nEv="1.7151520996093750e+03" nSuw="3.3600000000000000e+02" nBuw="3.6100000000000000e+02" nEvuw="6.9700000000000000e+02" sepI="2.0119622349739075e-01" sepG="-1.0000000000000000e+00" res="-9.9000000000000000e+01" rms="0.0000000000000000e+00" nType="1" CC="0.0000000000000000e+00"/>
            <Node pos="r" depth="3" Seq="4" IVar="-1" Cut="0.0000000000000000e+00" cType="1" nS="1.7574272155761719e+02" nB="2.2669682312011719e+02" nEv="4.0243954467773438e+02" nSuw="2.8000000000000000e+01" nBuw="2.1600000000000000e+02" nEvuw="2.4400000000000000e+02" sepI="2.4599228799343109e-01" sepG="-1.0000000000000000e+00" res="-9.9000000000000000e+01" rms="0.0000000000000000e+00" nType="-1" CC="0.0000000000000000e+00"/>
          </Node>
          <Node pos="r" depth="2" Seq="2" IVar="19" Cut="8.3926534652709961e-01" cType="0" nS="3.2972790527343750e+03" nB="3.0511181640625000e+03" nEv="6.3483969726562500e+03" nSuw="6.7100000000000000e+02" nBuw="5.1880000000000000e+03" nEvuw="5.8590000000000000e+03" sepI="2.4962411820888519e-01" sepG="3.5587200164794922e+01" res="-9.9000000000000000e+01" rms="0.0000000000000000e+00" nType="0" CC="0.0000000000000000e+00">
            <Node pos="l" depth="3" Seq="2" IVar="-1" Cut="0.0000000000000000e+00" cType="1" nS="1.3035457763671875e+03" nB="7.7669207763671875e+02" nEv="2.0802377929687500e+03" nSuw="3.0400000000000000e+02" nBuw="1.3240000000000000e+03" nEvuw="1.6280000000000000e+03" sepI="2.3396407067775726e-01" sepG="-1.0000000000000000e+00" res="-9.9000000000000000e+01" rms="0.0000000000000000e+00" nType="1" CC="0.0000000000000000e+00"/>
            <Node pos="r" depth="3" Seq="6" IVar="-1" Cut="0.0000000000000000e+00" cType="1" nS="1.9937332763671875e+03" nB="2.2744260253906250e+03" nEv="4.2681591796875000e+03" nSuw="3.6700000000000000e+02" nBuw="3.8640000000000000e+03" nEvuw="4.2310000000000000e+03" sepI="2.4891875684261322e-01" sepG="-1.0000000000000000e+00" res="-9.9000000000000000e+01" rms="0.0000000000000000e+00" nType="-1" CC="0.0000000000000000e+00"/>
          </Node>
        </Node>
        <Node pos="r" depth="1" Seq="1" IVar="6" Cut="1.2584477663040161e-01" cType="1" nS="3.1728996582031250e+03" nB="3.7201105957031250e+03" nEv="6.8930102539062500e+03" nSuw="6.7200000000000000e+02" nBuw="7.8870000000000000e+03" nEvuw="8.5590000000000000e+03" sepI="2.4842445552349091e-01" sepG="7.0594490051269531e+01" res="-9.9000000000000000e+01" rms="0.0000000000000000e+00" nType="0" CC="0.0000000000000000e+00">
          <Node pos="l" depth="2" Seq="1" IVar="12" Cut="2.1969892978668213e+00" cType="1" nS="6.7724993896484375e+02" nB="2.7186190795898438e+02" nEv="9.4911181640625000e+02" nSuw="1.4600000000000000e+02" nBuw="3.5700000000000000e+02" nEvuw="5.0300000000000000e+02" sepI="2.0439137518405914e-01" sepG="1.6656806945800781e+01" res="-9.9000000000000000e+01" rms="0.0000000000000000e+00" nType="0" CC="0.0000000000000000e+00">
            <Node pos="l" depth="3" Seq="1" IVar="-1" Cut="0.0000000000000000e+00" cType="1" nS="6.4039776611328125e+02" nB="2.0122962951660156e+02" nEv="8.4162738037109375e+02" nSuw="1.3000000000000000e+02" nBuw="2.8100000000000000e+02" nEvuw="4.1100000000000000e+02" sepI="1.8192902207374573e-01" sepG="-1.0000000000000000e+00" res="-9.9000000000000000e+01" rms="0.0000000000000000e+00" nType="1" CC="0.0000000000000000e+00"/>
            <Node pos="r" depth="3" Seq="5" IVar="-1" Cut="0.0000000000000000e+00" cType="1" nS="3.6852149963378906e+01" nB="7.0632293701171875e+01" nEv="1.0748444366455078e+02" nSuw="1.6000000000000000e+01" nBuw="7.6000000000000000e+01" nEvuw="9.2000000000000000e+01" sepI="2.2530712187290192e-01" sepG="-1.0000000000000000e+00" res="-9.9000000000000000e+01" rms="0.0000000000000000e+00" nType="-1" CC="0.0000000000000000e+00"/>
          </Node>
          <Node pos="r" depth="2" Seq="3" IVar="17" Cut="1.0599573142826557e-02" cType="0" nS="2.4956496582031250e+03" nB="3.4482487792968750e+03" nEv="5.9438984375000000e+03" nSuw="5.2600000000000000e+02" nBuw="7.5300000000000000e+03" nEvuw="8.0560000000000000e+03" sepI="2.4357877671718597e-01" sepG="3.6219692230224609e+01" res="-9.9000000000000000e+01" rms="0.0000000000000000e+00" nType="0" CC="0.0000000000000000e+00">
            <Node pos="l" depth="3" Seq="3" IVar="-1" Cut="0.0000000000000000e+00" cType="1" nS="2.8850720214843750e+02" nB="1.1928359222412109e+02" nEv="4.0779080200195312e+02" nSuw="1.0700000000000000e+02" nBuw="1.6400000000000000e+02" nEvuw="2.7100000000000000e+02" sepI="2.0694862306118011e-01" sepG="-1.0000000000000000e+00" res="-9.9000000000000000e+01" rms="0.0000000000000000e+00" nType="1" CC="0.0000000000000000e+00"/>
            <Node pos="r" depth="3" Seq="7" IVar="-1" Cut="0.0000000000000000e+00" cType="1" nS="2.2071425781250000e+03" nB="3.3289650878906250e+03" nEv="5.5361074218750000e+03" nSuw="4.1900000000000000e+02" nBuw="7.3660000000000000e+03" nEvuw="7.7850000000000000e+03" sepI="2.3973451554775238e-01" sepG="-1.0000000000000000e+00" res="-9.9000000000000000e+01" rms="0.0000000000000000e+00" nType="-1" CC="0.0000000000000000e+00"/>
          </Node>
        </Node>
      </Node>
    </BinaryTree>
    <BinaryTree type="DecisionTree" boostWeight="3.1007462815776432e-01" itree="10">
      <Node pos="s" depth="0" Seq="0" IVar="4" Cut="1.4285714924335480e-01" cType="0" nS="8.5021064453125000e+03" nB="6.8568930664062500e+03" nEv="1.5358999023437500e+04" nSuw="1.7070000000000000e+03" nBuw="1.3652000000000000e+04" nEvuw="1.5359000000000000e+04" sepI="2.4713148176670074e-01" sepG="3.2385467529296875e+01" res="-9.9000000000000000e+01" rms="0.0000000000000000e+00" nType="0" CC="0.0000000000000000e+00">
        <Node pos="l" depth="1" Seq="0" IVar="18" Cut="8.2439893484115601e-01" cType="1" nS="2.1876130371093750e+03" nB="1.2341364746093750e+03" nEv="3.4217497558593750e+03" nSuw="4.5900000000000000e+02" nBuw="2.2170000000000000e+03" nEvuw="2.6760000000000000e+03" sepI="2.3058830201625824e-01" sepG="1.2725363731384277e+01" res="-9.9000000000000000e+01" rms="0.0000000000000000e+00" nType="0" CC="0.0000000000000000e+00">
          <Node pos="l" depth="2" Seq="0" IVar="-1" Cut="2.6230445861816406e+01" cType="0" nS="1.6880234375000000e+03" nB="8.0726251220703125e+02" nEv="2.4952858886718750e+03" nSuw="3.6000000000000000e+02" nBuw="8.5000000000000000e+02" nEvuw="1.2100000000000000e+03" sepI="2.1885305643081665e-01" sepG="-1.0000000000000000e+00" res="-9.9000000000000000e+01" rms="0.0000000000000000e+00" nType="1" CC="0.0000000000000000e+00"/>
          <Node pos="r" depth="2" Seq="2" IVar="13" Cut="3.7617725372314453e+01" cType="0" nS="4.9958969116210938e+02" nB="4.2687402343750000e+02" nEv="9.2646368408203125e+02" nSuw="9.9000000000000000e+01" nBuw="1.3670000000000000e+03" nEvuw="1.4660000000000000e+03" sepI="2.4845993518829346e-01" sepG="2.3025857925415039e+01" res="-9.9000000000000000e+01" rms="0.0000000000000000e+00" nType="0" CC="0.0000000000000000e+00">
            <Node pos="l" depth="3" Seq="2" IVar="-1" Cut="0.0000000000000000e+00" cType="1" nS="2.8718481445312500e+02" nB="1.1128721618652344e+02" nEv="3.9847204589843750e+02" nSuw="2.1000000000000000e+01" nBuw="5.6600000000000000e+02" nEvuw="5.8700000000000000e+02" sepI="2.0128484070301056e-01" sepG="-1.0000000000000000e+00" res="-9.9000000000000000e+01" rms="0.0000000000000000e+00" nType="1" CC="0.0000000000000000e+00"/>
            <Node pos="r" depth="3" Seq="6" IVar="-1" Cut="0.0000000000000000e+00" cType="1" nS="2.1240486145019531e+02" nB="3.1558679199218750e+02" nEv="5.2799163818359375e+02" nSuw="7.8000000000000000e+01" nBuw="8.0100000000000000e+02" nEvuw="8.7900000000000000e+02" sepI="2.4045242369174957e-01" sepG="-1.0000000000000000e+00" res="-9.9000000000000000e+01" rms="0.0000000000000000e+00" nType="-1" CC="0.0000000000000000e+00"/>
          </Node>
        </Node>
        <Node pos="r" depth="1" Seq="1" IVar="1" Cut="1.5319797992706299e+00" cType="0" nS="6.3144926757812500e+03" nB="5.6227563476562500e+03" nEv="1.1937249023437500e+04" nSuw="1.2480000000000000e+03" nBuw="1.1435000000000000e+04" nEvuw="1.2683000000000000e+04" sepI="2.4916051328182220e-01" sepG="3.5252162933349609e+01" res="-9.9000000000000000e+01" rms="0.0000000000000000e+00" nType="0" CC="0.0000000000000000e+00">
          <Node pos="l" depth="2" Seq="1" IVar="-1" Cut="-9.2904762268066406e+01" cType="1" nS="6.1676718750000000e+03" nB="5.2393715820312500e+03" nEv="1.1407042968750000e+04" nSuw="1.2260000000000000e+03" nBuw="1.0213000000000000e+04" nEvuw="1.1439000000000000e+04" sepI="2.4834434688091278e-01" sepG="-1.0000000000000000e+00" res="-9.9000000000000000e+01" rms="0.0000000000000000e+00" nType="1" CC="0.0000000000000000e+00"/>
          <Node pos="r" depth="2" Seq="3" IVar="17" Cut="1.0743747651576996e-01" cType="0" nS="1.4682106018066406e+02" nB="3.8338491821289062e+02" nEv="5.3020599365234375e+02" nSuw="2.2000000000000000e+01" nBuw="1.2220000000000000e+03" nEvuw="1.2440000000000000e+03" sepI="2.0023229718208313e-01" sepG="1.0345029830932617e+01" res="-9.9000000000000000e+01" rms="0.0000000000000000e+00" nType="0" CC="0.0000000000000000e+00">
            <Node pos="l" depth="3" Seq="3" IVar="-1" Cut="0.0000000000000000e+00" cType="1" nS="4.4756881713867188e+01" nB="2.5948759078979492e+01" nEv="7.0705642700195312e+01" nSuw="8.0000000000000000e+00" nBuw="7.5000000000000000e+01" nEvuw="8.3000000000000000e+01" sepI="2.3231020569801331e-01" sepG="-1.0000000000000000e+00" res="-9.9000000000000000e+01" rms="0.0000000000000000e+00" nType="1" CC="0.0000000000000000e+00"/>
            <Node pos="r" depth="3" Seq="7" IVar="-1" Cut="0.0000000000000000e+00" cType="1" nS="1.0206418609619141e+02" nB="3.5743615722656250e+02" nEv="4.5950036621093750e+02" nSuw="1.4000000000000000e+01" nBuw="1.1470000000000000e+03" nEvuw="1.1610000000000000e+03" sepI="1.7278265953063965e-01" sepG="-1.0000000000000000e+00" res="-9.9000000000000000e+01" rms="0.0000000000000000e+00" nType="-1" CC="0.0000000000000000e+00"/>
          </Node>
        </Node>
      </Node>
    </BinaryTree>
    <BinaryTree type="DecisionTree" boostWeight="4.2845893443836897e-01" itree="11">
      <Node pos="s" depth="0" Seq="0" IVar="4" Cut="1.4285714924335480e-01" cType="0" nS="7.4678212890625000e+03" nB="7.8911777343750000e+03" nEv="1.5358999023437500e+04" nSuw="1.7070000000000000e+03" nBuw="1.3652000000000000e+04" nEvuw="1.5359000000000000e+04" sepI="2.4981005489826202e-01" sepG="4.6444225311279297e+01" res="-9.9000000000000000e+01" rms="0.0000000000000000e+00" nType="0" CC="0.0000000000000000e+00">
        <Node pos="l" depth="1" Seq="0" IVar="2" Cut="1.8894829750061035e+00" cType="0" nS="1.9629176025390625e+03" nB="1.3590263671875000e+03" nEv="3.3219438476562500e+03" nSuw="4.5900000000000000e+02" nBuw="2.2170000000000000e+03" nEvuw="2.6760000000000000e+03" sepI="2.4173822999000549e-01" sepG="1.1428917884826660e+01" res="-9.9000000000000000e+01" rms="0.0000000000000000e+00" nType="0" CC="0.0000000000000000e+00">
          <Node pos="l" depth="2" Seq="0" IVar="1" Cut="1.5277746915817261e+00" cType="0" nS="9.3298638916015625e+02" nB="4.8288177490234375e+02" nEv="1.4158681640625000e+03" nSuw="2.3800000000000000e+02" nBuw="5.5500000000000000e+02" nEvuw="7.9300000000000000e+02" sepI="2.2473488748073578e-01" sepG="1.2322085380554199e+01" res="-9.9000000000000000e+01" rms="0.0000000000000000e+00" nType="0" CC="0.0000000000000000e+00">
            <Node pos="l" depth="3" Seq="0" IVar="-1" Cut="0.0000000000000000e+00" cType="1" nS="9.2121630859375000e+02" nB="4.3725961303710938e+02" nEv="1.3584759521484375e+03" nSuw="2.3500000000000000e+02" nBuw="5.1000000000000000e+02" nEvuw="7.4500000000000000e+02" sepI="2.1827152371406555e-01" sepG="-1.0000000000000000e+00" res="-9.9000000000000000e+01" rms="0.0000000000000000e+00" nType="1" CC="0.0000000000000000e+00"/>
            <Node pos="r" depth="3" Seq="4" IVar="-1" Cut="0.0000000000000000e+00" cType="1" nS="1.1770097732543945e+01" nB="4.5622165679931641e+01" nEv="5.7392261505126953e+01" nSuw="3.0000000000000000e+00" nBuw="4.5000000000000000e+01" nEvuw="4.8000000000000000e+01" sepI="1.6302314400672913e-01" sepG="-1.0000000000000000e+00" res="-9.9000000000000000e+01" rms="0.0000000000000000e+00" nType="-1" CC="0.0000000000000000e+00"/>
          </Node>
          <Node pos="r" depth="2" Seq="2" IVar="14" Cut="9.5373761653900146e-01" cType="1" nS="1.0299311523437500e+03" nB="8.7614459228515625e+02" nEv="1.9060758056640625e+03" nSuw="2.2100000000000000e+02" nBuw="1.6620000000000000e+03" nEvuw="1.8830000000000000e+03" sepI="2.4837258458137512e-01" sepG="2.4948038101196289e+01" res="-9.9000000000000000e+01" rms="0.0000000000000000e+00" nType="0" CC="0.0000000000000000e+00">
            <Node pos="l" depth="3" Seq="2" IVar="-1" Cut="0.0000000000000000e+00" cType="1" nS="8.6544250488281250e+02" nB="5.6109826660156250e+02" nEv="1.4265407714843750e+03" nSuw="1.9000000000000000e+02" nBuw="9.2400000000000000e+02" nEvuw="1.1140000000000000e+03" sepI="2.3862105607986450e-01" sepG="-1.0000000000000000e+00" res="-9.9000000000000000e+01" rms="0.0000000000000000e+00" nType="1" CC="0.0000000000000000e+00"/>
            <Node pos="r" depth="3" Seq="6" IVar="-1" Cut="0.0000000000000000e+00" cType="1" nS="1.6448872375488281e+02" nB="3.1504632568359375e+02" nEv="4.7953503417968750e+02" nSuw="3.1000000000000000e+01" nBuw="7.3800000000000000e+02" nEvuw="7.6900000000000000e+02" sepI="2.2535637021064758e-01" sepG="-1.0000000000000000e+00" res="-9.9000000000000000e+01" rms="0.0000000000000000e+00" nType="-1" CC="0.0000000000000000e+00"/>
          </Node>
        </Node>
        <Node pos="r" depth="1" Seq="1" IVar="8" Cut="-9.2904762268066406e+01" cType="1" nS="5.5049033203125000e+03" nB="6.5321513671875000e+03" nEv="1.2037054687500000e+04" nSuw="1.2480000000000000e+03" nBuw="1.1435000000000000e+04" nEvuw="1.2683000000000000e+04" sepI="2.4817925691604614e-01" sepG="2.8667844772338867e+01" res="-9.9000000000000000e+01" rms="0.0000000000000000e+00" nType="0" CC="0.0000000000000000e+00">
          <Node pos="l" depth="2" Seq="1" IVar="13" Cut="3.8376106262207031e+01" cType="1" nS="5.7058465576171875e+02" nB="3.3777810668945312e+02" nEv="9.0836279296875000e+02" nSuw="1.2300000000000000e+02" nBuw="3.5300000000000000e+02" nEvuw="4.7600000000000000e+02" sepI="2.3357853293418884e-01" sepG="1.1195756912231445e+01" res="-9.9000000000000000e+01" rms="0.0000000000000000e+00" nType="0" CC="0.0000000000000000e+00">
            <Node pos="l" depth="3" Seq="1" IVar="-1" Cut="0.0000000000000000e+00" cType="1" nS="5.0406808471679688e+02" nB="2.3603114318847656e+02" nEv="7.4009924316406250e+02" nSuw="1.1500000000000000e+02" nBuw="1.9900000000000000e+02" nEvuw="3.1400000000000000e+02" sepI="2.1720939874649048e-01" sepG="-1.0000000000000000e+00" res="-9.9000000000000000e+01" rms="0.0000000000000000e+00" nType="1" CC="0.0000000000000000e+00"/>
            <Node pos="r" depth="3" Seq="5" IVar="-1" Cut="0.0000000000000000e+00" cType="1" nS="6.6516586303710938e+01" nB="1.0174696350097656e+02" nEv="1.6826354980468750e+02" nSuw="8.0000000000000000e+00" nBuw="1.5400000000000000e+02" nEvuw="1.6200000000000000e+02" sepI="2.3904040455818176e-01" sepG="-1.0000000000000000e+00" res="-9.9000000000000000e+01" rms="0.0000000000000000e+00" nType="-1" CC="0.0000000000000000e+00"/>
          </Node>
          <Node pos="r" depth="2" Seq="3" IVar="6" Cut="2.4585554003715515e-01" cType="1" nS="4.9343188476562500e+03" nB="6.1943735351562500e+03" nEv="1.1128692382812500e+04" nSuw="1.1250000000000000e+03" nBuw="1.1082000000000000e+04" nEvuw="1.2207000000000000e+04" sepI="2.4679498374462128e-01" sepG="5.5780933380126953e+01" res="-9.9000000000000000e+01" rms="0.0000000000000000e+00" nType="0" CC="0.0000000000000000e+00">
            <Node pos="l" depth="3" Seq="3" IVar="-1" Cut="0.0000000000000000e+00" cType="1" nS="1.7595319824218750e+03" nB="1.4070876464843750e+03" nEv="3.1666196289062500e+03" nSuw="4.2800000000000000e+02" nBuw="2.2350000000000000e+03" nEvuw="2.6630000000000000e+03" sepI="2.4690309166908264e-01" sepG="-1.0000000000000000e+00" res="-9.9000000000000000e+01" rms="0.0000000000000000e+00" nType="1" CC="0.0000000000000000e+00"/>
            <Node pos="r" depth="3" Seq="7" IVar="-1" Cut="0.0000000000000000e+00" cType="1" nS="3.1747868652343750e+03" nB="4.7872856445312500e+03" nEv="7.9620727539062500e+03" nSuw="6.9700000000000000e+02" nBuw="8.8470000000000000e+03" nEvuw="9.5440000000000000e+03" sepI="2.3974615335464478e-01" sepG="-1.0000000000000000e+00" res="-9.9000000000000000e+01" rms="0.0000000000000000e+00" nType="-1" CC="0.0000000000000000e+00"/>
          </Node>
        </Node>
      </Node>
    </BinaryTree>
    <BinaryTree type="DecisionTree" boostWeight="2.3079933318128901e-01" itree="12">
      <Node pos="s" depth="0" Seq="0" IVar="0" Cut="1.2346401214599609e+01" cType="1" nS="7.6760991210937500e+03" nB="7.6828999023437500e+03" nEv="1.5358999023437500e+04" nSuw="1.7070000000000000e+03" nBuw="1.3652000000000000e+04" nEvuw="1.5359000000000000e+04" sepI="2.4999995529651642e-01" sepG="2.6216144561767578e+01" res="-9.9000000000000000e+01" rms="0.0000000000000000e+00" nType="0" CC="0.0000000000000000e+00">
        <Node pos="l" depth="1" Seq="0" IVar="21" Cut="2.9251694679260254e-01" cType="0" nS="8.2128704833984375e+02" nB="4.6972033691406250e+02" nEv="1.2910073242187500e+03" nSuw="3.9400000000000000e+02" nBuw="3.6400000000000000e+02" nEvuw="7.5800000000000000e+02" sepI="2.3146049678325653e-01" sepG="2.6352420806884766e+01" res="-9.9000000000000000e+01" rms="0.0000000000000000e+00" nType="0" CC="0.0000000000000000e+00">
          <Node pos="l" depth="2" Seq="0" IVar="-1" Cut="8.9007568359375000e+00" cType="1" nS="5.7282556152343750e+02" nB="1.8485292053222656e+02" nEv="7.5767846679687500e+02" nSuw="2.3600000000000000e+02" nBuw="1.5000000000000000e+02" nEvuw="3.8600000000000000e+02" sepI="1.8445006012916565e-01" sepG="-1.0000000000000000e+00" res="-9.9000000000000000e+01" rms="0.0000000000000000e+00" nType="1" CC="0.0000000000000000e+00"/>
          <Node pos="r" depth="2" Seq="2" IVar="0" Cut="4.3486566543579102e+00" cType="1" nS="2.4846150207519531e+02" nB="2.8486740112304688e+02" nEv="5.3332891845703125e+02" nSuw="1.5800000000000000e+02" nBuw="2.1400000000000000e+02" nEvuw="3.7200000000000000e+02" sepI="2.4883508682250977e-01" sepG="1.8037982940673828e+01" res="-9.9000000000000000e+01" rms="0.0000000000000000e+00" nType="0" CC="0.0000000000000000e+00">
            <Node pos="l" depth="3" Seq="2" IVar="-1" Cut="0.0000000000000000e+00" cType="1" nS="1.4874848937988281e+02" nB="6.7197196960449219e+01" nEv="2.1594569396972656e+02" nSuw="8.3000000000000000e+01" nBuw="4.1000000000000000e+01" nEvuw="1.2400000000000000e+02" sepI="2.1434563398361206e-01" sepG="-1.0000000000000000e+00" res="-9.9000000000000000e+01" rms="0.0000000000000000e+00" nType="1" CC="0.0000000000000000e+00"/>
            <Node pos="r" depth="3" Seq="6" IVar="-1" Cut="0.0000000000000000e+00" cType="1" nS="9.9713012695312500e+01" nB="2.1767021179199219e+02" nEv="3.1738320922851562e+02" nSuw="7.5000000000000000e+01" nBuw="1.7300000000000000e+02" nEvuw="2.4800000000000000e+02" sepI="2.1546806395053864e-01" sepG="-1.0000000000000000e+00" res="-9.9000000000000000e+01" rms="0.0000000000000000e+00" nType="-1" CC="0.0000000000000000e+00"/>
          </Node>
        </Node>
        <Node pos="r" depth="1" Seq="1" IVar="18" Cut="1.0853756666183472e+00" cType="1" nS="6.8548120117187500e+03" nB="7.2131796875000000e+03" nEv="1.4067991210937500e+04" nSuw="1.3130000000000000e+03" nBuw="1.3288000000000000e+04" nEvuw="1.4601000000000000e+04" sepI="2.4983777105808258e-01" sepG="2.7236743927001953e+01" res="-9.9000000000000000e+01" rms="0.0000000000000000e+00" nType="0" CC="0.0000000000000000e+00">
          <Node pos="l" depth="2" Seq="1" IVar="13" Cut="1.7200426101684570e+01" cType="1" nS="6.7688437500000000e+03" nB="6.9159194335937500e+03" nEv="1.3684762695312500e+04" nSuw="1.2860000000000000e+03" nBuw="1.1771000000000000e+04" nEvuw="1.3057000000000000e+04" sepI="2.4997112154960632e-01" sepG="3.5331768035888672e+01" res="-9.9000000000000000e+01" rms="0.0000000000000000e+00" nType="0" CC="0.0000000000000000e+00">
            <Node pos="l" depth="3" Seq="1" IVar="-1" Cut="0.0000000000000000e+00" cType="1" nS="9.1689910888671875e+02" nB="5.0752490234375000e+02" nEv="1.4244239501953125e+03" nSuw="3.0000000000000000e+02" nBuw="1.8500000000000000e+02" nEvuw="4.8500000000000000e+02" sepI="2.2935083508491516e-01" sepG="-1.0000000000000000e+00" res="-9.9000000000000000e+01" rms="0.0000000000000000e+00" nType="1" CC="0.0000000000000000e+00"/>
            <Node pos="r" depth="3" Seq="5" IVar="-1" Cut="0.0000000000000000e+00" cType="1" nS="5.8519443359375000e+03" nB="6.4083945312500000e+03" nEv="1.2260338867187500e+04" nSuw="9.8600000000000000e+02" nBuw="1.1586000000000000e+04" nEvuw="1.2572000000000000e+04" sepI="2.4948503077030182e-01" sepG="-1.0000000000000000e+00" res="-9.9000000000000000e+01" rms="0.0000000000000000e+00" nType="-1" CC="0.0000000000000000e+00"/>
          </Node>
          <Node pos="r" depth="2" Seq="3" IVar="-1" Cut="9.2432224750518799e-01" cType="1" nS="8.5968330383300781e+01" nB="2.9726046752929688e+02" nEv="3.8322882080078125e+02" nSuw="2.7000000000000000e+01" nBuw="1.5170000000000000e+03" nEvuw="1.5440000000000000e+03" sepI="1.7400404810905457e-01" sepG="-1.0000000000000000e+00" res="-9.9000000000000000e+01" rms="0.0000000000000000e+00" nType="-1" CC="0.0000000000000000e+00"/>
        </Node>
      </Node>
    </BinaryTree>
    <BinaryTree type="DecisionTree" boostWeight="2.5228982313102832e-01" itree="13">
      <Node pos="s" depth="0" Seq="0" IVar="18" Cut="1.0853756666183472e+00" cType="1" nS="8.2909570312500000e+03" nB="7.0680424804687500e+03" nEv="1.5358999023437500e+04" nSuw="1.7070000000000000e+03" nBuw="1.3652000000000000e+04" nEvuw="1.5359000000000000e+04" sepI="2.4841508269309998e-01" sepG="1.9364976882934570e+01" res="-9.9000000000000000e+01" rms="0.0000000000000000e+00" nType="0" CC="0.0000000000000000e+00">
        <Node pos="l" depth="1" Seq="0" IVar="0" Cut="3.8864303588867188e+01" cType="1" nS="8.1469604492187500e+03" nB="6.7778354492187500e+03" nEv="1.4924795898437500e+04" nSuw="1.6590000000000000e+03" nBuw="1.2122000000000000e+04" nEvuw="1.3781000000000000e+04" sepI="2.4789617955684662e-01" sepG="1.3543809890747070e+01" res="-9.9000000000000000e+01" rms="0.0000000000000000e+00" nType="0" CC="0.0000000000000000e+00">
          <Node pos="l" depth="2" Seq="0" IVar="19" Cut="1.3659372925758362e-01" cType="0" nS="6.8035781250000000e+03" nB="5.3394741210937500e+03" nEv="1.2143052734375000e+04" nSuw="1.5320000000000000e+03" nBuw="8.6440000000000000e+03" nEvuw="1.0176000000000000e+04" sepI="2.4636563658714294e-01" sepG="1.3360189437866211e+01" res="-9.9000000000000000e+01" rms="0.0000000000000000e+00" nType="0" CC="0.0000000000000000e+00">
            <Node pos="l" depth="3" Seq="0" IVar="-1" Cut="0.0000000000000000e+00" cType="1" nS="5.7154628906250000e+03" nB="4.2076567382812500e+03" nEv="9.9231201171875000e+03" nSuw="1.3200000000000000e+03" nBuw="6.9790000000000000e+03" nEvuw="8.2990000000000000e+03" sepI="2.4422788619995117e-01" sepG="-1.0000000000000000e+00" res="-9.9000000000000000e+01" rms="0.0000000000000000e+00" nType="1" CC="0.0000000000000000e+00"/>
            <Node pos="r" depth="3" Seq="4" IVar="-1" Cut="0.0000000000000000e+00" cType="1" nS="1.0881152343750000e+03" nB="1.1318175048828125e+03" nEv="2.2199326171875000e+03" nSuw="2.1200000000000000e+02" nBuw="1.6650000000000000e+03" nEvuw="1.8770000000000000e+03" sepI="2.4990311264991760e-01" sepG="-1.0000000000000000e+00" res="-9.9000000000000000e+01" rms="0.0000000000000000e+00" nType="-1" CC="0.0000000000000000e+00"/>
          </Node>
          <Node pos="r" depth="2" Seq="2" IVar="7" Cut="9.2127056121826172e+00" cType="1" nS="1.3433824462890625e+03" nB="1.4383610839843750e+03" nEv="2.7817436523437500e+03" nSuw="1.2700000000000000e+02" nBuw="3.4780000000000000e+03" nEvuw="3.6050000000000000e+03" sepI="2.4970854818820953e-01" sepG="1.6486856460571289e+01" res="-9.9000000000000000e+01" rms="0.0000000000000000e+00" nType="0" CC="0.0000000000000000e+00">
            <Node pos="l" depth="3" Seq="2" IVar="-1" Cut="0.0000000000000000e+00" cType="1" nS="1.3205028076171875e+03" nB="1.3148472900390625e+03" nEv="2.6353500976562500e+03" nSuw="1.2300000000000000e+02" nBuw="3.1070000000000000e+03" nEvuw="3.2300000000000000e+03" sepI="2.4999885261058807e-01" sepG="-1.0000000000000000e+00" res="-9.9000000000000000e+01" rms="0.0000000000000000e+00" nType="1" CC="0.0000000000000000e+00"/>
            <Node pos="r" depth="3" Seq="6" IVar="-1" Cut="0.0000000000000000e+00" cType="1" nS="2.2879638671875000e+01" nB="1.2351380157470703e+02" nEv="1.4639344787597656e+02" nSuw="4.0000000000000000e+00" nBuw="3.7100000000000000e+02" nEvuw="3.7500000000000000e+02" sepI="1.3186253607273102e-01" sepG="-1.0000000000000000e+00" res="-9.9000000000000000e+01" rms="0.0000000000000000e+00" nType="-1" CC="0.0000000000000000e+00"/>
          </Node>
        </Node>
        <Node pos="r" depth="1" Seq="1" IVar="21" Cut="9.4222474098205566e-01" cType="1" nS="1.4399609375000000e+02" nB="2.9020700073242188e+02" nEv="4.3420309448242188e+02" nSuw="4.8000000000000000e+01" nBuw="1.5300000000000000e+03" nEvuw="1.5780000000000000e+03" sepI="2.2165256738662720e-01" sepG="1.6135711669921875e+01" res="-9.9000000000000000e+01" rms="0.0000000000000000e+00" nType="0" CC="0.0000000000000000e+00">
          <Node pos="l" depth="2" Seq="1" IVar="2" Cut="-9.3896492004394531e+01" cType="0" nS="1.2190969848632812e+02" nB="1.2034638214111328e+02" nEv="2.4225608825683594e+02" nSuw="4.7000000000000000e+01" nBuw="1.4500000000000000e+02" nEvuw="1.9200000000000000e+02" sepI="2.4998958408832550e-01" sepG="1.5283791542053223e+01" res="-9.9000000000000000e+01" rms="0.0000000000000000e+00" nType="0" CC="0.0000000000000000e+00">
            <Node pos="l" depth="3" Seq="1" IVar="-1" Cut="0.0000000000000000e+00" cType="1" nS="9.3548881530761719e+01" nB="3.1929487228393555e+01" nEv="1.2547837066650391e+02" nSuw="3.4000000000000000e+01" nBuw="2.3000000000000000e+01" nEvuw="5.7000000000000000e+01" sepI="1.8971112370491028e-01" sepG="-1.0000000000000000e+00" res="-9.9000000000000000e+01" rms="0.0000000000000000e+00" nType="1" CC="0.0000000000000000e+00"/>
            <Node pos="r" depth="3" Seq="5" IVar="-1" Cut="0.0000000000000000e+00" cType="1" nS="2.8360815048217773e+01" nB="8.8416900634765625e+01" nEv="1.1677770996093750e+02" nSuw="1.3000000000000000e+01" nBuw="1.2200000000000000e+02" nEvuw="1.3500000000000000e+02" sepI="1.8387980759143829e-01" sepG="-1.0000000000000000e+00" res="-9.9000000000000000e+01" rms="0.0000000000000000e+00" nType="-1" CC="0.0000000000000000e+00"/>
          </Node>
          <Node pos="r" depth="2" Seq="3" IVar="-1" Cut="1.4477641880512238e-01" cType="1" nS="2.2086393356323242e+01" nB="1.6986062622070312e+02" nEv="1.9194702148437500e+02" nSuw="1.0000000000000000e+00" nBuw="1.3850000000000000e+03" nEvuw="1.3860000000000000e+03" sepI="1.0182508081197739e-01" sepG="-1.0000000000000000e+00" res="-9.9000000000000000e+01" rms="0.0000000000000000e+00" nType="-1" CC="0.0000000000000000e+00"/>
        </Node>
      </Node>
    </BinaryTree>
    <BinaryTree type="DecisionTree" boostWeight="2.9959013098031739e-01" itree="14">
      <Node pos="s" depth="0" Seq="0" IVar="18" Cut="8.0519741773605347e-01" cType="1" nS="7.6627343750000000e+03" nB="7.6962646484375000e+03" nEv="1.5358999023437500e+04" nSuw="1.7070000000000000e+03" nBuw="1.3652000000000000e+04" nEvuw="1.5359000000000000e+04" sepI="2.4999880790710449e-01" sepG="1.4173816680908203e+01" res="-9.9000000000000000e+01" rms="0.0000000000000000e+00" nType="0" CC="0.0000000000000000e+00">
        <Node pos="l" depth="1" Seq="0" IVar="13" Cut="4.0983215332031250e+01" cType="1" nS="5.7547807617187500e+03" nB="5.3618115234375000e+03" nEv="1.1116592773437500e+04" nSuw="1.2740000000000000e+03" nBuw="6.9330000000000000e+03" nEvuw="8.2070000000000000e+03" sepI="2.4968759715557098e-01" sepG="3.5083007812500000e+01" res="-9.9000000000000000e+01" rms="0.0000000000000000e+00" nType="0" CC="0.0000000000000000e+00">
          <Node pos="l" depth="2" Seq="0" IVar="13" Cut="3.2325377464294434e+00" cType="0" nS="5.2140546875000000e+03" nB="4.4516196289062500e+03" nEv="9.6656738281250000e+03" nSuw="1.1940000000000000e+03" nBuw="4.7980000000000000e+03" nEvuw="5.9920000000000000e+03" sepI="2.4844445288181305e-01" sepG="1.8166210174560547e+01" res="-9.9000000000000000e+01" rms="0.0000000000000000e+00" nType="0" CC="0.0000000000000000e+00">
            <Node pos="l" depth="3" Seq="0" IVar="-1" Cut="0.0000000000000000e+00" cType="1" nS="5.1810078125000000e+03" nB="4.3241303710937500e+03" nEv="9.5051386718750000e+03" nSuw="1.1740000000000000e+03" nBuw="4.7760000000000000e+03" nEvuw="5.9500000000000000e+03" sepI="2.4796830117702484e-01" sepG="-1.0000000000000000e+00" res="-9.9000000000000000e+01" rms="0.0000000000000000e+00" nType="1" CC="0.0000000000000000e+00"/>
            <Node pos="r" depth="3" Seq="4" IVar="-1" Cut="0.0000000000000000e+00" cType="1" nS="3.3046829223632812e+01" nB="1.2748903656005859e+02" nEv="1.6053587341308594e+02" nSuw="2.0000000000000000e+01" nBuw="2.2000000000000000e+01" nEvuw="4.2000000000000000e+01" sepI="1.6347768902778625e-01" sepG="-1.0000000000000000e+00" res="-9.9000000000000000e+01" rms="0.0000000000000000e+00" nType="-1" CC="0.0000000000000000e+00"/>
          </Node>
          <Node pos="r" depth="2" Seq="2" IVar="16" Cut="2.0165313780307770e-01" cType="0" nS="5.4072613525390625e+02" nB="9.1019226074218750e+02" nEv="1.4509183349609375e+03" nSuw="8.0000000000000000e+01" nBuw="2.1350000000000000e+03" nEvuw="2.2150000000000000e+03" sepI="2.3378923535346985e-01" sepG="3.4613037109375000e+01" res="-9.9000000000000000e+01" rms="0.0000000000000000e+00" nType="0" CC="0.0000000000000000e+00">
            <Node pos="l" depth="3" Seq="2" IVar="-1" Cut="0.0000000000000000e+00" cType="1" nS="3.5144931030273438e+02" nB="2.9281494140625000e+02" nEv="6.4426422119140625e+02" nSuw="6.1000000000000000e+01" nBuw="3.8200000000000000e+02" nEvuw="4.4300000000000000e+02" sepI="2.4792930483818054e-01" sepG="-1.0000000000000000e+00" res="-9.9000000000000000e+01" rms="0.0000000000000000e+00" nType="1" CC="0.0000000000000000e+00"/>
            <Node pos="r" depth="3" Seq="6" IVar="-1" Cut="0.0000000000000000e+00" cType="1" nS="1.8927680969238281e+02" nB="6.1737731933593750e+02" nEv="8.0665417480468750e+02" nSuw="1.9000000000000000e+01" nBuw="1.7530000000000000e+03" nEvuw="1.7720000000000000e+03" sepI="1.7958636581897736e-01" sepG="-1.0000000000000000e+00" res="-9.9000000000000000e+01" rms="0.0000000000000000e+00" nType="-1" CC="0.0000000000000000e+00"/>
          </Node>
        </Node>
        <Node pos="r" depth="1" Seq="1" IVar="21" Cut="8.9580291509628296e-01" cType="1" nS="1.9079532470703125e+03" nB="2.3344531250000000e+03" nEv="4.2424062500000000e+03" nSuw="4.3300000000000000e+02" nBuw="6.7190000000000000e+03" nEvuw="7.1520000000000000e+03" sepI="2.4747329950332642e-01" sepG="3.3768970489501953e+01" res="-9.9000000000000000e+01" rms="0.0000000000000000e+00" nType="0" CC="0.0000000000000000e+00">
          <Node pos="l" depth="2" Seq="1" IVar="-1" Cut="4.8353681564331055e+00" cType="1" nS="8.7120593261718750e+02" nB="6.6165948486328125e+02" nEv="1.5328654785156250e+03" nSuw="3.5200000000000000e+02" nBuw="7.6900000000000000e+02" nEvuw="1.1210000000000000e+03" sepI="2.4532811343669891e-01" sepG="-1.0000000000000000e+00" res="-9.9000000000000000e+01" rms="0.0000000000000000e+00" nType="1" CC="0.0000000000000000e+00"/>
          <Node pos="r" depth="2" Seq="3" IVar="-1" Cut="7.9910187721252441e+00" cType="1" nS="1.0367474365234375e+03" nB="1.6727935791015625e+03" nEv="2.7095410156250000e+03" nSuw="8.1000000000000000e+01" nBuw="5.9500000000000000e+03" nEvuw="6.0310000000000000e+03" sepI="2.3622392117977142e-01" sepG="-1.0000000000000000e+00" res="-9.9000000000000000e+01" rms="0.0000000000000000e+00" nType="-1" CC="0.0000000000000000e+00"/>
        </Node>
      </Node>
    </BinaryTree>
    <BinaryTree type="DecisionTree" boostWeight="3.1359573255105028e-01" itree="15">
      <Node pos="s" depth="0" Seq="0" IVar="19" Cut="2.1228935718536377e+00" cType="0" nS="7.0537504882812500e+03" nB="8.3052480468750000e+03" nEv="1.5358999023437500e+04" nSuw="1.7070000000000000e+03" nBuw="1.3652000000000000e+04" nEvuw="1.5359000000000000e+04" sepI="2.4834012985229492e-01" sepG="1.9141618728637695e+01" res="-9.9000000000000000e+01" rms="0.0000000000000000e+00" nType="0" CC="0.0000000000000000e+00">
        <Node pos="l" depth="1" Seq="0" IVar="20" Cut="1.0046558380126953e+00" cType="1" nS="4.6493432617187500e+02" nB="2.9188610839843750e+02" nEv="7.5682043457031250e+02" nSuw="5.2000000000000000e+01" nBuw="9.6300000000000000e+02" nEvuw="1.0150000000000000e+03" sepI="2.3692961037158966e-01" sepG="1.8052558898925781e+01" res="-9.9000000000000000e+01" rms="0.0000000000000000e+00" nType="0" CC="0.0000000000000000e+00">
          <Node pos="l" depth="2" Seq="0" IVar="12" Cut="1.7371655702590942e+00" cType="0" nS="4.1065930175781250e+02" nB="1.7885816955566406e+02" nEv="5.8951745605468750e+02" nSuw="4.2000000000000000e+01" nBuw="6.3000000000000000e+02" nEvuw="6.7200000000000000e+02" sepI="2.1134749054908752e-01" sepG="1.5817879676818848e+01" res="-9.9000000000000000e+01" rms="0.0000000000000000e+00" nType="0" CC="0.0000000000000000e+00">
            <Node pos="l" depth="3" Seq="0" IVar="-1" Cut="0.0000000000000000e+00" cType="1" nS="3.6465319824218750e+02" nB="1.0262020874023438e+02" nEv="4.6727340698242188e+02" nSuw="3.3000000000000000e+01" nBuw="3.7900000000000000e+02" nEvuw="4.1200000000000000e+02" sepI="1.7138420045375824e-01" sepG="-1.0000000000000000e+00" res="-9.9000000000000000e+01" rms="0.0000000000000000e+00" nType="1" CC="0.0000000000000000e+00"/>
            <Node pos="r" depth="3" Seq="4" IVar="-1" Cut="0.0000000000000000e+00" cType="1" nS="4.6006095886230469e+01" nB="7.6237960815429688e+01" nEv="1.2224405670166016e+02" nSuw="9.0000000000000000e+00" nBuw="2.5100000000000000e+02" nEvuw="2.6000000000000000e+02" sepI="2.3470975458621979e-01" sepG="-1.0000000000000000e+00" res="-9.9000000000000000e+01" rms="0.0000000000000000e+00" nType="-1" CC="0.0000000000000000e+00"/>
          </Node>
          <Node pos="r" depth="2" Seq="2" IVar="13" Cut="4.1041744232177734e+01" cType="0" nS="5.4275035858154297e+01" nB="1.1302795410156250e+02" nEv="1.6730299377441406e+02" nSuw="1.0000000000000000e+01" nBuw="3.3300000000000000e+02" nEvuw="3.4300000000000000e+02" sepI="2.1916872262954712e-01" sepG="7.4719672203063965e+00" res="-9.9000000000000000e+01" rms="0.0000000000000000e+00" nType="0" CC="0.0000000000000000e+00">
            <Node pos="l" depth="3" Seq="2" IVar="-1" Cut="0.0000000000000000e+00" cType="1" nS="4.2771640777587891e+01" nB="3.4726451873779297e+01" nEv="7.7498092651367188e+01" nSuw="5.0000000000000000e+00" nBuw="1.2600000000000000e+02" nEvuw="1.3100000000000000e+02" sepI="2.4730579555034637e-01" sepG="-1.0000000000000000e+00" res="-9.9000000000000000e+01" rms="0.0000000000000000e+00" nType="1" CC="0.0000000000000000e+00"/>
            <Node pos="r" depth="3" Seq="6" IVar="-1" Cut="0.0000000000000000e+00" cType="1" nS="1.1503393173217773e+01" nB="7.8301506042480469e+01" nEv="8.9804893493652344e+01" nSuw="5.0000000000000000e+00" nBuw="2.0700000000000000e+02" nEvuw="2.1200000000000000e+02" sepI="1.1168530583381653e-01" sepG="-1.0000000000000000e+00" res="-9.9000000000000000e+01" rms="0.0000000000000000e+00" nType="-1" CC="0.0000000000000000e+00"/>
          </Node>
        </Node>
        <Node pos="r" depth="1" Seq="1" IVar="12" Cut="2.0207679271697998e+00" cType="1" nS="6.5888164062500000e+03" nB="8.0133623046875000e+03" nEv="1.4602178710937500e+04" nSuw="1.6550000000000000e+03" nBuw="1.2689000000000000e+04" nEvuw="1.4344000000000000e+04" sepI="2.4762065708637238e-01" sepG="1.7220781326293945e+01" res="-9.9000000000000000e+01" rms="0.0000000000000000e+00" nType="0" CC="0.0000000000000000e+00">
          <Node pos="l" depth="2" Seq="1" IVar="8" Cut="1.6809524536132812e+01" cType="0" nS="4.4595253906250000e+03" nB="4.8903632812500000e+03" nEv="9.3498886718750000e+03" nSuw="1.1120000000000000e+03" nBuw="8.8170000000000000e+03" nEvuw="9.9290000000000000e+03" sepI="2.4946917593479156e-01" sepG="1.7519981384277344e+01" res="-9.9000000000000000e+01" rms="0.0000000000000000e+00" nType="0" CC="0.0000000000000000e+00">
            <Node pos="l" depth="3" Seq="1" IVar="-1" Cut="0.0000000000000000e+00" cType="1" nS="2.3103562011718750e+03" nB="2.1099062500000000e+03" nEv="4.4202626953125000e+03" nSuw="6.0300000000000000e+02" nBuw="3.8460000000000000e+03" nEvuw="4.4490000000000000e+03" sepI="2.4948589503765106e-01" sepG="-1.0000000000000000e+00" res="-9.9000000000000000e+01" rms="0.0000000000000000e+00" nType="1" CC="0.0000000000000000e+00"/>
            <Node pos="r" depth="3" Seq="5" IVar="-1" Cut="0.0000000000000000e+00" cType="1" nS="2.1491691894531250e+03" nB="2.7804570312500000e+03" nEv="4.9296259765625000e+03" nSuw="5.0900000000000000e+02" nBuw="4.9710000000000000e+03" nEvuw="5.4800000000000000e+03" sepI="2.4590015411376953e-01" sepG="-1.0000000000000000e+00" res="-9.9000000000000000e+01" rms="0.0000000000000000e+00" nType="-1" CC="0.0000000000000000e+00"/>
          </Node>
          <Node pos="r" depth="2" Seq="3" IVar="8" Cut="-9.2904762268066406e+01" cType="1" nS="2.1292907714843750e+03" nB="3.1229990234375000e+03" nEv="5.2522900390625000e+03" nSuw="5.4300000000000000e+02" nBuw="3.8720000000000000e+03" nEvuw="4.4150000000000000e+03" sepI="2.4105128645896912e-01" sepG="2.2324460983276367e+01" res="-9.9000000000000000e+01" rms="0.0000000000000000e+00" nType="0" CC="0.0000000000000000e+00">
            <Node pos="l" depth="3" Seq="3" IVar="-1" Cut="0.0000000000000000e+00" cType="1" nS="4.2068679809570312e+02" nB="3.2260684204101562e+02" nEv="7.4329364013671875e+02" nSuw="1.1000000000000000e+02" nBuw="2.8800000000000000e+02" nEvuw="3.9800000000000000e+02" sepI="2.4564708769321442e-01" sepG="-1.0000000000000000e+00" res="-9.9000000000000000e+01" rms="0.0000000000000000e+00" nType="1" CC="0.0000000000000000e+00"/>
            <Node pos="r" depth="3" Seq="7" IVar="-1" Cut="0.0000000000000000e+00" cType="1" nS="1.7086038818359375e+03" nB="2.8003923339843750e+03" nEv="4.5089960937500000e+03" nSuw="4.3300000000000000e+02" nBuw="3.5840000000000000e+03" nEvuw="4.0170000000000000e+03" sepI="2.3534259200096130e-01" sepG="-1.0000000000000000e+00" res="-9.9000000000000000e+01" rms="0.0000000000000000e+00" nType="-1" CC="0.0000000000000000e+00"/>
          </Node>
        </Node>
      </Node>
    </BinaryTree>
    <BinaryTree type="DecisionTree" boostWeight="1.9835568887842506e-01" itree="16">
      <Node pos="s" depth="0" Seq="0" IVar="21" Cut="3.3874136209487915e-01" cType="0" nS="7.3524062500000000e+03" nB="8.0065932617187500e+03" nEv="1.5358999023437500e+04" nSuw="1.7070000000000000e+03" nBuw="1.3652000000000000e+04" nEvuw="1.5359000000000000e+04" sepI="2.4954645335674286e-01" sepG="1.2720130920410156e+01" res="-9.9000000000000000e+01" rms="0.0000000000000000e+00" nType="0" CC="0.0000000000000000e+00">
        <Node pos="l" depth="1" Seq="0" IVar="0" Cut="1.2346401214599609e+01" cType="1" nS="6.8272548828125000e+03" nB="7.1724687500000000e+03" nEv="1.3999723632812500e+04" nSuw="1.4150000000000000e+03" nBuw="1.2147000000000000e+04" nEvuw="1.3562000000000000e+04" sepI="2.4984799325466156e-01" sepG="1.7970336914062500e+01" res="-9.9000000000000000e+01" rms="0.0000000000000000e+00" nType="0" CC="0.0000000000000000e+00">
          <Node pos="l" depth="2" Seq="0" IVar="0" Cut="8.9007568359375000e+00" cType="1" nS="3.8874230957031250e+02" nB="2.0168145751953125e+02" nEv="5.9042376708984375e+02" nSuw="2.0800000000000000e+02" nBuw="1.2700000000000000e+02" nEvuw="3.3500000000000000e+02" sepI="2.2490552067756653e-01" sepG="1.3085670471191406e+01" res="-9.9000000000000000e+01" rms="0.0000000000000000e+00" nType="0" CC="0.0000000000000000e+00">
            <Node pos="l" depth="3" Seq="0" IVar="-1" Cut="0.0000000000000000e+00" cType="1" nS="3.0559231567382812e+02" nB="9.6303848266601562e+01" nEv="4.0189617919921875e+02" nSuw="1.7900000000000000e+02" nBuw="7.1000000000000000e+01" nEvuw="2.5000000000000000e+02" sepI="1.8220418691635132e-01" sepG="-1.0000000000000000e+00" res="-9.9000000000000000e+01" rms="0.0000000000000000e+00" nType="1" CC="0.0000000000000000e+00"/>
            <Node pos="r" depth="3" Seq="4" IVar="-1" Cut="0.0000000000000000e+00" cType="1" nS="8.3149978637695312e+01" nB="1.0537760925292969e+02" nEv="1.8852758789062500e+02" nSuw="2.9000000000000000e+01" nBuw="5.6000000000000000e+01" nEvuw="8.5000000000000000e+01" sepI="2.4652482569217682e-01" sepG="-1.0000000000000000e+00" res="-9.9000000000000000e+01" rms="0.0000000000000000e+00" nType="-1" CC="0.0000000000000000e+00"/>
          </Node>
          <Node pos="r" depth="2" Seq="2" IVar="10" Cut="6.0205321311950684e+00" cType="0" nS="6.4385126953125000e+03" nB="6.9707871093750000e+03" nEv="1.3409299804687500e+04" nSuw="1.2070000000000000e+03" nBuw="1.2020000000000000e+04" nEvuw="1.3227000000000000e+04" sepI="2.4960608780384064e-01" sepG="2.0967363357543945e+01" res="-9.9000000000000000e+01" rms="0.0000000000000000e+00" nType="0" CC="0.0000000000000000e+00">
            <Node pos="l" depth="3" Seq="2" IVar="-1" Cut="0.0000000000000000e+00" cType="1" nS="4.3115947265625000e+03" nB="4.1348334960937500e+03" nEv="8.4464277343750000e+03" nSuw="4.9100000000000000e+02" nBuw="1.0334000000000000e+04" nEvuw="1.0825000000000000e+04" sepI="2.4989050626754761e-01" sepG="-1.0000000000000000e+00" res="-9.9000000000000000e+01" rms="0.0000000000000000e+00" nType="1" CC="0.0000000000000000e+00"/>
            <Node pos="r" depth="3" Seq="6" IVar="-1" Cut="0.0000000000000000e+00" cType="1" nS="2.1269177246093750e+03" nB="2.8359538574218750e+03" nEv="4.9628715820312500e+03" nSuw="7.1600000000000000e+02" nBuw="1.6860000000000000e+03" nEvuw="2.4020000000000000e+03" sepI="2.4489717185497284e-01" sepG="-1.0000000000000000e+00" res="-9.9000000000000000e+01" rms="0.0000000000000000e+00" nType="-1" CC="0.0000000000000000e+00"/>
          </Node>
        </Node>
        <Node pos="r" depth="1" Seq="1" IVar="3" Cut="-1.4958483695983887e+01" cType="0" nS="5.2515112304687500e+02" nB="8.3412432861328125e+02" nEv="1.3592755126953125e+03" nSuw="2.9200000000000000e+02" nBuw="1.5050000000000000e+03" nEvuw="1.7970000000000000e+03" sepI="2.3708285391330719e-01" sepG="1.5327011108398438e+01" res="-9.9000000000000000e+01" rms="0.0000000000000000e+00" nType="0" CC="0.0000000000000000e+00">
          <Node pos="l" depth="2" Seq="1" IVar="8" Cut="8.1428575515747070e+00" cType="1" nS="4.1698507690429688e+02" nB="4.8588290405273438e+02" nEv="9.0286798095703125e+02" nSuw="2.7700000000000000e+02" nBuw="3.0800000000000000e+02" nEvuw="5.8500000000000000e+02" sepI="2.4854420125484467e-01" sepG="1.0834486961364746e+01" res="-9.9000000000000000e+01" rms="0.0000000000000000e+00" nType="0" CC="0.0000000000000000e+00">
            <Node pos="l" depth="3" Seq="1" IVar="-1" Cut="0.0000000000000000e+00" cType="1" nS="5.5218433380126953e+01" nB="9.2130985260009766e+00" nEv="6.4431533813476562e+01" nSuw="2.4000000000000000e+01" nBuw="2.5000000000000000e+01" nEvuw="4.9000000000000000e+01" sepI="1.2254422903060913e-01" sepG="-1.0000000000000000e+00" res="-9.9000000000000000e+01" rms="0.0000000000000000e+00" nType="1" CC="0.0000000000000000e+00"/>
            <Node pos="r" depth="3" Seq="5" IVar="-1" Cut="0.0000000000000000e+00" cType="1" nS="3.6176666259765625e+02" nB="4.7666983032226562e+02" nEv="8.3843646240234375e+02" nSuw="2.5300000000000000e+02" nBuw="2.8300000000000000e+02" nEvuw="5.3600000000000000e+02" sepI="2.4530468881130219e-01" sepG="-1.0000000000000000e+00" res="-9.9000000000000000e+01" rms="0.0000000000000000e+00" nType="-1" CC="0.0000000000000000e+00"/>
          </Node>
          <Node pos="r" depth="2" Seq="3" IVar="-1" Cut="7.8660473823547363e+00" cType="1" nS="1.0816603851318359e+02" nB="3.4824142456054688e+02" nEv="4.5640747070312500e+02" nSuw="1.5000000000000000e+01" nBuw="1.1970000000000000e+03" nEvuw="1.2120000000000000e+03" sepI="1.8082807958126068e-01" sepG="-1.0000000000000000e+00" res="-9.9000000000000000e+01" rms="0.0000000000000000e+00" nType="-1" CC="0.0000000000000000e+00"/>
        </Node>
      </Node>
    </BinaryTree>
    <BinaryTree type="DecisionTree" boostWeight="2.8645189046177361e-01" itree="17">
      <Node pos="s" depth="0" Seq="0" IVar="10" Cut="4.8042497634887695e+00" cType="1" nS="7.2260625000000000e+03" nB="8.1329365234375000e+03" nEv="1.5358999023437500e+04" nSuw="1.7070000000000000e+03" nBuw="1.3652000000000000e+04" nEvuw="1.5359000000000000e+04" sepI="2.4912841618061066e-01" sepG="2.8235551834106445e+01" res="-9.9000000000000000e+01" rms="0.0000000000000000e+00" nType="0" CC="0.0000000000000000e+00">
        <Node pos="l" depth="1" Seq="0" IVar="14" Cut="8.1402510404586792e-01" cType="0" nS="2.0053127441406250e+03" nB="1.6603264160156250e+03" nEv="3.6656391601562500e+03" nSuw="8.0800000000000000e+02" nBuw="1.1090000000000000e+03" nEvuw="1.9170000000000000e+03" sepI="2.4778565764427185e-01" sepG="1.9573112487792969e+01" res="-9.9000000000000000e+01" rms="0.0000000000000000e+00" nType="0" CC="0.0000000000000000e+00">
          <Node pos="l" depth="2" Seq="0" IVar="-1" Cut="2.6717555522918701e-01" cType="1" nS="1.4827650146484375e+03" nB="9.9870288085937500e+02" nEv="2.4814680175781250e+03" nSuw="3.7000000000000000e+02" nBuw="9.0800000000000000e+02" nEvuw="1.2780000000000000e+03" sepI="2.4048683047294617e-01" sepG="-1.0000000000000000e+00" res="-9.9000000000000000e+01" rms="0.0000000000000000e+00" nType="1" CC="0.0000000000000000e+00"/>
          <Node pos="r" depth="2" Seq="2" IVar="2" Cut="-9.2920333862304688e+01" cType="0" nS="5.2254760742187500e+02" nB="6.6162353515625000e+02" nEv="1.1841711425781250e+03" nSuw="4.3800000000000000e+02" nBuw="2.0100000000000000e+02" nEvuw="6.3900000000000000e+02" sepI="2.4655161798000336e-01" sepG="2.7416267395019531e+01" res="-9.9000000000000000e+01" rms="0.0000000000000000e+00" nType="0" CC="0.0000000000000000e+00">
            <Node pos="l" depth="3" Seq="2" IVar="-1" Cut="0.0000000000000000e+00" cType="1" nS="4.9765780639648438e+02" nB="4.7318804931640625e+02" nEv="9.7084588623046875e+02" nSuw="4.0100000000000000e+02" nBuw="1.6200000000000000e+02" nEvuw="5.6300000000000000e+02" sepI="2.4984118342399597e-01" sepG="-1.0000000000000000e+00" res="-9.9000000000000000e+01" rms="0.0000000000000000e+00" nType="1" CC="0.0000000000000000e+00"/>
            <Node pos="r" depth="3" Seq="6" IVar="-1" Cut="0.0000000000000000e+00" cType="1" nS="2.4889808654785156e+01" nB="1.8843551635742188e+02" nEv="2.1332533264160156e+02" nSuw="3.7000000000000000e+01" nBuw="3.9000000000000000e+01" nEvuw="7.6000000000000000e+01" sepI="1.0306221246719360e-01" sepG="-1.0000000000000000e+00" res="-9.9000000000000000e+01" rms="0.0000000000000000e+00" nType="-1" CC="0.0000000000000000e+00"/>
          </Node>
        </Node>
        <Node pos="r" depth="1" Seq="1" IVar="6" Cut="4.1849029064178467e-01" cType="0" nS="5.2207500000000000e+03" nB="6.4726098632812500e+03" nEv="1.1693360351562500e+04" nSuw="8.9900000000000000e+02" nBuw="1.2543000000000000e+04" nEvuw="1.3442000000000000e+04" sepI="2.4713468551635742e-01" sepG="2.1820161819458008e+01" res="-9.9000000000000000e+01" rms="0.0000000000000000e+00" nType="0" CC="0.0000000000000000e+00">
          <Node pos="l" depth="2" Seq="1" IVar="6" Cut="8.8871914148330688e-01" cType="1" nS="3.4767302246093750e+03" nB="3.7609570312500000e+03" nEv="7.2376870117187500e+03" nSuw="4.9800000000000000e+02" nBuw="8.2050000000000000e+03" nEvuw="8.7030000000000000e+03" sepI="2.4961446225643158e-01" sepG="3.4855499267578125e+01" res="-9.9000000000000000e+01" rms="0.0000000000000000e+00" nType="0" CC="0.0000000000000000e+00">
            <Node pos="l" depth="3" Seq="1" IVar="-1" Cut="0.0000000000000000e+00" cType="1" nS="3.1022145996093750e+03" nB="2.9717397460937500e+03" nEv="6.0739545898437500e+03" nSuw="4.4000000000000000e+02" nBuw="6.0020000000000000e+03" nEvuw="6.4420000000000000e+03" sepI="2.4988463521003723e-01" sepG="-1.0000000000000000e+00" res="-9.9000000000000000e+01" rms="0.0000000000000000e+00" nType="1" CC="0.0000000000000000e+00"/>
            <Node pos="r" depth="3" Seq="5" IVar="-1" Cut="0.0000000000000000e+00" cType="1" nS="3.7451553344726562e+02" nB="7.8921728515625000e+02" nEv="1.1637327880859375e+03" nSuw="5.8000000000000000e+01" nBuw="2.2030000000000000e+03" nEvuw="2.2610000000000000e+03" sepI="2.1825282275676727e-01" sepG="-1.0000000000000000e+00" res="-9.9000000000000000e+01" rms="0.0000000000000000e+00" nType="-1" CC="0.0000000000000000e+00"/>
          </Node>
