<?xml version="1.0"?>
<MethodSetup Method="BDT::BDT">
  <GeneralInfo>
    <Info name="TMVA Release" value="4.0.7 [262151]"/>
    <Info name="ROOT Release" value="5.27/06 [334598]"/>
    <Info name="Creator" value="ivo"/>
    <Info name="Date" value="Thu Apr  5 17:09:42 2012"/>
    <Info name="Host" value="Linux lxbuild051.cern.ch 2.6.18-238.1.1.el5 #1 SMP Wed Jan 19 11:06:36 CET 2011 x86_64 x86_64 x86_64 GNU/Linux"/>
    <Info name="Dir" value="/grid_mnt/vol__vol1__u/llr/cms/ivo/PFAntiElecMVA/CMSSW_4_2_8_patch7/src/IvoNaranjo/ElectronsStudies/test/Macros/tmva"/>
    <Info name="Training events" value="342410"/>
    <Info name="TrainingTime" value="406.707"/>
    <Info name="AnalysisType" value="Classification"/>
  </GeneralInfo>
  <Options>
    <Option name="V" modified="Yes">False</Option>
    <Option name="VerbosityLevel" modified="No">Default</Option>
    <Option name="VarTransform" modified="No">None</Option>
    <Option name="H" modified="Yes">False</Option>
    <Option name="CreateMVAPdfs" modified="No">False</Option>
    <Option name="IgnoreNegWeightsInTraining" modified="No">False</Option>
    <Option name="NTrees" modified="Yes">400</Option>
    <Option name="BoostType" modified="Yes">AdaBoost</Option>
    <Option name="AdaBoostR2Loss" modified="No">quadratic</Option>
    <Option name="UseBaggedGrad" modified="No">False</Option>
    <Option name="GradBaggingFraction" modified="No">6.000000e-01</Option>
    <Option name="Shrinkage" modified="No">1.000000e+00</Option>
    <Option name="AdaBoostBeta" modified="No">1.000000e+00</Option>
    <Option name="UseRandomisedTrees" modified="No">False</Option>
    <Option name="UseNvars" modified="No">2</Option>
    <Option name="UseNTrainEvents" modified="No">342410</Option>
    <Option name="UseWeightedTrees" modified="No">True</Option>
    <Option name="UseYesNoLeaf" modified="No">True</Option>
    <Option name="NodePurityLimit" modified="No">5.000000e-01</Option>
    <Option name="SeparationType" modified="Yes">giniindex</Option>
    <Option name="nEventsMin" modified="No">94</Option>
    <Option name="nCuts" modified="Yes">20</Option>
    <Option name="PruneStrength" modified="No">-1.000000e+00</Option>
    <Option name="PruneMethod" modified="Yes">nopruning</Option>
    <Option name="PruneBeforeBoost" modified="No">False</Option>
    <Option name="PruningValFraction" modified="No">5.000000e-01</Option>
    <Option name="NNodesMax" modified="No">100000</Option>
    <Option name="MaxDepth" modified="No">3</Option>
  </Options>
  <Variables NVar="19">
    <Variable VarIndex="0" Expression="Elec_Pt" Label="Elec_Pt" Title="Elec_Pt" Unit="     " Internal="Elec_Pt" Type="F" Min="0.643489" Max="313.752"/>
    <Variable VarIndex="1" Expression="Elec_AbsEta" Label="Elec_AbsEta" Title="ElecAbsEta" Unit="     " Internal="Elec_AbsEta" Type="F" Min="1.479" Max="2.63301"/>
    <Variable VarIndex="2" Expression="Elec_EtotOverPin" Label="Elec_EtotOverPin" Title="EtotOverPin" Unit="     " Internal="Elec_EtotOverPin" Type="F" Min="-99" Max="182.097"/>
    <Variable VarIndex="3" Expression="Elec_EarlyBrem" Label="Elec_EarlyBrem" Title="EarlyBrem" Unit="     " Internal="Elec_EarlyBrem" Type="I" Min="-2" Max="1"/>
    <Variable VarIndex="4" Expression="Elec_LateBrem" Label="Elec_LateBrem" Title="LateBrem" Unit="     " Internal="Elec_LateBrem" Type="I" Min="-2" Max="1"/>
    <Variable VarIndex="5" Expression="Elec_Fbrem" Label="Elec_Fbrem" Title="Fbrem" Unit="     " Internal="Elec_Fbrem" Type="F" Min="-51.2728" Max="0.999702"/>
    <Variable VarIndex="6" Expression="Elec_Chi2KF" Label="Elec_Chi2KF" Title="Chi2KF" Unit="     " Internal="Elec_Chi2KF" Type="F" Min="-99" Max="15.5258"/>
    <Variable VarIndex="7" Expression="Elec_NumHits" Label="Elec_NumHits" Title="NumHits" Unit="     " Internal="Elec_NumHits" Type="I" Min="-99" Max="33"/>
    <Variable VarIndex="8" Expression="Elec_GSFTrackResol" Label="Elec_GSFTrackResol" Title="Elec_GSFTrackResol" Unit="     " Internal="Elec_GSFTrackResol" Type="F" Min="0.019916" Max="4.4742e+06"/>
    <Variable VarIndex="9" Expression="Elec_GSFTracklnPt" Label="Elec_GSFTracklnPt" Title="Elec_GSFTracklnPt" Unit="     " Internal="Elec_GSFTracklnPt" Type="F" Min="-3.55697" Max="43.7447"/>
    <Variable VarIndex="10" Expression="Elec_GSFTrackEta" Label="Elec_GSFTrackEta" Title="Elec_GSFTrackEta" Unit="     " Internal="Elec_GSFTrackEta" Type="F" Min="-2.63304" Max="2.62033"/>
    <Variable VarIndex="11" Expression="Tau_AbsEta" Label="Tau_AbsEta" Title="PFTauEta" Unit="     " Internal="Tau_AbsEta" Type="F" Min="1.479" Max="2.63439"/>
    <Variable VarIndex="12" Expression="Tau_Pt" Label="Tau_Pt" Title="TauPt" Unit="     " Internal="Tau_Pt" Type="F" Min="0.502096" Max="319.255"/>
    <Variable VarIndex="13" Expression="Tau_HasGsf" Label="Tau_HasGsf" Title="TauHasGsf" Unit="     " Internal="Tau_HasGsf" Type="I" Min="0" Max="1"/>
    <Variable VarIndex="14" Expression="Tau_EmFraction" Label="Tau_EmFraction" Title="TauEmFraction" Unit="     " Internal="Tau_EmFraction" Type="F" Min="0" Max="1"/>
    <Variable VarIndex="15" Expression="Tau_NumChargedCands" Label="Tau_NumChargedCands" Title="Tau_NumChargedCands" Unit="     " Internal="Tau_NumChargedCands" Type="I" Min="1" Max="3"/>
    <Variable VarIndex="16" Expression="Tau_HadrHoP" Label="Tau_HadrHoP" Title="TauHadrHoP" Unit="     " Internal="Tau_HadrHoP" Type="F" Min="0" Max="3.5431"/>
    <Variable VarIndex="17" Expression="Tau_HadrEoP" Label="Tau_HadrEoP" Title="TauHadrEoP" Unit="     " Internal="Tau_HadrEoP" Type="F" Min="0" Max="7.86782"/>
    <Variable VarIndex="18" Expression="Tau_VisMass" Label="Tau_VisMass" Title="TauVisMass" Unit="     " Internal="Tau_VisMass" Type="F" Min="-0.099998" Max="1.49751"/>
  </Variables>
  <Spectators NSpec="0"/>
  <Transformations NTransformations="0"/>
  <MVAPdfs/>
  <Weights NTrees="400" TreeType="0">
    <BinaryTree type="DecisionTree" boostWeight="5.0461505879109785e+00" itree="0">
      <Node pos="s" depth="0" Seq="0" IVar="18" Cut="1.2821772694587708e-01" cType="0" nS="2.6990000000000000e+03" nB="3.3971100000000000e+05" nEv="3.4241000000000000e+05" nSuw="2.6990000000000000e+03" nBuw="3.3971100000000000e+05" nEvuw="3.4241000000000000e+05" sepI="7.8202318400144577e-03" sepG="3.6771578979492188e+02" res="-9.9000000000000000e+01" rms="0.0000000000000000e+00" nType="0" CC="0.0000000000000000e+00">
        <Node pos="l" depth="1" Seq="0" IVar="14" Cut="8.0952382087707520e-01" cType="1" nS="1.4320000000000000e+03" nB="3.9050000000000000e+03" nEv="5.3370000000000000e+03" nSuw="1.4320000000000000e+03" nBuw="3.9050000000000000e+03" nEvuw="5.3370000000000000e+03" sepI="1.9632230699062347e-01" sepG="2.1594175720214844e+02" res="-9.9000000000000000e+01" rms="0.0000000000000000e+00" nType="0" CC="0.0000000000000000e+00">
          <Node pos="l" depth="2" Seq="0" IVar="9" Cut="7.8183112144470215e+00" cType="1" nS="1.0330000000000000e+03" nB="8.9500000000000000e+02" nEv="1.9280000000000000e+03" nSuw="1.0330000000000000e+03" nBuw="8.9500000000000000e+02" nEvuw="1.9280000000000000e+03" sepI="2.4871918559074402e-01" sepG="7.9069046020507812e+01" res="-9.9000000000000000e+01" rms="0.0000000000000000e+00" nType="0" CC="0.0000000000000000e+00">
            <Node pos="l" depth="3" Seq="0" IVar="-1" Cut="0.0000000000000000e+00" cType="1" nS="8.5900000000000000e+02" nB="3.9700000000000000e+02" nEv="1.2560000000000000e+03" nSuw="8.5900000000000000e+02" nBuw="3.9700000000000000e+02" nEvuw="1.2560000000000000e+03" sepI="2.1617446839809418e-01" sepG="-1.0000000000000000e+00" res="-9.9000000000000000e+01" rms="0.0000000000000000e+00" nType="1" CC="0.0000000000000000e+00"/>
            <Node pos="r" depth="3" Seq="4" IVar="-1" Cut="0.0000000000000000e+00" cType="1" nS="1.7400000000000000e+02" nB="4.9800000000000000e+02" nEv="6.7200000000000000e+02" nSuw="1.7400000000000000e+02" nBuw="4.9800000000000000e+02" nEvuw="6.7200000000000000e+02" sepI="1.9188456237316132e-01" sepG="-1.0000000000000000e+00" res="-9.9000000000000000e+01" rms="0.0000000000000000e+00" nType="-1" CC="0.0000000000000000e+00"/>
          </Node>
          <Node pos="r" depth="2" Seq="2" IVar="15" Cut="1.0952380895614624e+00" cType="0" nS="3.9900000000000000e+02" nB="3.0100000000000000e+03" nEv="3.4090000000000000e+03" nSuw="3.9900000000000000e+02" nBuw="3.0100000000000000e+03" nEvuw="3.4090000000000000e+03" sepI="1.0334403067827225e-01" sepG="4.2268539428710938e+01" res="-9.9000000000000000e+01" rms="0.0000000000000000e+00" nType="0" CC="0.0000000000000000e+00">
            <Node pos="l" depth="3" Seq="2" IVar="-1" Cut="0.0000000000000000e+00" cType="1" nS="8.4000000000000000e+01" nB="3.6000000000000000e+01" nEv="1.2000000000000000e+02" nSuw="8.4000000000000000e+01" nBuw="3.6000000000000000e+01" nEvuw="1.2000000000000000e+02" sepI="2.0999999344348907e-01" sepG="-1.0000000000000000e+00" res="-9.9000000000000000e+01" rms="0.0000000000000000e+00" nType="1" CC="0.0000000000000000e+00"/>
            <Node pos="r" depth="3" Seq="6" IVar="-1" Cut="0.0000000000000000e+00" cType="1" nS="3.1500000000000000e+02" nB="2.9740000000000000e+03" nEv="3.2890000000000000e+03" nSuw="3.1500000000000000e+02" nBuw="2.9740000000000000e+03" nEvuw="3.2890000000000000e+03" sepI="8.6601175367832184e-02" sepG="-1.0000000000000000e+00" res="-9.9000000000000000e+01" rms="0.0000000000000000e+00" nType="-1" CC="0.0000000000000000e+00"/>
          </Node>
        </Node>
        <Node pos="r" depth="1" Seq="1" IVar="-1" Cut="5.4528722763061523e+00" cType="1" nS="1.2670000000000000e+03" nB="3.3580600000000000e+05" nEv="3.3707300000000000e+05" nSuw="1.2670000000000000e+03" nBuw="3.3580600000000000e+05" nEvuw="3.3707300000000000e+05" sepI="3.7447009235620499e-03" sepG="-1.0000000000000000e+00" res="-9.9000000000000000e+01" rms="0.0000000000000000e+00" nType="-1" CC="0.0000000000000000e+00"/>
      </Node>
    </BinaryTree>
    <BinaryTree type="DecisionTree" boostWeight="9.8272922820147002e-01" itree="1">
      <Node pos="s" depth="0" Seq="0" IVar="0" Cut="3.0463319778442383e+01" cType="1" nS="1.3781393750000000e+05" nB="2.0459606250000000e+05" nEv="3.4241000000000000e+05" nSuw="2.6990000000000000e+03" nBuw="3.3971100000000000e+05" nEvuw="3.4241000000000000e+05" sepI="2.4049028754234314e-01" sepG="7.8772070312500000e+03" res="-9.9000000000000000e+01" rms="0.0000000000000000e+00" nType="0" CC="0.0000000000000000e+00">
        <Node pos="l" depth="1" Seq="0" IVar="14" Cut="6.1904764175415039e-01" cType="0" nS="8.6102257812500000e+04" nB="6.3808570312500000e+04" nEv="1.4991082812500000e+05" nSuw="1.8560000000000000e+03" nBuw="8.3254000000000000e+04" nEvuw="8.5110000000000000e+04" sepI="2.4447111785411835e-01" sepG="2.5877500000000000e+03" res="-9.9000000000000000e+01" rms="0.0000000000000000e+00" nType="0" CC="0.0000000000000000e+00">
          <Node pos="l" depth="2" Seq="0" IVar="-1" Cut="3.9676558226346970e-02" cType="0" nS="8.0094703125000000e+04" nB="4.7049183593750000e+04" nEv="1.2714388281250000e+05" nSuw="1.3450000000000000e+03" nBuw="7.6047000000000000e+04" nEvuw="7.7392000000000000e+04" sepI="2.3311215639114380e-01" sepG="-1.0000000000000000e+00" res="-9.9000000000000000e+01" rms="0.0000000000000000e+00" nType="1" CC="0.0000000000000000e+00"/>
          <Node pos="r" depth="2" Seq="2" IVar="-1" Cut="2.1050430834293365e-01" cType="0" nS="6.0075576171875000e+03" nB="1.6759386718750000e+04" nEv="2.2766943359375000e+04" nSuw="5.1100000000000000e+02" nBuw="7.2070000000000000e+03" nEvuw="7.7180000000000000e+03" sepI="1.9424353539943695e-01" sepG="-1.0000000000000000e+00" res="-9.9000000000000000e+01" rms="0.0000000000000000e+00" nType="-1" CC="0.0000000000000000e+00"/>
        </Node>
        <Node pos="r" depth="1" Seq="1" IVar="9" Cut="5.4528722763061523e+00" cType="1" nS="5.1711683593750000e+04" nB="1.4078748437500000e+05" nEv="1.9249917187500000e+05" nSuw="8.4300000000000000e+02" nBuw="2.5645700000000000e+05" nEvuw="2.5730000000000000e+05" sepI="1.9646944105625153e-01" sepG="4.5947548828125000e+03" res="-9.9000000000000000e+01" rms="0.0000000000000000e+00" nType="0" CC="0.0000000000000000e+00">
          <Node pos="l" depth="2" Seq="1" IVar="18" Cut="1.1987973004579544e-01" cType="1" nS="1.6384953125000000e+04" nB="7.8698872070312500e+03" nEv="2.4254839843750000e+04" nSuw="2.8600000000000000e+02" nBuw="7.9180000000000000e+03" nEvuw="8.2040000000000000e+03" sepI="2.1918804943561554e-01" sepG="1.4079367675781250e+03" res="-9.9000000000000000e+01" rms="0.0000000000000000e+00" nType="0" CC="0.0000000000000000e+00">
            <Node pos="l" depth="3" Seq="1" IVar="-1" Cut="0.0000000000000000e+00" cType="1" nS="1.5407666992187500e+04" nB="3.9200607910156250e+03" nEv="1.9327728515625000e+04" nSuw="1.9700000000000000e+02" nBuw="7.7900000000000000e+03" nEvuw="7.9870000000000000e+03" sepI="1.6168437898159027e-01" sepG="-1.0000000000000000e+00" res="-9.9000000000000000e+01" rms="0.0000000000000000e+00" nType="1" CC="0.0000000000000000e+00"/>
            <Node pos="r" depth="3" Seq="5" IVar="-1" Cut="0.0000000000000000e+00" cType="1" nS="9.7728582763671875e+02" nB="3.9498264160156250e+03" nEv="4.9271123046875000e+03" nSuw="8.9000000000000000e+01" nBuw="1.2800000000000000e+02" nEvuw="2.1700000000000000e+02" sepI="1.5900643169879913e-01" sepG="-1.0000000000000000e+00" res="-9.9000000000000000e+01" rms="0.0000000000000000e+00" nType="-1" CC="0.0000000000000000e+00"/>
          </Node>
          <Node pos="r" depth="2" Seq="3" IVar="18" Cut="1.1465698480606079e-01" cType="0" nS="3.5326730468750000e+04" nB="1.3291759375000000e+05" nEv="1.6824432812500000e+05" nSuw="5.5700000000000000e+02" nBuw="2.4853900000000000e+05" nEvuw="2.4909600000000000e+05" sepI="1.6588422656059265e-01" sepG="1.7608143310546875e+03" res="-9.9000000000000000e+01" rms="0.0000000000000000e+00" nType="0" CC="0.0000000000000000e+00">
            <Node pos="l" depth="3" Seq="3" IVar="-1" Cut="0.0000000000000000e+00" cType="1" nS="9.2822988281250000e+03" nB="9.2570419921875000e+03" nEv="1.8539341796875000e+04" nSuw="2.2400000000000000e+02" nBuw="2.7990000000000000e+03" nEvuw="3.0230000000000000e+03" sepI="2.4999953806400299e-01" sepG="-1.0000000000000000e+00" res="-9.9000000000000000e+01" rms="0.0000000000000000e+00" nType="1" CC="0.0000000000000000e+00"/>
            <Node pos="r" depth="3" Seq="7" IVar="-1" Cut="0.0000000000000000e+00" cType="1" nS="2.6044433593750000e+04" nB="1.2366055468750000e+05" nEv="1.4970498437500000e+05" nSuw="3.3300000000000000e+02" nBuw="2.4574000000000000e+05" nEvuw="2.4607300000000000e+05" sepI="1.4370554685592651e-01" sepG="-1.0000000000000000e+00" res="-9.9000000000000000e+01" rms="0.0000000000000000e+00" nType="-1" CC="0.0000000000000000e+00"/>
          </Node>
        </Node>
      </Node>
    </BinaryTree>
    <BinaryTree type="DecisionTree" boostWeight="7.8426083506530886e-01" itree="2">
      <Node pos="s" depth="0" Seq="0" IVar="14" Cut="9.5238095521926880e-01" cType="1" nS="1.3263959375000000e+05" nB="2.0977040625000000e+05" nEv="3.4241000000000000e+05" nSuw="2.6990000000000000e+03" nBuw="3.3971100000000000e+05" nEvuw="3.4241000000000000e+05" sepI="2.3731462657451630e-01" sepG="2.6253369140625000e+03" res="-9.9000000000000000e+01" rms="0.0000000000000000e+00" nType="0" CC="0.0000000000000000e+00">
        <Node pos="l" depth="1" Seq="0" IVar="7" Cut="2.0428571701049805e+01" cType="0" nS="9.8890468750000000e+04" nB="1.1917425000000000e+05" nEv="2.1806471875000000e+05" nSuw="2.2580000000000000e+03" nBuw="1.5209100000000000e+05" nEvuw="1.5434900000000000e+05" sepI="2.4783694744110107e-01" sepG="2.4631892089843750e+03" res="-9.9000000000000000e+01" rms="0.0000000000000000e+00" nType="0" CC="0.0000000000000000e+00">
          <Node pos="l" depth="2" Seq="0" IVar="6" Cut="9.5150762796401978e-01" cType="1" nS="3.7352503906250000e+04" nB="2.2239060546875000e+04" nEv="5.9591566406250000e+04" nSuw="7.9800000000000000e+02" nBuw="3.5074000000000000e+04" nEvuw="3.5872000000000000e+04" sepI="2.3391959071159363e-01" sepG="1.8948435058593750e+03" res="-9.9000000000000000e+01" rms="0.0000000000000000e+00" nType="0" CC="0.0000000000000000e+00">
            <Node pos="l" depth="3" Seq="0" IVar="-1" Cut="0.0000000000000000e+00" cType="1" nS="3.0765453125000000e+04" nB="1.0493168945312500e+04" nEv="4.1258621093750000e+04" nSuw="6.2100000000000000e+02" nBuw="1.6853000000000000e+04" nEvuw="1.7474000000000000e+04" sepI="1.8964463472366333e-01" sepG="-1.0000000000000000e+00" res="-9.9000000000000000e+01" rms="0.0000000000000000e+00" nType="1" CC="0.0000000000000000e+00"/>
            <Node pos="r" depth="3" Seq="4" IVar="-1" Cut="0.0000000000000000e+00" cType="1" nS="6.5870507812500000e+03" nB="1.1745892578125000e+04" nEv="1.8332943359375000e+04" nSuw="1.7700000000000000e+02" nBuw="1.8221000000000000e+04" nEvuw="1.8398000000000000e+04" sepI="2.3020388185977936e-01" sepG="-1.0000000000000000e+00" res="-9.9000000000000000e+01" rms="0.0000000000000000e+00" nType="-1" CC="0.0000000000000000e+00"/>
          </Node>
          <Node pos="r" depth="2" Seq="2" IVar="-1" Cut="1.2533468008041382e-01" cType="1" nS="6.1537964843750000e+04" nB="9.6935187500000000e+04" nEv="1.5847315625000000e+05" nSuw="1.4600000000000000e+03" nBuw="1.1701700000000000e+05" nEvuw="1.1847700000000000e+05" sepI="2.3752711713314056e-01" sepG="-1.0000000000000000e+00" res="-9.9000000000000000e+01" rms="0.0000000000000000e+00" nType="-1" CC="0.0000000000000000e+00"/>
        </Node>
        <Node pos="r" depth="1" Seq="1" IVar="9" Cut="5.4528722763061523e+00" cType="1" nS="3.3749125000000000e+04" nB="9.0596164062500000e+04" nEv="1.2434528906250000e+05" nSuw="4.4100000000000000e+02" nBuw="1.8762000000000000e+05" nEvuw="1.8806100000000000e+05" sepI="1.9774870574474335e-01" sepG="2.2895986328125000e+03" res="-9.9000000000000000e+01" rms="0.0000000000000000e+00" nType="0" CC="0.0000000000000000e+00">
          <Node pos="l" depth="2" Seq="1" IVar="12" Cut="3.6077598571777344e+01" cType="1" nS="9.8742431640625000e+03" nB="5.8463881835937500e+03" nEv="1.5720631835937500e+04" nSuw="1.7500000000000000e+02" nBuw="6.3490000000000000e+03" nEvuw="6.5240000000000000e+03" sepI="2.3358851671218872e-01" sepG="4.0633767700195312e+02" res="-9.9000000000000000e+01" rms="0.0000000000000000e+00" nType="0" CC="0.0000000000000000e+00">
            <Node pos="l" depth="3" Seq="1" IVar="-1" Cut="0.0000000000000000e+00" cType="1" nS="7.7232705078125000e+03" nB="2.6680466308593750e+03" nEv="1.0391317382812500e+04" nSuw="1.3300000000000000e+02" nBuw="2.8930000000000000e+03" nEvuw="3.0260000000000000e+03" sepI="1.9083298742771149e-01" sepG="-1.0000000000000000e+00" res="-9.9000000000000000e+01" rms="0.0000000000000000e+00" nType="1" CC="0.0000000000000000e+00"/>
            <Node pos="r" depth="3" Seq="5" IVar="-1" Cut="0.0000000000000000e+00" cType="1" nS="2.1509726562500000e+03" nB="3.1783417968750000e+03" nEv="5.3293144531250000e+03" nSuw="4.2000000000000000e+01" nBuw="3.4560000000000000e+03" nEvuw="3.4980000000000000e+03" sepI="2.4070926010608673e-01" sepG="-1.0000000000000000e+00" res="-9.9000000000000000e+01" rms="0.0000000000000000e+00" nType="-1" CC="0.0000000000000000e+00"/>
          </Node>
          <Node pos="r" depth="2" Seq="3" IVar="-1" Cut="7.2763233184814453e+00" cType="1" nS="2.3874880859375000e+04" nB="8.4749773437500000e+04" nEv="1.0862465625000000e+05" nSuw="2.6600000000000000e+02" nBuw="1.8127100000000000e+05" nEvuw="1.8153700000000000e+05" sepI="1.7148374021053314e-01" sepG="-1.0000000000000000e+00" res="-9.9000000000000000e+01" rms="0.0000000000000000e+00" nType="-1" CC="0.0000000000000000e+00"/>
        </Node>
      </Node>
    </BinaryTree>
    <BinaryTree type="DecisionTree" boostWeight="4.6112078690058494e-01" itree="3">
      <Node pos="s" depth="0" Seq="0" IVar="0" Cut="4.5373233795166016e+01" cType="1" nS="1.7823626562500000e+05" nB="1.6417373437500000e+05" nEv="3.4241000000000000e+05" nSuw="2.6990000000000000e+03" nBuw="3.3971100000000000e+05" nEvuw="3.4241000000000000e+05" sepI="2.4957832694053650e-01" sepG="2.2215910644531250e+03" res="-9.9000000000000000e+01" rms="0.0000000000000000e+00" nType="0" CC="0.0000000000000000e+00">
        <Node pos="l" depth="1" Seq="0" IVar="0" Cut="4.1113231658935547e+01" cType="1" nS="1.6400798437500000e+05" nB="1.3311867187500000e+05" nEv="2.9712665625000000e+05" nSuw="2.5790000000000000e+03" nBuw="2.4765500000000000e+05" nEvuw="2.5023400000000000e+05" sepI="2.4729807674884796e-01" sepG="1.7466096191406250e+03" res="-9.9000000000000000e+01" rms="0.0000000000000000e+00" nType="0" CC="0.0000000000000000e+00">
          <Node pos="l" depth="2" Seq="0" IVar="-1" Cut="6.0022120475769043e+00" cType="1" nS="1.5521789062500000e+05" nB="1.1393073437500000e+05" nEv="2.6914862500000000e+05" nSuw="2.4920000000000000e+03" nBuw="1.8955700000000000e+05" nEvuw="1.9204900000000000e+05" sepI="2.4411718547344208e-01" sepG="-1.0000000000000000e+00" res="-9.9000000000000000e+01" rms="0.0000000000000000e+00" nType="1" CC="0.0000000000000000e+00"/>
          <Node pos="r" depth="2" Seq="2" IVar="9" Cut="6.8140268325805664e+00" cType="1" nS="8.7900986328125000e+03" nB="1.9187935546875000e+04" nEv="2.7978035156250000e+04" nSuw="8.7000000000000000e+01" nBuw="5.8098000000000000e+04" nEvuw="5.8185000000000000e+04" sepI="2.1547038853168488e-01" sepG="9.4257128906250000e+02" res="-9.9000000000000000e+01" rms="0.0000000000000000e+00" nType="0" CC="0.0000000000000000e+00">
            <Node pos="l" depth="3" Seq="2" IVar="-1" Cut="0.0000000000000000e+00" cType="1" nS="4.9804111328125000e+03" nB="3.3878837890625000e+03" nEv="8.3682949218750000e+03" nSuw="5.8000000000000000e+01" nBuw="5.3050000000000000e+03" nEvuw="5.3630000000000000e+03" sepI="2.4094600975513458e-01" sepG="-1.0000000000000000e+00" res="-9.9000000000000000e+01" rms="0.0000000000000000e+00" nType="1" CC="0.0000000000000000e+00"/>
            <Node pos="r" depth="3" Seq="6" IVar="-1" Cut="0.0000000000000000e+00" cType="1" nS="3.8096875000000000e+03" nB="1.5800052734375000e+04" nEv="1.9609740234375000e+04" nSuw="2.9000000000000000e+01" nBuw="5.2793000000000000e+04" nEvuw="5.2822000000000000e+04" sepI="1.5653239190578461e-01" sepG="-1.0000000000000000e+00" res="-9.9000000000000000e+01" rms="0.0000000000000000e+00" nType="-1" CC="0.0000000000000000e+00"/>
          </Node>
        </Node>
        <Node pos="r" depth="1" Seq="1" IVar="9" Cut="6.8474297523498535e+00" cType="1" nS="1.4228280273437500e+04" nB="3.1055064453125000e+04" nEv="4.5283343750000000e+04" nSuw="1.2000000000000000e+02" nBuw="9.2056000000000000e+04" nEvuw="9.2176000000000000e+04" sepI="2.1548043191432953e-01" sepG="8.0412585449218750e+02" res="-9.9000000000000000e+01" rms="0.0000000000000000e+00" nType="0" CC="0.0000000000000000e+00">
          <Node pos="l" depth="2" Seq="1" IVar="18" Cut="1.1799909174442291e-01" cType="1" nS="5.9550844726562500e+03" nB="4.8197426757812500e+03" nEv="1.0774827148437500e+04" nSuw="5.8000000000000000e+01" nBuw="7.1530000000000000e+03" nEvuw="7.2110000000000000e+03" sepI="2.4722430109977722e-01" sepG="5.9097625732421875e+02" res="-9.9000000000000000e+01" rms="0.0000000000000000e+00" nType="0" CC="0.0000000000000000e+00">
            <Node pos="l" depth="3" Seq="1" IVar="-1" Cut="0.0000000000000000e+00" cType="1" nS="5.7533598632812500e+03" nB="2.8135646972656250e+03" nEv="8.5669248046875000e+03" nSuw="4.7000000000000000e+01" nBuw="7.0410000000000000e+03" nEvuw="7.0880000000000000e+03" sepI="2.2056092321872711e-01" sepG="-1.0000000000000000e+00" res="-9.9000000000000000e+01" rms="0.0000000000000000e+00" nType="1" CC="0.0000000000000000e+00"/>
            <Node pos="r" depth="3" Seq="5" IVar="-1" Cut="0.0000000000000000e+00" cType="1" nS="2.0172459411621094e+02" nB="2.0061779785156250e+03" nEv="2.2079025878906250e+03" nSuw="1.1000000000000000e+01" nBuw="1.1200000000000000e+02" nEvuw="1.2300000000000000e+02" sepI="8.3017282187938690e-02" sepG="-1.0000000000000000e+00" res="-9.9000000000000000e+01" rms="0.0000000000000000e+00" nType="-1" CC="0.0000000000000000e+00"/>
          </Node>
          <Node pos="r" depth="2" Seq="3" IVar="-1" Cut="9.5238095521926880e-01" cType="1" nS="8.2731953125000000e+03" nB="2.6235322265625000e+04" nEv="3.4508515625000000e+04" nSuw="6.2000000000000000e+01" nBuw="8.4903000000000000e+04" nEvuw="8.4965000000000000e+04" sepI="1.8226659297943115e-01" sepG="-1.0000000000000000e+00" res="-9.9000000000000000e+01" rms="0.0000000000000000e+00" nType="-1" CC="0.0000000000000000e+00"/>
        </Node>
      </Node>
    </BinaryTree>
    <BinaryTree type="DecisionTree" boostWeight="5.6498533371911319e-01" itree="4">
      <Node pos="s" depth="0" Seq="0" IVar="14" Cut="9.5238095521926880e-01" cType="1" nS="1.5118151562500000e+05" nB="1.9122848437500000e+05" nEv="3.4241000000000000e+05" nSuw="2.6990000000000000e+03" nBuw="3.3971100000000000e+05" nEvuw="3.4241000000000000e+05" sepI="2.4658031761646271e-01" sepG="1.8390546875000000e+03" res="-9.9000000000000000e+01" rms="0.0000000000000000e+00" nType="0" CC="0.0000000000000000e+00">
        <Node pos="l" depth="1" Seq="0" IVar="17" Cut="5.5926442146301270e-01" cType="0" nS="1.1117135156250000e+05" nB="1.1363099218750000e+05" nEv="2.2480234375000000e+05" nSuw="2.2580000000000000e+03" nBuw="1.5209100000000000e+05" nEvuw="1.5434900000000000e+05" sepI="2.4997007846832275e-01" sepG="1.7089440917968750e+03" res="-9.9000000000000000e+01" rms="0.0000000000000000e+00" nType="0" CC="0.0000000000000000e+00">
          <Node pos="l" depth="2" Seq="0" IVar="9" Cut="6.6104512214660645e+00" cType="1" nS="1.0274960156250000e+05" nB="9.1426820312500000e+04" nEv="1.9417642187500000e+05" nSuw="1.7250000000000000e+03" nBuw="1.5094300000000000e+05" nEvuw="1.5266800000000000e+05" sepI="2.4914993345737457e-01" sepG="1.6161754150390625e+03" res="-9.9000000000000000e+01" rms="0.0000000000000000e+00" nType="0" CC="0.0000000000000000e+00">
            <Node pos="l" depth="3" Seq="0" IVar="-1" Cut="0.0000000000000000e+00" cType="1" nS="3.6677703125000000e+04" nB="1.7611148437500000e+04" nEv="5.4288847656250000e+04" nSuw="7.3100000000000000e+02" nBuw="1.8538000000000000e+04" nEvuw="1.9269000000000000e+04" sepI="2.1916364133358002e-01" sepG="-1.0000000000000000e+00" res="-9.9000000000000000e+01" rms="0.0000000000000000e+00" nType="1" CC="0.0000000000000000e+00"/>
            <Node pos="r" depth="3" Seq="4" IVar="-1" Cut="0.0000000000000000e+00" cType="1" nS="6.6071898437500000e+04" nB="7.3815671875000000e+04" nEv="1.3988757812500000e+05" nSuw="9.9400000000000000e+02" nBuw="1.3240500000000000e+05" nEvuw="1.3339900000000000e+05" sepI="2.4923390150070190e-01" sepG="-1.0000000000000000e+00" res="-9.9000000000000000e+01" rms="0.0000000000000000e+00" nType="-1" CC="0.0000000000000000e+00"/>
          </Node>
          <Node pos="r" depth="2" Seq="2" IVar="9" Cut="8.0562486648559570e+00" cType="0" nS="8.4217480468750000e+03" nB="2.2204175781250000e+04" nEv="3.0625923828125000e+04" nSuw="5.3300000000000000e+02" nBuw="1.1480000000000000e+03" nEvuw="1.6810000000000000e+03" sepI="1.9936940073966980e-01" sepG="2.8239916992187500e+03" res="-9.9000000000000000e+01" rms="0.0000000000000000e+00" nType="0" CC="0.0000000000000000e+00">
            <Node pos="l" depth="3" Seq="2" IVar="-1" Cut="0.0000000000000000e+00" cType="1" nS="5.0910625000000000e+03" nB="4.2588388061523438e+02" nEv="5.5169462890625000e+03" nSuw="4.2000000000000000e+01" nBuw="3.6500000000000000e+02" nEvuw="4.0700000000000000e+02" sepI="7.1236424148082733e-02" sepG="-1.0000000000000000e+00" res="-9.9000000000000000e+01" rms="0.0000000000000000e+00" nType="1" CC="0.0000000000000000e+00"/>
            <Node pos="r" depth="3" Seq="6" IVar="-1" Cut="0.0000000000000000e+00" cType="1" nS="3.3306857910156250e+03" nB="2.1778292968750000e+04" nEv="2.5108978515625000e+04" nSuw="4.9100000000000000e+02" nBuw="7.8300000000000000e+02" nEvuw="1.2740000000000000e+03" sepI="1.1505338549613953e-01" sepG="-1.0000000000000000e+00" res="-9.9000000000000000e+01" rms="0.0000000000000000e+00" nType="-1" CC="0.0000000000000000e+00"/>
          </Node>
        </Node>
        <Node pos="r" depth="1" Seq="1" IVar="13" Cut="4.7619048506021500e-02" cType="1" nS="4.0010171875000000e+04" nB="7.7597492187500000e+04" nEv="1.1760766406250000e+05" nSuw="4.4100000000000000e+02" nBuw="1.8762000000000000e+05" nEvuw="1.8806100000000000e+05" sepI="2.2446408867835999e-01" sepG="1.4562495117187500e+03" res="-9.9000000000000000e+01" rms="0.0000000000000000e+00" nType="0" CC="0.0000000000000000e+00">
          <Node pos="l" depth="2" Seq="1" IVar="-1" Cut="2.1539197921752930e+01" cType="1" nS="3.4882597656250000e+03" nB="1.2605241394042969e+02" nEv="3.6143122558593750e+03" nSuw="5.1000000000000000e+01" nBuw="1.8100000000000000e+02" nEvuw="2.3200000000000000e+02" sepI="3.3659577369689941e-02" sepG="-1.0000000000000000e+00" res="-9.9000000000000000e+01" rms="0.0000000000000000e+00" nType="1" CC="0.0000000000000000e+00"/>
          <Node pos="r" depth="2" Seq="3" IVar="-1" Cut="1.4072984457015991e+00" cType="1" nS="3.6521910156250000e+04" nB="7.7471437500000000e+04" nEv="1.1399335156250000e+05" nSuw="3.9000000000000000e+02" nBuw="1.8743900000000000e+05" nEvuw="1.8782900000000000e+05" sepI="2.1773892641067505e-01" sepG="-1.0000000000000000e+00" res="-9.9000000000000000e+01" rms="0.0000000000000000e+00" nType="-1" CC="0.0000000000000000e+00"/>
        </Node>
      </Node>
    </BinaryTree>
    <BinaryTree type="DecisionTree" boostWeight="6.0930431487663861e-01" itree="5">
      <Node pos="s" depth="0" Seq="0" IVar="14" Cut="9.0476191043853760e-01" cType="1" nS="1.8163504687500000e+05" nB="1.6077496875000000e+05" nEv="3.4241000000000000e+05" nSuw="2.6990000000000000e+03" nBuw="3.3971100000000000e+05" nEvuw="3.4241000000000000e+05" sepI="2.4907214939594269e-01" sepG="8.4756555175781250e+02" res="-9.9000000000000000e+01" rms="0.0000000000000000e+00" nType="0" CC="0.0000000000000000e+00">
        <Node pos="l" depth="1" Seq="0" IVar="17" Cut="6.4014226198196411e-01" cType="0" nS="9.7122195312500000e+04" nB="6.9915398437500000e+04" nEv="1.6703759375000000e+05" nSuw="1.9140000000000000e+03" nBuw="8.5545000000000000e+04" nEvuw="8.7459000000000000e+04" sepI="2.4336765706539154e-01" sepG="1.9733784179687500e+03" res="-9.9000000000000000e+01" rms="0.0000000000000000e+00" nType="0" CC="0.0000000000000000e+00">
          <Node pos="l" depth="2" Seq="0" IVar="-1" Cut="1.4142857551574707e+01" cType="0" nS="8.7266789062500000e+04" nB="5.1036261718750000e+04" nEv="1.3830304687500000e+05" nSuw="1.3170000000000000e+03" nBuw="8.4215000000000000e+04" nEvuw="8.5532000000000000e+04" sepI="2.3284360766410828e-01" sepG="-1.0000000000000000e+00" res="-9.9000000000000000e+01" rms="0.0000000000000000e+00" nType="1" CC="0.0000000000000000e+00"/>
          <Node pos="r" depth="2" Seq="2" IVar="9" Cut="8.0562486648559570e+00" cType="0" nS="9.8554091796875000e+03" nB="1.8879134765625000e+04" nEv="2.8734544921875000e+04" nSuw="5.9700000000000000e+02" nBuw="1.3300000000000000e+03" nEvuw="1.9270000000000000e+03" sepI="2.2534510493278503e-01" sepG="1.8030880126953125e+03" res="-9.9000000000000000e+01" rms="0.0000000000000000e+00" nType="0" CC="0.0000000000000000e+00">
            <Node pos="l" depth="3" Seq="2" IVar="-1" Cut="0.0000000000000000e+00" cType="1" nS="4.4745625000000000e+03" nB="5.8069384765625000e+02" nEv="5.0552563476562500e+03" nSuw="4.7000000000000000e+01" nBuw="3.8800000000000000e+02" nEvuw="4.3500000000000000e+02" sepI="1.0167435556650162e-01" sepG="-1.0000000000000000e+00" res="-9.9000000000000000e+01" rms="0.0000000000000000e+00" nType="1" CC="0.0000000000000000e+00"/>
            <Node pos="r" depth="3" Seq="6" IVar="-1" Cut="0.0000000000000000e+00" cType="1" nS="5.3808461914062500e+03" nB="1.8298441406250000e+04" nEv="2.3679287109375000e+04" nSuw="5.5000000000000000e+02" nBuw="9.4200000000000000e+02" nEvuw="1.4920000000000000e+03" sepI="1.7560116946697235e-01" sepG="-1.0000000000000000e+00" res="-9.9000000000000000e+01" rms="0.0000000000000000e+00" nType="-1" CC="0.0000000000000000e+00"/>
          </Node>
        </Node>
        <Node pos="r" depth="1" Seq="1" IVar="9" Cut="7.7053322792053223e+00" cType="1" nS="8.4512843750000000e+04" nB="9.0859570312500000e+04" nEv="1.7537242187500000e+05" nSuw="7.8500000000000000e+02" nBuw="2.5416600000000000e+05" nEvuw="2.5495100000000000e+05" sepI="2.4967257678508759e-01" sepG="9.3995080566406250e+02" res="-9.9000000000000000e+01" rms="0.0000000000000000e+00" nType="0" CC="0.0000000000000000e+00">
          <Node pos="l" depth="2" Seq="1" IVar="0" Cut="3.2436859130859375e+01" cType="0" nS="5.1552246093750000e+04" nB="4.2133773437500000e+04" nEv="9.3686023437500000e+04" nSuw="5.7400000000000000e+02" nBuw="7.2304000000000000e+04" nEvuw="7.2878000000000000e+04" sepI="2.4747331440448761e-01" sepG="1.0896044921875000e+03" res="-9.9000000000000000e+01" rms="0.0000000000000000e+00" nType="0" CC="0.0000000000000000e+00">
            <Node pos="l" depth="3" Seq="1" IVar="-1" Cut="0.0000000000000000e+00" cType="1" nS="2.7141046875000000e+04" nB="1.3093697265625000e+04" nEv="4.0234746093750000e+04" nSuw="2.0600000000000000e+02" nBuw="3.6212000000000000e+04" nEvuw="3.6418000000000000e+04" sepI="2.1952621638774872e-01" sepG="-1.0000000000000000e+00" res="-9.9000000000000000e+01" rms="0.0000000000000000e+00" nType="1" CC="0.0000000000000000e+00"/>
            <Node pos="r" depth="3" Seq="5" IVar="-1" Cut="0.0000000000000000e+00" cType="1" nS="2.4411199218750000e+04" nB="2.9040076171875000e+04" nEv="5.3451277343750000e+04" nSuw="3.6800000000000000e+02" nBuw="3.6092000000000000e+04" nEvuw="3.6460000000000000e+04" sepI="2.4812510609626770e-01" sepG="-1.0000000000000000e+00" res="-9.9000000000000000e+01" rms="0.0000000000000000e+00" nType="-1" CC="0.0000000000000000e+00"/>
          </Node>
          <Node pos="r" depth="2" Seq="3" IVar="5" Cut="1.1903955787420273e-01" cType="1" nS="3.2960597656250000e+04" nB="4.8725796875000000e+04" nEv="8.1686390625000000e+04" nSuw="2.1100000000000000e+02" nBuw="1.8186200000000000e+05" nEvuw="1.8207300000000000e+05" sepI="2.4068807065486908e-01" sepG="1.9844903564453125e+03" res="-9.9000000000000000e+01" rms="0.0000000000000000e+00" nType="0" CC="0.0000000000000000e+00">
            <Node pos="l" depth="3" Seq="3" IVar="-1" Cut="0.0000000000000000e+00" cType="1" nS="1.0225518554687500e+04" nB="3.3651604003906250e+03" nEv="1.3590678710937500e+04" nSuw="6.2000000000000000e+01" nBuw="1.1763000000000000e+04" nEvuw="1.1825000000000000e+04" sepI="1.8629826605319977e-01" sepG="-1.0000000000000000e+00" res="-9.9000000000000000e+01" rms="0.0000000000000000e+00" nType="1" CC="0.0000000000000000e+00"/>
            <Node pos="r" depth="3" Seq="7" IVar="-1" Cut="0.0000000000000000e+00" cType="1" nS="2.2735080078125000e+04" nB="4.5360636718750000e+04" nEv="6.8095718750000000e+04" nSuw="1.4900000000000000e+02" nBuw="1.7009900000000000e+05" nEvuw="1.7024800000000000e+05" sepI="2.2240063548088074e-01" sepG="-1.0000000000000000e+00" res="-9.9000000000000000e+01" rms="0.0000000000000000e+00" nType="-1" CC="0.0000000000000000e+00"/>
          </Node>
        </Node>
      </Node>
    </BinaryTree>
    <BinaryTree type="DecisionTree" boostWeight="4.5653872618560348e-01" itree="6">
      <Node pos="s" depth="0" Seq="0" IVar="7" Cut="1.4142857551574707e+01" cType="0" nS="1.7422004687500000e+05" nB="1.6818995312500000e+05" nEv="3.4241000000000000e+05" nSuw="2.6990000000000000e+03" nBuw="3.3971100000000000e+05" nEvuw="3.4241000000000000e+05" sepI="2.4992246925830841e-01" sepG="9.8876177978515625e+02" res="-9.9000000000000000e+01" rms="0.0000000000000000e+00" nType="0" CC="0.0000000000000000e+00">
        <Node pos="l" depth="1" Seq="0" IVar="6" Cut="9.9592727422714233e-01" cType="1" nS="1.2126093750000000e+05" nB="9.9764757812500000e+04" nEv="2.2102568750000000e+05" nSuw="1.9310000000000000e+03" nBuw="2.1877800000000000e+05" nEvuw="2.2070900000000000e+05" sepI="2.4763529002666473e-01" sepG="2.3437194824218750e+03" res="-9.9000000000000000e+01" rms="0.0000000000000000e+00" nType="0" CC="0.0000000000000000e+00">
          <Node pos="l" depth="2" Seq="0" IVar="-1" Cut="6.8086379766464233e-01" cType="1" nS="9.2114218750000000e+04" nB="5.6300261718750000e+04" nEv="1.4841448437500000e+05" nSuw="1.4160000000000000e+03" nBuw="1.1831300000000000e+05" nEvuw="1.1972900000000000e+05" sepI="2.3544232547283173e-01" sepG="-1.0000000000000000e+00" res="-9.9000000000000000e+01" rms="0.0000000000000000e+00" nType="1" CC="0.0000000000000000e+00"/>
          <Node pos="r" depth="2" Seq="2" IVar="0" Cut="1.0760279846191406e+02" cType="0" nS="2.9146714843750000e+04" nB="4.3464496093750000e+04" nEv="7.2611210937500000e+04" nSuw="5.1500000000000000e+02" nBuw="1.0046500000000000e+05" nEvuw="1.0098000000000000e+05" sepI="2.4027960002422333e-01" sepG="3.8455023193359375e+02" res="-9.9000000000000000e+01" rms="0.0000000000000000e+00" nType="0" CC="0.0000000000000000e+00">
            <Node pos="l" depth="3" Seq="2" IVar="-1" Cut="0.0000000000000000e+00" cType="1" nS="1.3963055419921875e+03" nB="1.6984329223632812e+02" nEv="1.5661489257812500e+03" nSuw="4.0000000000000000e+00" nBuw="3.7500000000000000e+02" nEvuw="3.7900000000000000e+02" sepI="9.6685819327831268e-02" sepG="-1.0000000000000000e+00" res="-9.9000000000000000e+01" rms="0.0000000000000000e+00" nType="1" CC="0.0000000000000000e+00"/>
            <Node pos="r" depth="3" Seq="6" IVar="-1" Cut="0.0000000000000000e+00" cType="1" nS="2.7750410156250000e+04" nB="4.3294652343750000e+04" nEv="7.1045062500000000e+04" nSuw="5.1100000000000000e+02" nBuw="1.0009000000000000e+05" nEvuw="1.0060100000000000e+05" sepI="2.3803228139877319e-01" sepG="-1.0000000000000000e+00" res="-9.9000000000000000e+01" rms="0.0000000000000000e+00" nType="-1" CC="0.0000000000000000e+00"/>
          </Node>
        </Node>
        <Node pos="r" depth="1" Seq="1" IVar="18" Cut="1.2534375488758087e-01" cType="1" nS="5.2959113281250000e+04" nB="6.8425203125000000e+04" nEv="1.2138431250000000e+05" nSuw="7.6800000000000000e+02" nBuw="1.2093300000000000e+05" nEvuw="1.2170100000000000e+05" sepI="2.4594140052795410e-01" sepG="6.1387567138671875e+02" res="-9.9000000000000000e+01" rms="0.0000000000000000e+00" nType="0" CC="0.0000000000000000e+00">
          <Node pos="l" depth="2" Seq="1" IVar="18" Cut="8.2367300987243652e-02" cType="0" nS="4.5073285156250000e+04" nB="5.0094765625000000e+04" nEv="9.5168046875000000e+04" nSuw="4.0500000000000000e+02" nBuw="1.1901600000000000e+05" nEvuw="1.1942100000000000e+05" sepI="2.4930398166179657e-01" sepG="3.8210122680664062e+02" res="-9.9000000000000000e+01" rms="0.0000000000000000e+00" nType="0" CC="0.0000000000000000e+00">
            <Node pos="l" depth="3" Seq="1" IVar="-1" Cut="0.0000000000000000e+00" cType="1" nS="2.6893422851562500e+03" nB="6.4712548828125000e+02" nEv="3.3364677734375000e+03" nSuw="1.9000000000000000e+01" nBuw="1.9860000000000000e+03" nEvuw="2.0050000000000000e+03" sepI="1.5633662045001984e-01" sepG="-1.0000000000000000e+00" res="-9.9000000000000000e+01" rms="0.0000000000000000e+00" nType="1" CC="0.0000000000000000e+00"/>
            <Node pos="r" depth="3" Seq="5" IVar="-1" Cut="0.0000000000000000e+00" cType="1" nS="4.2383941406250000e+04" nB="4.9447640625000000e+04" nEv="9.1831585937500000e+04" nSuw="3.8600000000000000e+02" nBuw="1.1703000000000000e+05" nEvuw="1.1741600000000000e+05" sepI="2.4852082133293152e-01" sepG="-1.0000000000000000e+00" res="-9.9000000000000000e+01" rms="0.0000000000000000e+00" nType="-1" CC="0.0000000000000000e+00"/>
          </Node>
          <Node pos="r" depth="2" Seq="3" IVar="9" Cut="8.6068172454833984e+00" cType="0" nS="7.8858315429687500e+03" nB="1.8330433593750000e+04" nEv="2.6216263671875000e+04" nSuw="3.6300000000000000e+02" nBuw="1.9170000000000000e+03" nEvuw="2.2800000000000000e+03" sepI="2.1031904220581055e-01" sepG="1.1459761962890625e+03" res="-9.9000000000000000e+01" rms="0.0000000000000000e+00" nType="0" CC="0.0000000000000000e+00">
            <Node pos="l" depth="3" Seq="3" IVar="-1" Cut="0.0000000000000000e+00" cType="1" nS="3.2291914062500000e+03" nB="8.8086358642578125e+02" nEv="4.1100551757812500e+03" nSuw="3.5000000000000000e+01" nBuw="1.0140000000000000e+03" nEvuw="1.0490000000000000e+03" sepI="1.6838645935058594e-01" sepG="-1.0000000000000000e+00" res="-9.9000000000000000e+01" rms="0.0000000000000000e+00" nType="1" CC="0.0000000000000000e+00"/>
            <Node pos="r" depth="3" Seq="7" IVar="-1" Cut="0.0000000000000000e+00" cType="1" nS="4.6566401367187500e+03" nB="1.7449570312500000e+04" nEv="2.2106208984375000e+04" nSuw="3.2800000000000000e+02" nBuw="9.0300000000000000e+02" nEvuw="1.2310000000000000e+03" sepI="1.6627570986747742e-01" sepG="-1.0000000000000000e+00" res="-9.9000000000000000e+01" rms="0.0000000000000000e+00" nType="-1" CC="0.0000000000000000e+00"/>
          </Node>
        </Node>
      </Node>
    </BinaryTree>
    <BinaryTree type="DecisionTree" boostWeight="3.1250544090318172e-01" itree="7">
      <Node pos="s" depth="0" Seq="0" IVar="18" Cut="2.0428964495658875e-01" cType="1" nS="1.7763535937500000e+05" nB="1.6477464062500000e+05" nEv="3.4241000000000000e+05" nSuw="2.6990000000000000e+03" nBuw="3.3971100000000000e+05" nEvuw="3.4241000000000000e+05" sepI="2.4964731931686401e-01" sepG="7.7079241943359375e+02" res="-9.9000000000000000e+01" rms="0.0000000000000000e+00" nType="0" CC="0.0000000000000000e+00">
        <Node pos="l" depth="1" Seq="0" IVar="0" Cut="4.0484249114990234e+01" cType="1" nS="1.7617393750000000e+05" nB="1.5887806250000000e+05" nEv="3.3505200000000000e+05" nSuw="2.3950000000000000e+03" nBuw="3.3956400000000000e+05" nEvuw="3.4195900000000000e+05" sepI="2.4933379888534546e-01" sepG="1.2594826660156250e+03" res="-9.9000000000000000e+01" rms="0.0000000000000000e+00" nType="0" CC="0.0000000000000000e+00">
          <Node pos="l" depth="2" Seq="0" IVar="-1" Cut="9.0476191043853760e-01" cType="0" nS="1.4782212500000000e+05" nB="1.1744494531250000e+05" nEv="2.6526706250000000e+05" nSuw="2.1720000000000000e+03" nBuw="1.8147800000000000e+05" nEvuw="1.8365000000000000e+05" sepI="2.4672155082225800e-01" sepG="-1.0000000000000000e+00" res="-9.9000000000000000e+01" rms="0.0000000000000000e+00" nType="1" CC="0.0000000000000000e+00"/>
          <Node pos="r" depth="2" Seq="2" IVar="1" Cut="1.6420133113861084e+00" cType="1" nS="2.8351814453125000e+04" nB="4.1433117187500000e+04" nEv="6.9784929687500000e+04" nSuw="2.2300000000000000e+02" nBuw="1.5808600000000000e+05" nEvuw="1.5830900000000000e+05" sepI="2.4121546745300293e-01" sepG="4.3309561157226562e+02" res="-9.9000000000000000e+01" rms="0.0000000000000000e+00" nType="0" CC="0.0000000000000000e+00">
            <Node pos="l" depth="3" Seq="2" IVar="-1" Cut="0.0000000000000000e+00" cType="1" nS="6.4046811523437500e+03" nB="4.4546738281250000e+03" nEv="1.0859354492187500e+04" nSuw="4.1000000000000000e+01" nBuw="2.0502000000000000e+04" nEvuw="2.0543000000000000e+04" sepI="2.4193871021270752e-01" sepG="-1.0000000000000000e+00" res="-9.9000000000000000e+01" rms="0.0000000000000000e+00" nType="1" CC="0.0000000000000000e+00"/>
            <Node pos="r" depth="3" Seq="6" IVar="-1" Cut="0.0000000000000000e+00" cType="1" nS="2.1947132812500000e+04" nB="3.6978445312500000e+04" nEv="5.8925578125000000e+04" nSuw="1.8200000000000000e+02" nBuw="1.3758400000000000e+05" nEvuw="1.3776600000000000e+05" sepI="2.3373231291770935e-01" sepG="-1.0000000000000000e+00" res="-9.9000000000000000e+01" rms="0.0000000000000000e+00" nType="-1" CC="0.0000000000000000e+00"/>
          </Node>
        </Node>
        <Node pos="r" depth="1" Seq="1" IVar="17" Cut="9.5488166809082031e-01" cType="1" nS="1.4614179687500000e+03" nB="5.8965805664062500e+03" nEv="7.3579985351562500e+03" nSuw="3.0400000000000000e+02" nBuw="1.4700000000000000e+02" nEvuw="4.5100000000000000e+02" sepI="1.5916782617568970e-01" sepG="4.0328680419921875e+02" res="-9.9000000000000000e+01" rms="0.0000000000000000e+00" nType="0" CC="0.0000000000000000e+00">
          <Node pos="l" depth="2" Seq="1" IVar="14" Cut="7.3415374755859375e-01" cType="1" nS="1.0857041015625000e+03" nB="6.7806536865234375e+02" nEv="1.7637694091796875e+03" nSuw="1.9700000000000000e+02" nBuw="1.5000000000000000e+01" nEvuw="2.1200000000000000e+02" sepI="2.3664613068103790e-01" sepG="1.4802589416503906e+02" res="-9.9000000000000000e+01" rms="0.0000000000000000e+00" nType="0" CC="0.0000000000000000e+00">
            <Node pos="l" depth="3" Seq="1" IVar="-1" Cut="0.0000000000000000e+00" cType="1" nS="6.3881140136718750e+02" nB="0.0000000000000000e+00" nEv="6.3881140136718750e+02" nSuw="1.1800000000000000e+02" nBuw="0.0000000000000000e+00" nEvuw="1.1800000000000000e+02" sepI="0.0000000000000000e+00" sepG="-1.0000000000000000e+00" res="-9.9000000000000000e+01" rms="0.0000000000000000e+00" nType="1" CC="0.0000000000000000e+00"/>
            <Node pos="r" depth="3" Seq="5" IVar="-1" Cut="0.0000000000000000e+00" cType="1" nS="4.4689263916015625e+02" nB="6.7806536865234375e+02" nEv="1.1249580078125000e+03" nSuw="7.9000000000000000e+01" nBuw="1.5000000000000000e+01" nEvuw="9.4000000000000000e+01" sepI="2.3944300413131714e-01" sepG="-1.0000000000000000e+00" res="-9.9000000000000000e+01" rms="0.0000000000000000e+00" nType="-1" CC="0.0000000000000000e+00"/>
          </Node>
          <Node pos="r" depth="2" Seq="3" IVar="-1" Cut="8.7153947353363037e-01" cType="1" nS="3.7571395874023438e+02" nB="5.2185151367187500e+03" nEv="5.5942290039062500e+03" nSuw="1.0700000000000000e+02" nBuw="1.3200000000000000e+02" nEvuw="2.3900000000000000e+02" sepI="6.2650389969348907e-02" sepG="-1.0000000000000000e+00" res="-9.9000000000000000e+01" rms="0.0000000000000000e+00" nType="-1" CC="0.0000000000000000e+00"/>
        </Node>
      </Node>
    </BinaryTree>
    <BinaryTree type="DecisionTree" boostWeight="4.2783369518412556e-01" itree="8">
      <Node pos="s" depth="0" Seq="0" IVar="14" Cut="8.0952382087707520e-01" cType="0" nS="1.6102978125000000e+05" nB="1.8138021875000000e+05" nEv="3.4241000000000000e+05" nSuw="2.6990000000000000e+03" nBuw="3.3971100000000000e+05" nEvuw="3.4241000000000000e+05" sepI="2.4911692738533020e-01" sepG="5.6501110839843750e+02" res="-9.9000000000000000e+01" rms="0.0000000000000000e+00" nType="0" CC="0.0000000000000000e+00">
        <Node pos="l" depth="1" Seq="0" IVar="2" Cut="-8.5614402770996094e+01" cType="1" nS="1.2296146875000000e+05" nB="1.2529517968750000e+05" nEv="2.4825664062500000e+05" nSuw="1.3980000000000000e+03" nBuw="3.0165700000000000e+05" nEvuw="3.0305500000000000e+05" sepI="2.4997790157794952e-01" sepG="1.5583460693359375e+03" res="-9.9000000000000000e+01" rms="0.0000000000000000e+00" nType="0" CC="0.0000000000000000e+00">
          <Node pos="l" depth="2" Seq="0" IVar="17" Cut="6.9151812791824341e-01" cType="0" nS="1.3119522460937500e+04" nB="3.4558537597656250e+03" nEv="1.6575376953125000e+04" nSuw="2.9700000000000000e+02" nBuw="4.1230000000000000e+03" nEvuw="4.4200000000000000e+03" sepI="1.6502380371093750e-01" sepG="2.1431686401367188e+02" res="-9.9000000000000000e+01" rms="0.0000000000000000e+00" nType="0" CC="0.0000000000000000e+00">
            <Node pos="l" depth="3" Seq="0" IVar="-1" Cut="0.0000000000000000e+00" cType="1" nS="1.3048935546875000e+04" nB="3.0322775878906250e+03" nEv="1.6081212890625000e+04" nSuw="2.8900000000000000e+02" nBuw="3.8030000000000000e+03" nEvuw="4.0920000000000000e+03" sepI="1.5300528705120087e-01" sepG="-1.0000000000000000e+00" res="-9.9000000000000000e+01" rms="0.0000000000000000e+00" nType="1" CC="0.0000000000000000e+00"/>
            <Node pos="r" depth="3" Seq="4" IVar="-1" Cut="0.0000000000000000e+00" cType="1" nS="7.0587036132812500e+01" nB="4.2357626342773438e+02" nEv="4.9416326904296875e+02" nSuw="8.0000000000000000e+00" nBuw="3.2000000000000000e+02" nEvuw="3.2800000000000000e+02" sepI="1.2243781983852386e-01" sepG="-1.0000000000000000e+00" res="-9.9000000000000000e+01" rms="0.0000000000000000e+00" nType="-1" CC="0.0000000000000000e+00"/>
          </Node>
          <Node pos="r" depth="2" Seq="2" IVar="13" Cut="4.7619048506021500e-02" cType="1" nS="1.0984194531250000e+05" nB="1.2183932812500000e+05" nEv="2.3168126562500000e+05" nSuw="1.1010000000000000e+03" nBuw="2.9753400000000000e+05" nEvuw="2.9863500000000000e+05" sepI="2.4932961165904999e-01" sepG="1.4624479980468750e+03" res="-9.9000000000000000e+01" rms="0.0000000000000000e+00" nType="0" CC="0.0000000000000000e+00">
            <Node pos="l" depth="3" Seq="2" IVar="-1" Cut="0.0000000000000000e+00" cType="1" nS="5.5601113281250000e+03" nB="1.4856536865234375e+02" nEv="5.7086767578125000e+03" nSuw="8.7000000000000000e+01" nBuw="9.4000000000000000e+01" nEvuw="1.8100000000000000e+02" sepI="2.5347212329506874e-02" sepG="-1.0000000000000000e+00" res="-9.9000000000000000e+01" rms="0.0000000000000000e+00" nType="1" CC="0.0000000000000000e+00"/>
            <Node pos="r" depth="3" Seq="6" IVar="-1" Cut="0.0000000000000000e+00" cType="1" nS="1.0428183593750000e+05" nB="1.2169075781250000e+05" nEv="2.2597259375000000e+05" nSuw="1.0140000000000000e+03" nBuw="2.9744000000000000e+05" nEvuw="2.9845400000000000e+05" sepI="2.4851621687412262e-01" sepG="-1.0000000000000000e+00" res="-9.9000000000000000e+01" rms="0.0000000000000000e+00" nType="-1" CC="0.0000000000000000e+00"/>
          </Node>
        </Node>
        <Node pos="r" depth="1" Seq="1" IVar="9" Cut="7.7524814605712891e+00" cType="0" nS="3.8068316406250000e+04" nB="5.6085042968750000e+04" nEv="9.4153359375000000e+04" nSuw="1.3010000000000000e+03" nBuw="3.8054000000000000e+04" nEvuw="3.9355000000000000e+04" sepI="2.4084579944610596e-01" sepG="2.5377575683593750e+03" res="-9.9000000000000000e+01" rms="0.0000000000000000e+00" nType="0" CC="0.0000000000000000e+00">
          <Node pos="l" depth="2" Seq="1" IVar="-1" Cut="1.4046933174133301e+01" cType="1" nS="2.1785515625000000e+04" nB="1.3581338867187500e+04" nEv="3.5366855468750000e+04" nSuw="2.7400000000000000e+02" nBuw="2.2916000000000000e+04" nEvuw="2.3190000000000000e+04" sepI="2.3654706776142120e-01" sepG="-1.0000000000000000e+00" res="-9.9000000000000000e+01" rms="0.0000000000000000e+00" nType="1" CC="0.0000000000000000e+00"/>
          <Node pos="r" depth="2" Seq="3" IVar="18" Cut="1.2845395505428314e-01" cType="1" nS="1.6282799804687500e+04" nB="4.2503703125000000e+04" nEv="5.8786503906250000e+04" nSuw="1.0270000000000000e+03" nBuw="1.5138000000000000e+04" nEvuw="1.6165000000000000e+04" sepI="2.0026293396949768e-01" sepG="3.7150849609375000e+03" res="-9.9000000000000000e+01" rms="0.0000000000000000e+00" nType="0" CC="0.0000000000000000e+00">
            <Node pos="l" depth="3" Seq="3" IVar="-1" Cut="0.0000000000000000e+00" cType="1" nS="1.5139873046875000e+04" nB="1.2872438476562500e+04" nEv="2.8012310546875000e+04" nSuw="1.7800000000000000e+02" nBuw="1.4763000000000000e+04" nEvuw="1.4941000000000000e+04" sepI="2.4836200475692749e-01" sepG="-1.0000000000000000e+00" res="-9.9000000000000000e+01" rms="0.0000000000000000e+00" nType="1" CC="0.0000000000000000e+00"/>
            <Node pos="r" depth="3" Seq="7" IVar="-1" Cut="0.0000000000000000e+00" cType="1" nS="1.1429266357421875e+03" nB="2.9631267578125000e+04" nEv="3.0774193359375000e+04" nSuw="8.4900000000000000e+02" nBuw="3.7500000000000000e+02" nEvuw="1.2240000000000000e+03" sepI="3.5759810358285904e-02" sepG="-1.0000000000000000e+00" res="-9.9000000000000000e+01" rms="0.0000000000000000e+00" nType="-1" CC="0.0000000000000000e+00"/>
          </Node>
        </Node>
      </Node>
    </BinaryTree>
    <BinaryTree type="DecisionTree" boostWeight="4.9960447744502923e-01" itree="9">
      <Node pos="s" depth="0" Seq="0" IVar="14" Cut="8.0952382087707520e-01" cType="0" nS="1.7952818750000000e+05" nB="1.6288182812500000e+05" nEv="3.4241000000000000e+05" nSuw="2.6990000000000000e+03" nBuw="3.3971100000000000e+05" nEvuw="3.4241000000000000e+05" sepI="2.4940913915634155e-01" sepG="3.4875983886718750e+03" res="-9.9000000000000000e+01" rms="0.0000000000000000e+00" nType="0" CC="0.0000000000000000e+00">
        <Node pos="l" depth="1" Seq="0" IVar="18" Cut="2.7547675371170044e-01" cType="1" nS="1.4758123437500000e+05" nB="1.0489156250000000e+05" nEv="2.5247281250000000e+05" nSuw="1.3980000000000000e+03" nBuw="3.0165700000000000e+05" nEvuw="3.0305500000000000e+05" sepI="2.4285246431827545e-01" sepG="1.0302064208984375e+03" res="-9.9000000000000000e+01" rms="0.0000000000000000e+00" nType="0" CC="0.0000000000000000e+00">
          <Node pos="l" depth="2" Seq="0" IVar="-1" Cut="7.8665450215339661e-02" cType="0" nS="1.4753518750000000e+05" nB="1.0180441406250000e+05" nEv="2.4933960937500000e+05" nSuw="1.3140000000000000e+03" nBuw="3.0160300000000000e+05" nEvuw="3.0291700000000000e+05" sepI="2.4159041047096252e-01" sepG="-1.0000000000000000e+00" res="-9.9000000000000000e+01" rms="0.0000000000000000e+00" nType="1" CC="0.0000000000000000e+00"/>
          <Node pos="r" depth="2" Seq="2" IVar="-1" Cut="0.0000000000000000e+00" cType="1" nS="4.6054679870605469e+01" nB="3.0871489257812500e+03" nEv="3.1332036132812500e+03" nSuw="8.4000000000000000e+01" nBuw="5.4000000000000000e+01" nEvuw="1.3800000000000000e+02" sepI="1.4482852071523666e-02" sepG="-1.0000000000000000e+00" res="-9.9000000000000000e+01" rms="0.0000000000000000e+00" nType="-1" CC="0.0000000000000000e+00"/>
        </Node>
        <Node pos="r" depth="1" Seq="1" IVar="9" Cut="7.7524814605712891e+00" cType="0" nS="3.1946939453125000e+04" nB="5.7990261718750000e+04" nEv="8.9937195312500000e+04" nSuw="1.3010000000000000e+03" nBuw="3.8054000000000000e+04" nEvuw="3.9355000000000000e+04" sepI="2.2903697192668915e-01" sepG="1.4069024658203125e+03" res="-9.9000000000000000e+01" rms="0.0000000000000000e+00" nType="0" CC="0.0000000000000000e+00">
          <Node pos="l" depth="2" Seq="1" IVar="12" Cut="1.4046933174133301e+01" cType="1" nS="1.7993962890625000e+04" nB="1.7207087890625000e+04" nEv="3.5201050781250000e+04" nSuw="2.7400000000000000e+02" nBuw="2.2916000000000000e+04" nEvuw="2.3190000000000000e+04" sepI="2.4987508356571198e-01" sepG="9.2276922607421875e+02" res="-9.9000000000000000e+01" rms="0.0000000000000000e+00" nType="0" CC="0.0000000000000000e+00">
            <Node pos="l" depth="3" Seq="1" IVar="-1" Cut="0.0000000000000000e+00" cType="1" nS="5.3647504882812500e+03" nB="8.7287176513671875e+02" nEv="6.2376225585937500e+03" nSuw="7.0000000000000000e+01" nBuw="1.4800000000000000e+02" nEvuw="2.1800000000000000e+02" sepI="1.2035436183214188e-01" sepG="-1.0000000000000000e+00" res="-9.9000000000000000e+01" rms="0.0000000000000000e+00" nType="1" CC="0.0000000000000000e+00"/>
            <Node pos="r" depth="3" Seq="5" IVar="-1" Cut="0.0000000000000000e+00" cType="1" nS="1.2629211914062500e+04" nB="1.6334215820312500e+04" nEv="2.8963427734375000e+04" nSuw="2.0400000000000000e+02" nBuw="2.2768000000000000e+04" nEvuw="2.2972000000000000e+04" sepI="2.4590910971164703e-01" sepG="-1.0000000000000000e+00" res="-9.9000000000000000e+01" rms="0.0000000000000000e+00" nType="-1" CC="0.0000000000000000e+00"/>
          </Node>
          <Node pos="r" depth="2" Seq="3" IVar="-1" Cut="1.2845395505428314e-01" cType="1" nS="1.3952976562500000e+04" nB="4.0783171875000000e+04" nEv="5.4736148437500000e+04" nSuw="1.0270000000000000e+03" nBuw="1.5138000000000000e+04" nEvuw="1.6165000000000000e+04" sepI="1.8993254005908966e-01" sepG="-1.0000000000000000e+00" res="-9.9000000000000000e+01" rms="0.0000000000000000e+00" nType="-1" CC="0.0000000000000000e+00"/>
        </Node>
      </Node>
    </BinaryTree>
    <BinaryTree type="DecisionTree" boostWeight="3.0795634259319704e-01" itree="10">
      <Node pos="s" depth="0" Seq="0" IVar="0" Cut="3.0463319778442383e+01" cType="0" nS="1.5809428125000000e+05" nB="1.8431571875000000e+05" nEv="3.4241000000000000e+05" nSuw="2.6990000000000000e+03" nBuw="3.3971100000000000e+05" nEvuw="3.4241000000000000e+05" sepI="2.4853390455245972e-01" sepG="2.9402258300781250e+02" res="-9.9000000000000000e+01" rms="0.0000000000000000e+00" nType="0" CC="0.0000000000000000e+00">
        <Node pos="l" depth="1" Seq="0" IVar="14" Cut="4.7619047760963440e-01" cType="0" nS="8.4381609375000000e+04" nB="8.7511343750000000e+04" nEv="1.7189295312500000e+05" nSuw="8.4300000000000000e+02" nBuw="2.5645700000000000e+05" nEvuw="2.5730000000000000e+05" sepI="2.4991711974143982e-01" sepG="5.7008160400390625e+02" res="-9.9000000000000000e+01" rms="0.0000000000000000e+00" nType="0" CC="0.0000000000000000e+00">
          <Node pos="l" depth="2" Seq="0" IVar="-1" Cut="-9.3979637145996094e+01" cType="1" nS="8.0701750000000000e+04" nB="7.8403351562500000e+04" nEv="1.5910510937500000e+05" nSuw="6.9300000000000000e+02" nBuw="2.4549900000000000e+05" nEvuw="2.4619200000000000e+05" sepI="2.4994783103466034e-01" sepG="-1.0000000000000000e+00" res="-9.9000000000000000e+01" rms="0.0000000000000000e+00" nType="1" CC="0.0000000000000000e+00"/>
          <Node pos="r" depth="2" Seq="2" IVar="-1" Cut="7.7524814605712891e+00" cType="0" nS="3.6798588867187500e+03" nB="9.1079882812500000e+03" nEv="1.2787847656250000e+04" nSuw="1.5000000000000000e+02" nBuw="1.0958000000000000e+04" nEvuw="1.1108000000000000e+04" sepI="2.0495511591434479e-01" sepG="-1.0000000000000000e+00" res="-9.9000000000000000e+01" rms="0.0000000000000000e+00" nType="-1" CC="0.0000000000000000e+00"/>
        </Node>
        <Node pos="r" depth="1" Seq="1" IVar="14" Cut="6.1904764175415039e-01" cType="1" nS="7.3712671875000000e+04" nB="9.6804382812500000e+04" nEv="1.7051704687500000e+05" nSuw="1.8560000000000000e+03" nBuw="8.3254000000000000e+04" nEvuw="8.5110000000000000e+04" sepI="2.4541524052619934e-01" sepG="1.0342576904296875e+03" res="-9.9000000000000000e+01" rms="0.0000000000000000e+00" nType="0" CC="0.0000000000000000e+00">
          <Node pos="l" depth="2" Seq="1" IVar="11" Cut="1.5317085981369019e+00" cType="0" nS="1.3434042968750000e+04" nB="7.5505512695312500e+03" nEv="2.0984593750000000e+04" nSuw="5.1100000000000000e+02" nBuw="7.2070000000000000e+03" nEvuw="7.7180000000000000e+03" sepI="2.3034788668155670e-01" sepG="5.8276300048828125e+02" res="-9.9000000000000000e+01" rms="0.0000000000000000e+00" nType="0" CC="0.0000000000000000e+00">
            <Node pos="l" depth="3" Seq="1" IVar="-1" Cut="0.0000000000000000e+00" cType="1" nS="1.3182113281250000e+04" nB="5.8063354492187500e+03" nEv="1.8988447265625000e+04" nSuw="4.8600000000000000e+02" nBuw="5.7820000000000000e+03" nEvuw="6.2680000000000000e+03" sepI="2.1227955818176270e-01" sepG="-1.0000000000000000e+00" res="-9.9000000000000000e+01" rms="0.0000000000000000e+00" nType="1" CC="0.0000000000000000e+00"/>
            <Node pos="r" depth="3" Seq="5" IVar="-1" Cut="0.0000000000000000e+00" cType="1" nS="2.5193032836914062e+02" nB="1.7442160644531250e+03" nEv="1.9961463623046875e+03" nSuw="2.5000000000000000e+01" nBuw="1.4250000000000000e+03" nEvuw="1.4500000000000000e+03" sepI="1.1027979105710983e-01" sepG="-1.0000000000000000e+00" res="-9.9000000000000000e+01" rms="0.0000000000000000e+00" nType="-1" CC="0.0000000000000000e+00"/>
          </Node>
          <Node pos="r" depth="2" Seq="3" IVar="9" Cut="5.6829161643981934e+00" cType="1" nS="6.0278625000000000e+04" nB="8.9253835937500000e+04" nEv="1.4953245312500000e+05" nSuw="1.3450000000000000e+03" nBuw="7.6047000000000000e+04" nEvuw="7.7392000000000000e+04" sepI="2.4061310291290283e-01" sepG="8.0422033691406250e+02" res="-9.9000000000000000e+01" rms="0.0000000000000000e+00" nType="0" CC="0.0000000000000000e+00">
            <Node pos="l" depth="3" Seq="3" IVar="-1" Cut="0.0000000000000000e+00" cType="1" nS="1.3934817382812500e+04" nB="1.0564267578125000e+04" nEv="2.4499085937500000e+04" nSuw="3.6700000000000000e+02" nBuw="5.3720000000000000e+03" nEvuw="5.7390000000000000e+03" sepI="2.4526803195476532e-01" sepG="-1.0000000000000000e+00" res="-9.9000000000000000e+01" rms="0.0000000000000000e+00" nType="1" CC="0.0000000000000000e+00"/>
            <Node pos="r" depth="3" Seq="7" IVar="-1" Cut="0.0000000000000000e+00" cType="1" nS="4.6343808593750000e+04" nB="7.8689562500000000e+04" nEv="1.2503337500000000e+05" nSuw="9.7800000000000000e+02" nBuw="7.0675000000000000e+04" nEvuw="7.1653000000000000e+04" sepI="2.3326896131038666e-01" sepG="-1.0000000000000000e+00" res="-9.9000000000000000e+01" rms="0.0000000000000000e+00" nType="-1" CC="0.0000000000000000e+00"/>
          </Node>
        </Node>
      </Node>
    </BinaryTree>
    <BinaryTree type="DecisionTree" boostWeight="3.3966732464271454e-01" itree="11">
      <Node pos="s" depth="0" Seq="0" IVar="12" Cut="1.5680784225463867e+01" cType="1" nS="1.5287120312500000e+05" nB="1.8953879687500000e+05" nEv="3.4241000000000000e+05" nSuw="2.6990000000000000e+03" nBuw="3.3971100000000000e+05" nEvuw="3.4241000000000000e+05" sepI="2.4713310599327087e-01" sepG="3.0419500732421875e+02" res="-9.9000000000000000e+01" rms="0.0000000000000000e+00" nType="0" CC="0.0000000000000000e+00">
        <Node pos="l" depth="1" Seq="0" IVar="12" Cut="1.2248660326004028e+00" cType="0" nS="1.2822926757812500e+04" nB="1.0176508789062500e+04" nEv="2.2999435546875000e+04" nSuw="6.7000000000000000e+02" nBuw="2.2100000000000000e+03" nEvuw="2.8800000000000000e+03" sepI="2.4669003486633301e-01" sepG="6.8162402343750000e+02" res="-9.9000000000000000e+01" rms="0.0000000000000000e+00" nType="0" CC="0.0000000000000000e+00">
          <Node pos="l" depth="2" Seq="0" IVar="-1" Cut="7.8121881484985352e+00" cType="0" nS="1.1876608398437500e+04" nB="6.6036943359375000e+03" nEv="1.8480302734375000e+04" nSuw="6.1300000000000000e+02" nBuw="2.0040000000000000e+03" nEvuw="2.6170000000000000e+03" sepI="2.2964724898338318e-01" sepG="-1.0000000000000000e+00" res="-9.9000000000000000e+01" rms="0.0000000000000000e+00" nType="1" CC="0.0000000000000000e+00"/>
          <Node pos="r" depth="2" Seq="2" IVar="-1" Cut="2.8952451705932617e+01" cType="1" nS="9.4631915283203125e+02" nB="3.5728146972656250e+03" nEv="4.5191337890625000e+03" nSuw="5.7000000000000000e+01" nBuw="2.0600000000000000e+02" nEvuw="2.6300000000000000e+02" sepI="1.6555325686931610e-01" sepG="-1.0000000000000000e+00" res="-9.9000000000000000e+01" rms="0.0000000000000000e+00" nType="-1" CC="0.0000000000000000e+00"/>
        </Node>
        <Node pos="r" depth="1" Seq="1" IVar="17" Cut="1.8186640739440918e-01" cType="0" nS="1.4004828125000000e+05" nB="1.7936229687500000e+05" nEv="3.1941056250000000e+05" nSuw="2.0290000000000000e+03" nBuw="3.3750100000000000e+05" nEvuw="3.3953000000000000e+05" sepI="2.4621264636516571e-01" sepG="5.3340118408203125e+02" res="-9.9000000000000000e+01" rms="0.0000000000000000e+00" nType="0" CC="0.0000000000000000e+00">
          <Node pos="l" depth="2" Seq="1" IVar="17" Cut="8.7564641237258911e-01" cType="1" nS="1.3960432812500000e+05" nB="1.7527212500000000e+05" nEv="3.1487646875000000e+05" nSuw="1.9610000000000000e+03" nBuw="3.3711700000000000e+05" nEvuw="3.3907800000000000e+05" sepI="2.4679216742515564e-01" sepG="7.1082757568359375e+02" res="-9.9000000000000000e+01" rms="0.0000000000000000e+00" nType="0" CC="0.0000000000000000e+00">
            <Node pos="l" depth="3" Seq="1" IVar="-1" Cut="0.0000000000000000e+00" cType="1" nS="1.4248925781250000e+04" nB="9.0556328125000000e+03" nEv="2.3304558593750000e+04" nSuw="4.1400000000000000e+02" nBuw="2.9390000000000000e+03" nEvuw="3.3530000000000000e+03" sepI="2.3758508265018463e-01" sepG="-1.0000000000000000e+00" res="-9.9000000000000000e+01" rms="0.0000000000000000e+00" nType="1" CC="0.0000000000000000e+00"/>
            <Node pos="r" depth="3" Seq="5" IVar="-1" Cut="0.0000000000000000e+00" cType="1" nS="1.2535540625000000e+05" nB="1.6621650000000000e+05" nEv="2.9157190625000000e+05" nSuw="1.5470000000000000e+03" nBuw="3.3417800000000000e+05" nEvuw="3.3572500000000000e+05" sepI="2.4509014189243317e-01" sepG="-1.0000000000000000e+00" res="-9.9000000000000000e+01" rms="0.0000000000000000e+00" nType="-1" CC="0.0000000000000000e+00"/>
          </Node>
          <Node pos="r" depth="2" Seq="3" IVar="-1" Cut="1.3711380958557129e+01" cType="1" nS="4.4394308471679688e+02" nB="4.0901645507812500e+03" nEv="4.5341074218750000e+03" nSuw="6.8000000000000000e+01" nBuw="3.8400000000000000e+02" nEvuw="4.5200000000000000e+02" sepI="8.8325157761573792e-02" sepG="-1.0000000000000000e+00" res="-9.9000000000000000e+01" rms="0.0000000000000000e+00" nType="-1" CC="0.0000000000000000e+00"/>
        </Node>
      </Node>
    </BinaryTree>
    <BinaryTree type="DecisionTree" boostWeight="1.9189691587668900e-01" itree="12">
      <Node pos="s" depth="0" Seq="0" IVar="10" Cut="-1.8825592994689941e+00" cType="0" nS="1.7474228125000000e+05" nB="1.6766771875000000e+05" nEv="3.4241000000000000e+05" nSuw="2.6990000000000000e+03" nBuw="3.3971100000000000e+05" nEvuw="3.4241000000000000e+05" sepI="2.4989327788352966e-01" sepG="2.2438452148437500e+02" res="-9.9000000000000000e+01" rms="0.0000000000000000e+00" nType="0" CC="0.0000000000000000e+00">
        <Node pos="l" depth="1" Seq="0" IVar="1" Cut="1.5333751440048218e+00" cType="0" nS="1.3074450781250000e+05" nB="1.1778922656250000e+05" nEv="2.4853373437500000e+05" nSuw="2.0610000000000000e+03" nBuw="2.4577400000000000e+05" nEvuw="2.4783500000000000e+05" sepI="2.4932070076465607e-01" sepG="1.6104722595214844e+02" res="-9.9000000000000000e+01" rms="0.0000000000000000e+00" nType="0" CC="0.0000000000000000e+00">
          <Node pos="l" depth="2" Seq="0" IVar="-1" Cut="1.6968731880187988e+00" cType="1" nS="1.2539003906250000e+05" nB="1.1030332031250000e+05" nEv="2.3569335937500000e+05" nSuw="2.0010000000000000e+03" nBuw="2.3283300000000000e+05" nEvuw="2.3483400000000000e+05" sepI="2.4897567927837372e-01" sepG="-1.0000000000000000e+00" res="-9.9000000000000000e+01" rms="0.0000000000000000e+00" nType="1" CC="0.0000000000000000e+00"/>
          <Node pos="r" depth="2" Seq="2" IVar="14" Cut="7.1428573131561279e-01" cType="0" nS="5.3544750976562500e+03" nB="7.4859111328125000e+03" nEv="1.2840386718750000e+04" nSuw="6.0000000000000000e+01" nBuw="1.2941000000000000e+04" nEvuw="1.3001000000000000e+04" sepI="2.4311144649982452e-01" sepG="2.8897909545898438e+02" res="-9.9000000000000000e+01" rms="0.0000000000000000e+00" nType="0" CC="0.0000000000000000e+00">
            <Node pos="l" depth="3" Seq="2" IVar="-1" Cut="0.0000000000000000e+00" cType="1" nS="4.8292177734375000e+03" nB="4.7384858398437500e+03" nEv="9.5677031250000000e+03" nSuw="4.3000000000000000e+01" nBuw="1.0244000000000000e+04" nEvuw="1.0287000000000000e+04" sepI="2.4997751414775848e-01" sepG="-1.0000000000000000e+00" res="-9.9000000000000000e+01" rms="0.0000000000000000e+00" nType="1" CC="0.0000000000000000e+00"/>
            <Node pos="r" depth="3" Seq="6" IVar="-1" Cut="0.0000000000000000e+00" cType="1" nS="5.2525762939453125e+02" nB="2.7474257812500000e+03" nEv="3.2726833496093750e+03" nSuw="1.7000000000000000e+01" nBuw="2.6970000000000000e+03" nEvuw="2.7140000000000000e+03" sepI="1.3473807275295258e-01" sepG="-1.0000000000000000e+00" res="-9.9000000000000000e+01" rms="0.0000000000000000e+00" nType="-1" CC="0.0000000000000000e+00"/>
          </Node>
        </Node>
        <Node pos="r" depth="1" Seq="1" IVar="3" Cut="1.4285714924335480e-01" cType="0" nS="4.3997769531250000e+04" nB="4.9878492187500000e+04" nEv="9.3876265625000000e+04" nSuw="6.3800000000000000e+02" nBuw="9.3937000000000000e+04" nEvuw="9.4575000000000000e+04" sepI="2.4901895225048065e-01" sepG="3.2843817138671875e+02" res="-9.9000000000000000e+01" rms="0.0000000000000000e+00" nType="0" CC="0.0000000000000000e+00">
          <Node pos="l" depth="2" Seq="1" IVar="-1" Cut="2.4314203262329102e+00" cType="0" nS="7.6799511718750000e+03" nB="4.6980302734375000e+03" nEv="1.2377981445312500e+04" nSuw="1.2800000000000000e+02" nBuw="7.4350000000000000e+03" nEvuw="7.5630000000000000e+03" sepI="2.3549117147922516e-01" sepG="-1.0000000000000000e+00" res="-9.9000000000000000e+01" rms="0.0000000000000000e+00" nType="1" CC="0.0000000000000000e+00"/>
          <Node pos="r" depth="2" Seq="3" IVar="9" Cut="5.3045301437377930e+00" cType="1" nS="3.6317820312500000e+04" nB="4.5180460937500000e+04" nEv="8.1498281250000000e+04" nSuw="5.1000000000000000e+02" nBuw="8.6502000000000000e+04" nEvuw="8.7012000000000000e+04" sepI="2.4704355001449585e-01" sepG="2.3084899902343750e+02" res="-9.9000000000000000e+01" rms="0.0000000000000000e+00" nType="0" CC="0.0000000000000000e+00">
            <Node pos="l" depth="3" Seq="3" IVar="-1" Cut="0.0000000000000000e+00" cType="1" nS="5.7367285156250000e+03" nB="3.9821875000000000e+03" nEv="9.7189160156250000e+03" nSuw="1.4000000000000000e+02" nBuw="2.1360000000000000e+03" nEvuw="2.2760000000000000e+03" sepI="2.4185237288475037e-01" sepG="-1.0000000000000000e+00" res="-9.9000000000000000e+01" rms="0.0000000000000000e+00" nType="1" CC="0.0000000000000000e+00"/>
            <Node pos="r" depth="3" Seq="7" IVar="-1" Cut="0.0000000000000000e+00" cType="1" nS="3.0581091796875000e+04" nB="4.1198273437500000e+04" nEv="7.1779367187500000e+04" nSuw="3.7000000000000000e+02" nBuw="8.4366000000000000e+04" nEvuw="8.4736000000000000e+04" sepI="2.4453034996986389e-01" sepG="-1.0000000000000000e+00" res="-9.9000000000000000e+01" rms="0.0000000000000000e+00" nType="-1" CC="0.0000000000000000e+00"/>
          </Node>
        </Node>
      </Node>
    </BinaryTree>
    <BinaryTree type="DecisionTree" boostWeight="3.5219149437055386e-01" itree="13">
      <Node pos="s" depth="0" Seq="0" IVar="18" Cut="1.2821772694587708e-01" cType="1" nS="1.6549248437500000e+05" nB="1.7691751562500000e+05" nEv="3.4241000000000000e+05" nSuw="2.6990000000000000e+03" nBuw="3.3971100000000000e+05" nEvuw="3.4241000000000000e+05" sepI="2.4972167611122131e-01" sepG="1.4315853881835938e+02" res="-9.9000000000000000e+01" rms="0.0000000000000000e+00" nType="0" CC="0.0000000000000000e+00">
        <Node pos="l" depth="1" Seq="0" IVar="17" Cut="7.4931609630584717e-01" cType="1" nS="1.4174654687500000e+05" nB="1.4623564062500000e+05" nEv="2.8798218750000000e+05" nSuw="1.2670000000000000e+03" nBuw="3.3580600000000000e+05" nEvuw="3.3707300000000000e+05" sepI="2.4993924796581268e-01" sepG="6.6560235595703125e+02" res="-9.9000000000000000e+01" rms="0.0000000000000000e+00" nType="0" CC="0.0000000000000000e+00">
          <Node pos="l" depth="2" Seq="0" IVar="1" Cut="1.5316102504730225e+00" cType="0" nS="4.3533046875000000e+03" nB="7.7216046142578125e+02" nEv="5.1254648437500000e+03" nSuw="3.2000000000000000e+01" nBuw="1.2830000000000000e+03" nEvuw="1.3150000000000000e+03" sepI="1.2795582413673401e-01" sepG="9.2953453063964844e+01" res="-9.9000000000000000e+01" rms="0.0000000000000000e+00" nType="0" CC="0.0000000000000000e+00">
            <Node pos="l" depth="3" Seq="0" IVar="-1" Cut="0.0000000000000000e+00" cType="1" nS="4.1844316406250000e+03" nB="5.1876055908203125e+02" nEv="4.7031923828125000e+03" nSuw="3.0000000000000000e+01" nBuw="6.9100000000000000e+02" nEvuw="7.2100000000000000e+02" sepI="9.8133653402328491e-02" sepG="-1.0000000000000000e+00" res="-9.9000000000000000e+01" rms="0.0000000000000000e+00" nType="1" CC="0.0000000000000000e+00"/>
            <Node pos="r" depth="3" Seq="4" IVar="-1" Cut="0.0000000000000000e+00" cType="1" nS="1.6887289428710938e+02" nB="2.5339991760253906e+02" nEv="4.2227282714843750e+02" nSuw="2.0000000000000000e+00" nBuw="5.9200000000000000e+02" nEvuw="5.9400000000000000e+02" sepI="2.3998282849788666e-01" sepG="-1.0000000000000000e+00" res="-9.9000000000000000e+01" rms="0.0000000000000000e+00" nType="-1" CC="0.0000000000000000e+00"/>
          </Node>
          <Node pos="r" depth="2" Seq="2" IVar="12" Cut="3.5680473327636719e+01" cType="1" nS="1.3739325000000000e+05" nB="1.4546346875000000e+05" nEv="2.8285671875000000e+05" nSuw="1.2350000000000000e+03" nBuw="3.3452300000000000e+05" nEvuw="3.3575800000000000e+05" sepI="2.4979649484157562e-01" sepG="4.5756738281250000e+02" res="-9.9000000000000000e+01" rms="0.0000000000000000e+00" nType="0" CC="0.0000000000000000e+00">
            <Node pos="l" depth="3" Seq="2" IVar="-1" Cut="0.0000000000000000e+00" cType="1" nS="9.0254312500000000e+04" nB="8.4168148437500000e+04" nEv="1.7442245312500000e+05" nSuw="9.3500000000000000e+02" nBuw="1.2162700000000000e+05" nEvuw="1.2256200000000000e+05" sepI="2.4969561398029327e-01" sepG="-1.0000000000000000e+00" res="-9.9000000000000000e+01" rms="0.0000000000000000e+00" nType="1" CC="0.0000000000000000e+00"/>
            <Node pos="r" depth="3" Seq="6" IVar="-1" Cut="0.0000000000000000e+00" cType="1" nS="4.7138929687500000e+04" nB="6.1295324218750000e+04" nEv="1.0843425781250000e+05" nSuw="3.0000000000000000e+02" nBuw="2.1289600000000000e+05" nEvuw="2.1319600000000000e+05" sepI="2.4573899805545807e-01" sepG="-1.0000000000000000e+00" res="-9.9000000000000000e+01" rms="0.0000000000000000e+00" nType="-1" CC="0.0000000000000000e+00"/>
          </Node>
        </Node>
        <Node pos="r" depth="1" Seq="1" IVar="9" Cut="7.7938480377197266e+00" cType="0" nS="2.3745943359375000e+04" nB="3.0681876953125000e+04" nEv="5.4427820312500000e+04" nSuw="1.4320000000000000e+03" nBuw="3.9050000000000000e+03" nEvuw="5.3370000000000000e+03" sepI="2.4594016373157501e-01" sepG="3.6330131835937500e+03" res="-9.9000000000000000e+01" rms="0.0000000000000000e+00" nType="0" CC="0.0000000000000000e+00">
          <Node pos="l" depth="2" Seq="1" IVar="-1" Cut="3.3847980499267578e+01" cType="1" nS="1.6485025390625000e+04" nB="5.4864106445312500e+03" nEv="2.1971435546875000e+04" nSuw="3.5100000000000000e+02" nBuw="2.8900000000000000e+03" nEvuw="3.2410000000000000e+03" sepI="1.8735317885875702e-01" sepG="-1.0000000000000000e+00" res="-9.9000000000000000e+01" rms="0.0000000000000000e+00" nType="1" CC="0.0000000000000000e+00"/>
          <Node pos="r" depth="2" Seq="3" IVar="14" Cut="8.0952382087707520e-01" cType="0" nS="7.2609184570312500e+03" nB="2.5195464843750000e+04" nEv="3.2456384765625000e+04" nSuw="1.0810000000000000e+03" nBuw="1.0150000000000000e+03" nEvuw="2.0960000000000000e+03" sepI="1.7366555333137512e-01" sepG="2.5210915527343750e+03" res="-9.9000000000000000e+01" rms="0.0000000000000000e+00" nType="0" CC="0.0000000000000000e+00">
            <Node pos="l" depth="3" Seq="3" IVar="-1" Cut="0.0000000000000000e+00" cType="1" nS="5.6854897460937500e+03" nB="2.3077897949218750e+03" nEv="7.9932792968750000e+03" nSuw="2.2600000000000000e+02" nBuw="6.2400000000000000e+02" nEvuw="8.5000000000000000e+02" sepI="2.0535919070243835e-01" sepG="-1.0000000000000000e+00" res="-9.9000000000000000e+01" rms="0.0000000000000000e+00" nType="1" CC="0.0000000000000000e+00"/>
            <Node pos="r" depth="3" Seq="7" IVar="-1" Cut="0.0000000000000000e+00" cType="1" nS="1.5754288330078125e+03" nB="2.2887675781250000e+04" nEv="2.4463103515625000e+04" nSuw="8.5500000000000000e+02" nBuw="3.9100000000000000e+02" nEvuw="1.2460000000000000e+03" sepI="6.0252815485000610e-02" sepG="-1.0000000000000000e+00" res="-9.9000000000000000e+01" rms="0.0000000000000000e+00" nType="-1" CC="0.0000000000000000e+00"/>
          </Node>
        </Node>
      </Node>
    </BinaryTree>
    <BinaryTree type="DecisionTree" boostWeight="2.5315883086299212e-01" itree="14">
      <Node pos="s" depth="0" Seq="0" IVar="12" Cut="3.0859472274780273e+01" cType="0" nS="1.5850328125000000e+05" nB="1.8390671875000000e+05" nEv="3.4241000000000000e+05" nSuw="2.6990000000000000e+03" nBuw="3.3971100000000000e+05" nEvuw="3.4241000000000000e+05" sepI="2.4862395226955414e-01" sepG="6.9452777099609375e+02" res="-9.9000000000000000e+01" rms="0.0000000000000000e+00" nType="0" CC="0.0000000000000000e+00">
        <Node pos="l" depth="1" Seq="0" IVar="13" Cut="4.7619048506021500e-02" cType="0" nS="8.6634656250000000e+04" nB="8.3862828125000000e+04" nEv="1.7049748437500000e+05" nSuw="7.7100000000000000e+02" nBuw="2.5596700000000000e+05" nEvuw="2.5673800000000000e+05" sepI="2.4993392825126648e-01" sepG="1.9296101379394531e+02" res="-9.9000000000000000e+01" rms="0.0000000000000000e+00" nType="0" CC="0.0000000000000000e+00">
          <Node pos="l" depth="2" Seq="0" IVar="-1" Cut="1.0501289367675781e+02" cType="0" nS="8.6297843750000000e+04" nB="8.2375437500000000e+04" nEv="1.6867328125000000e+05" nSuw="7.3400000000000000e+02" nBuw="2.5563300000000000e+05" nEvuw="2.5636700000000000e+05" sepI="2.4986480176448822e-01" sepG="-1.0000000000000000e+00" res="-9.9000000000000000e+01" rms="0.0000000000000000e+00" nType="1" CC="0.0000000000000000e+00"/>
          <Node pos="r" depth="2" Seq="2" IVar="18" Cut="1.2800219655036926e-01" cType="1" nS="3.3681561279296875e+02" nB="1.4873852539062500e+03" nEv="1.8242008056640625e+03" nSuw="3.7000000000000000e+01" nBuw="3.3400000000000000e+02" nEvuw="3.7100000000000000e+02" sepI="1.5054640173912048e-01" sepG="1.1269256591796875e+02" res="-9.9000000000000000e+01" rms="0.0000000000000000e+00" nType="0" CC="0.0000000000000000e+00">
            <Node pos="l" depth="3" Seq="2" IVar="-1" Cut="0.0000000000000000e+00" cType="1" nS="2.5772155761718750e+02" nB="1.3179324340820312e+02" nEv="3.8951480102539062e+02" nSuw="1.0000000000000000e+00" nBuw="1.3100000000000000e+02" nEvuw="1.3200000000000000e+02" sepI="2.2387003898620605e-01" sepG="-1.0000000000000000e+00" res="-9.9000000000000000e+01" rms="0.0000000000000000e+00" nType="1" CC="0.0000000000000000e+00"/>
            <Node pos="r" depth="3" Seq="6" IVar="-1" Cut="0.0000000000000000e+00" cType="1" nS="7.9094047546386719e+01" nB="1.3555919189453125e+03" nEv="1.4346860351562500e+03" nSuw="3.6000000000000000e+01" nBuw="2.0300000000000000e+02" nEvuw="2.3900000000000000e+02" sepI="5.2090562880039215e-02" sepG="-1.0000000000000000e+00" res="-9.9000000000000000e+01" rms="0.0000000000000000e+00" nType="-1" CC="0.0000000000000000e+00"/>
          </Node>
        </Node>
        <Node pos="r" depth="1" Seq="1" IVar="9" Cut="6.3866672515869141e+00" cType="1" nS="7.1868625000000000e+04" nB="1.0004389843750000e+05" nEv="1.7191251562500000e+05" nSuw="1.9280000000000000e+03" nBuw="8.3744000000000000e+04" nEvuw="8.5672000000000000e+04" sepI="2.4328476190567017e-01" sepG="2.5916412353515625e+02" res="-9.9000000000000000e+01" rms="0.0000000000000000e+00" nType="0" CC="0.0000000000000000e+00">
          <Node pos="l" depth="2" Seq="1" IVar="14" Cut="9.0476191043853760e-01" cType="0" nS="2.3837822265625000e+04" nB="2.5941425781250000e+04" nEv="4.9779250000000000e+04" nSuw="9.8000000000000000e+02" nBuw="1.2538000000000000e+04" nEvuw="1.3518000000000000e+04" sepI="2.4955354630947113e-01" sepG="5.1270947265625000e+02" res="-9.9000000000000000e+01" rms="0.0000000000000000e+00" nType="0" CC="0.0000000000000000e+00">
            <Node pos="l" depth="3" Seq="1" IVar="-1" Cut="0.0000000000000000e+00" cType="1" nS="1.3818973632812500e+04" nB="9.7707802734375000e+03" nEv="2.3589753906250000e+04" nSuw="2.2700000000000000e+02" nBuw="7.7040000000000000e+03" nEvuw="7.9310000000000000e+03" sepI="2.4263766407966614e-01" sepG="-1.0000000000000000e+00" res="-9.9000000000000000e+01" rms="0.0000000000000000e+00" nType="1" CC="0.0000000000000000e+00"/>
            <Node pos="r" depth="3" Seq="5" IVar="-1" Cut="0.0000000000000000e+00" cType="1" nS="1.0018847656250000e+04" nB="1.6170645507812500e+04" nEv="2.6189494140625000e+04" nSuw="7.5300000000000000e+02" nBuw="4.8340000000000000e+03" nEvuw="5.5870000000000000e+03" sepI="2.3620600998401642e-01" sepG="-1.0000000000000000e+00" res="-9.9000000000000000e+01" rms="0.0000000000000000e+00" nType="-1" CC="0.0000000000000000e+00"/>
          </Node>
          <Node pos="r" depth="2" Seq="3" IVar="17" Cut="9.7288542985916138e-01" cType="1" nS="4.8030800781250000e+04" nB="7.4102468750000000e+04" nEv="1.2213327343750000e+05" nSuw="9.4800000000000000e+02" nBuw="7.1206000000000000e+04" nEvuw="7.2154000000000000e+04" sepI="2.3860774934291840e-01" sepG="6.0316290283203125e+02" res="-9.9000000000000000e+01" rms="0.0000000000000000e+00" nType="0" CC="0.0000000000000000e+00">
            <Node pos="l" depth="3" Seq="3" IVar="-1" Cut="0.0000000000000000e+00" cType="1" nS="1.6230928710937500e+04" nB="1.5473148437500000e+04" nEv="3.1704076171875000e+04" nSuw="5.2500000000000000e+02" nBuw="4.0980000000000000e+03" nEvuw="4.6230000000000000e+03" sepI="2.4985717236995697e-01" sepG="-1.0000000000000000e+00" res="-9.9000000000000000e+01" rms="0.0000000000000000e+00" nType="1" CC="0.0000000000000000e+00"/>
            <Node pos="r" depth="3" Seq="7" IVar="-1" Cut="0.0000000000000000e+00" cType="1" nS="3.1799871093750000e+04" nB="5.8629320312500000e+04" nEv="9.0429195312500000e+04" nSuw="4.2300000000000000e+02" nBuw="6.7108000000000000e+04" nEvuw="6.7531000000000000e+04" sepI="2.2799374163150787e-01" sepG="-1.0000000000000000e+00" res="-9.9000000000000000e+01" rms="0.0000000000000000e+00" nType="-1" CC="0.0000000000000000e+00"/>
          </Node>
        </Node>
      </Node>
    </BinaryTree>
    <BinaryTree type="DecisionTree" boostWeight="3.1696805957993085e-01" itree="15">
      <Node pos="s" depth="0" Seq="0" IVar="6" Cut="-9.3546394348144531e+01" cType="1" nS="1.5149868750000000e+05" nB="1.9091131250000000e+05" nEv="3.4241000000000000e+05" nSuw="2.6990000000000000e+03" nBuw="3.3971100000000000e+05" nEvuw="3.4241000000000000e+05" sepI="2.4668778479099274e-01" sepG="2.0624392700195312e+02" res="-9.9000000000000000e+01" rms="0.0000000000000000e+00" nType="0" CC="0.0000000000000000e+00">
        <Node pos="l" depth="1" Seq="0" IVar="5" Cut="5.0988769531250000e-01" cType="1" nS="3.9662360839843750e+03" nB="2.4270803222656250e+03" nEv="6.3933164062500000e+03" nSuw="8.7000000000000000e+01" nBuw="4.2390000000000000e+03" nEvuw="4.3260000000000000e+03" sepI="2.3551052808761597e-01" sepG="2.3657748413085938e+02" res="-9.9000000000000000e+01" rms="0.0000000000000000e+00" nType="0" CC="0.0000000000000000e+00">
          <Node pos="l" depth="2" Seq="0" IVar="1" Cut="2.1016807556152344e+00" cType="0" nS="2.9275356445312500e+03" nB="8.1479693603515625e+02" nEv="3.7423325195312500e+03" nSuw="6.8000000000000000e+01" nBuw="1.6280000000000000e+03" nEvuw="1.6960000000000000e+03" sepI="1.7032046616077423e-01" sepG="1.4424327087402344e+02" res="-9.9000000000000000e+01" rms="0.0000000000000000e+00" nType="0" CC="0.0000000000000000e+00">
            <Node pos="l" depth="3" Seq="0" IVar="-1" Cut="0.0000000000000000e+00" cType="1" nS="2.8751437988281250e+03" nB="5.3202563476562500e+02" nEv="3.4071694335937500e+03" nSuw="5.5000000000000000e+01" nBuw="1.0540000000000000e+03" nEvuw="1.1090000000000000e+03" sepI="1.3176639378070831e-01" sepG="-1.0000000000000000e+00" res="-9.9000000000000000e+01" rms="0.0000000000000000e+00" nType="1" CC="0.0000000000000000e+00"/>
            <Node pos="r" depth="3" Seq="4" IVar="-1" Cut="0.0000000000000000e+00" cType="1" nS="5.2391860961914062e+01" nB="2.8277130126953125e+02" nEv="3.3516317749023438e+02" nSuw="1.3000000000000000e+01" nBuw="5.7400000000000000e+02" nEvuw="5.8700000000000000e+02" sepI="1.3188232481479645e-01" sepG="-1.0000000000000000e+00" res="-9.9000000000000000e+01" rms="0.0000000000000000e+00" nType="-1" CC="0.0000000000000000e+00"/>
          </Node>
          <Node pos="r" depth="2" Seq="2" IVar="0" Cut="3.0976989746093750e+01" cType="1" nS="1.0387004394531250e+03" nB="1.6122833251953125e+03" nEv="2.6509838867187500e+03" nSuw="1.9000000000000000e+01" nBuw="2.6110000000000000e+03" nEvuw="2.6300000000000000e+03" sepI="2.3829643428325653e-01" sepG="1.2178433227539062e+02" res="-9.9000000000000000e+01" rms="0.0000000000000000e+00" nType="0" CC="0.0000000000000000e+00">
            <Node pos="l" depth="3" Seq="2" IVar="-1" Cut="0.0000000000000000e+00" cType="1" nS="9.8802142333984375e+02" nB="8.6951354980468750e+02" nEv="1.8575350341796875e+03" nSuw="1.5000000000000000e+01" nBuw="8.5800000000000000e+02" nEvuw="8.7300000000000000e+02" sepI="2.4898244440555573e-01" sepG="-1.0000000000000000e+00" res="-9.9000000000000000e+01" rms="0.0000000000000000e+00" nType="1" CC="0.0000000000000000e+00"/>
            <Node pos="r" depth="3" Seq="6" IVar="-1" Cut="0.0000000000000000e+00" cType="1" nS="5.0679016113281250e+01" nB="7.4276977539062500e+02" nEv="7.9344879150390625e+02" nSuw="4.0000000000000000e+00" nBuw="1.7530000000000000e+03" nEvuw="1.7570000000000000e+03" sepI="5.9792205691337585e-02" sepG="-1.0000000000000000e+00" res="-9.9000000000000000e+01" rms="0.0000000000000000e+00" nType="-1" CC="0.0000000000000000e+00"/>
          </Node>
        </Node>
        <Node pos="r" depth="1" Seq="1" IVar="6" Cut="7.3932337760925293e-01" cType="1" nS="1.4753245312500000e+05" nB="1.8848423437500000e+05" nEv="3.3601668750000000e+05" nSuw="2.6120000000000000e+03" nBuw="3.3547200000000000e+05" nEvuw="3.3808400000000000e+05" sepI="2.4628666043281555e-01" sepG="6.9982611083984375e+02" res="-9.9000000000000000e+01" rms="0.0000000000000000e+00" nType="0" CC="0.0000000000000000e+00">
          <Node pos="l" depth="2" Seq="1" IVar="1" Cut="1.8637359142303467e+00" cType="1" nS="5.1070640625000000e+04" nB="4.9263101562500000e+04" nEv="1.0033374218750000e+05" nSuw="8.7800000000000000e+02" nBuw="7.8513000000000000e+04" nEvuw="7.9391000000000000e+04" sepI="2.4991886317729950e-01" sepG="1.8959031677246094e+02" res="-9.9000000000000000e+01" rms="0.0000000000000000e+00" nType="0" CC="0.0000000000000000e+00">
            <Node pos="l" depth="3" Seq="1" IVar="-1" Cut="0.0000000000000000e+00" cType="1" nS="1.9360855468750000e+04" nB="1.4620451171875000e+04" nEv="3.3981304687500000e+04" nSuw="3.6400000000000000e+02" nBuw="2.2566000000000000e+04" nEvuw="2.2930000000000000e+04" sepI="2.4513491988182068e-01" sepG="-1.0000000000000000e+00" res="-9.9000000000000000e+01" rms="0.0000000000000000e+00" nType="1" CC="0.0000000000000000e+00"/>
            <Node pos="r" depth="3" Seq="5" IVar="-1" Cut="0.0000000000000000e+00" cType="1" nS="3.1709785156250000e+04" nB="3.4642652343750000e+04" nEv="6.6352437500000000e+04" nSuw="5.1400000000000000e+02" nBuw="5.5947000000000000e+04" nEvuw="5.6461000000000000e+04" sepI="2.4951155483722687e-01" sepG="-1.0000000000000000e+00" res="-9.9000000000000000e+01" rms="0.0000000000000000e+00" nType="-1" CC="0.0000000000000000e+00"/>
          </Node>
          <Node pos="r" depth="2" Seq="3" IVar="-1" Cut="9.6500885486602783e-01" cType="1" nS="9.6461804687500000e+04" nB="1.3922114062500000e+05" nEv="2.3568293750000000e+05" nSuw="1.7340000000000000e+03" nBuw="2.5695900000000000e+05" nEvuw="2.5869300000000000e+05" sepI="2.4177102744579315e-01" sepG="-1.0000000000000000e+00" res="-9.9000000000000000e+01" rms="0.0000000000000000e+00" nType="-1" CC="0.0000000000000000e+00"/>
        </Node>
      </Node>
    </BinaryTree>
    <BinaryTree type="DecisionTree" boostWeight="6.4339107672371013e-02" itree="16">
      <Node pos="s" depth="0" Seq="0" IVar="18" Cut="9.6500885486602783e-01" cType="1" nS="1.7226490625000000e+05" nB="1.7014509375000000e+05" nEv="3.4241000000000000e+05" nSuw="2.6990000000000000e+03" nBuw="3.3971100000000000e+05" nEvuw="3.4241000000000000e+05" sepI="2.4999041855335236e-01" sepG="1.8773548889160156e+02" res="-9.9000000000000000e+01" rms="0.0000000000000000e+00" nType="0" CC="0.0000000000000000e+00">
        <Node pos="l" depth="1" Seq="0" IVar="0" Cut="1.0501289367675781e+02" cType="0" nS="1.7108307812500000e+05" nB="1.6724903125000000e+05" nEv="3.3833209375000000e+05" nSuw="2.4800000000000000e+03" nBuw="3.3967200000000000e+05" nEvuw="3.4215200000000000e+05" sepI="2.4996788799762726e-01" sepG="1.6351515197753906e+02" res="-9.9000000000000000e+01" rms="0.0000000000000000e+00" nType="0" CC="0.0000000000000000e+00">
          <Node pos="l" depth="2" Seq="0" IVar="10" Cut="1.7737631797790527e+00" cType="1" nS="1.5941717529296875e+03" nB="4.2540551757812500e+02" nEv="2.0195772705078125e+03" nSuw="5.0000000000000000e+00" nBuw="1.2260000000000000e+03" nEvuw="1.2310000000000000e+03" sepI="1.6627129912376404e-01" sepG="1.3065884399414062e+02" res="-9.9000000000000000e+01" rms="0.0000000000000000e+00" nType="0" CC="0.0000000000000000e+00">
            <Node pos="l" depth="3" Seq="0" IVar="-1" Cut="0.0000000000000000e+00" cType="1" nS="1.5941717529296875e+03" nB="2.3543473815917969e+02" nEv="1.8296064453125000e+03" nSuw="5.0000000000000000e+00" nBuw="8.6400000000000000e+02" nEvuw="8.6900000000000000e+02" sepI="1.1212185770273209e-01" sepG="-1.0000000000000000e+00" res="-9.9000000000000000e+01" rms="0.0000000000000000e+00" nType="1" CC="0.0000000000000000e+00"/>
            <Node pos="r" depth="3" Seq="4" IVar="-1" Cut="0.0000000000000000e+00" cType="1" nS="0.0000000000000000e+00" nB="1.8997076416015625e+02" nEv="1.8997076416015625e+02" nSuw="0.0000000000000000e+00" nBuw="3.6200000000000000e+02" nEvuw="3.6200000000000000e+02" sepI="0.0000000000000000e+00" sepG="-1.0000000000000000e+00" res="-9.9000000000000000e+01" rms="0.0000000000000000e+00" nType="-1" CC="0.0000000000000000e+00"/>
          </Node>
          <Node pos="r" depth="2" Seq="2" IVar="0" Cut="5.0334022521972656e+01" cType="0" nS="1.6948890625000000e+05" nB="1.6682362500000000e+05" nEv="3.3631253125000000e+05" nSuw="2.4750000000000000e+03" nBuw="3.3844600000000000e+05" nEvuw="3.4092100000000000e+05" sepI="2.4998429417610168e-01" sepG="2.3406034851074219e+02" res="-9.9000000000000000e+01" rms="0.0000000000000000e+00" nType="0" CC="0.0000000000000000e+00">
            <Node pos="l" depth="3" Seq="2" IVar="-1" Cut="0.0000000000000000e+00" cType="1" nS="1.4111288085937500e+04" nB="9.4001904296875000e+03" nEv="2.3511478515625000e+04" nSuw="6.6000000000000000e+01" nBuw="4.3566000000000000e+04" nEvuw="4.3632000000000000e+04" sepI="2.3996253311634064e-01" sepG="-1.0000000000000000e+00" res="-9.9000000000000000e+01" rms="0.0000000000000000e+00" nType="1" CC="0.0000000000000000e+00"/>
            <Node pos="r" depth="3" Seq="6" IVar="-1" Cut="0.0000000000000000e+00" cType="1" nS="1.5537760937500000e+05" nB="1.5742343750000000e+05" nEv="3.1280106250000000e+05" nSuw="2.4090000000000000e+03" nBuw="2.9488000000000000e+05" nEvuw="2.9728900000000000e+05" sepI="2.4998930096626282e-01" sepG="-1.0000000000000000e+00" res="-9.9000000000000000e+01" rms="0.0000000000000000e+00" nType="-1" CC="0.0000000000000000e+00"/>
          </Node>
        </Node>
        <Node pos="r" depth="1" Seq="1" IVar="17" Cut="9.5488166809082031e-01" cType="1" nS="1.1818289794921875e+03" nB="2.8960634765625000e+03" nEv="4.0778923339843750e+03" nSuw="2.1900000000000000e+02" nBuw="3.9000000000000000e+01" nEvuw="2.5800000000000000e+02" sepI="2.0582170784473419e-01" sepG="3.2311740112304688e+02" res="-9.9000000000000000e+01" rms="0.0000000000000000e+00" nType="0" CC="0.0000000000000000e+00">
          <Node pos="l" depth="2" Seq="1" IVar="-1" Cut="0.0000000000000000e+00" cType="1" nS="9.6001092529296875e+02" nB="4.6425323486328125e+02" nEv="1.4242641601562500e+03" nSuw="1.4700000000000000e+02" nBuw="3.0000000000000000e+00" nEvuw="1.5000000000000000e+02" sepI="2.1971009671688080e-01" sepG="-1.0000000000000000e+00" res="-9.9000000000000000e+01" rms="0.0000000000000000e+00" nType="1" CC="0.0000000000000000e+00"/>
          <Node pos="r" depth="2" Seq="3" IVar="-1" Cut="0.0000000000000000e+00" cType="1" nS="2.2181800842285156e+02" nB="2.4318100585937500e+03" nEv="2.6536281738281250e+03" nSuw="7.2000000000000000e+01" nBuw="3.6000000000000000e+01" nEvuw="1.0800000000000000e+02" sepI="7.6603092253208160e-02" sepG="-1.0000000000000000e+00" res="-9.9000000000000000e+01" rms="0.0000000000000000e+00" nType="-1" CC="0.0000000000000000e+00"/>
        </Node>
      </Node>
    </BinaryTree>
    <BinaryTree type="DecisionTree" boostWeight="2.1138076665137454e-01" itree="17">
      <Node pos="s" depth="0" Seq="0" IVar="18" Cut="9.6500885486602783e-01" cType="1" nS="1.7691576562500000e+05" nB="1.6549423437500000e+05" nEv="3.4241000000000000e+05" nSuw="2.6990000000000000e+03" nBuw="3.3971100000000000e+05" nEvuw="3.4241000000000000e+05" sepI="2.4972184002399445e-01" sepG="2.0736166381835938e+02" res="-9.9000000000000000e+01" rms="0.0000000000000000e+00" nType="0" CC="0.0000000000000000e+00">
        <Node pos="l" depth="1" Seq="0" IVar="16" Cut="3.3743765950202942e-01" cType="0" nS="1.7575648437500000e+05" nB="1.6265851562500000e+05" nEv="3.3841500000000000e+05" nSuw="2.4800000000000000e+03" nBuw="3.3967200000000000e+05" nEvuw="3.4215200000000000e+05" sepI="2.4962550401687622e-01" sepG="1.3927250671386719e+02" res="-9.9000000000000000e+01" rms="0.0000000000000000e+00" nType="0" CC="0.0000000000000000e+00">
          <Node pos="l" depth="2" Seq="0" IVar="11" Cut="1.5312665700912476e+00" cType="0" nS="7.8463666992187500e+03" nB="4.7584243164062500e+03" nEv="1.2604791015625000e+04" nSuw="4.2100000000000000e+02" nBuw="4.3510000000000000e+03" nEvuw="4.7720000000000000e+03" sepI="2.3499600589275360e-01" sepG="2.8923767089843750e+02" res="-9.9000000000000000e+01" rms="0.0000000000000000e+00" nType="0" CC="0.0000000000000000e+00">
            <Node pos="l" depth="3" Seq="0" IVar="-1" Cut="0.0000000000000000e+00" cType="1" nS="7.7541958007812500e+03" nB="3.8878154296875000e+03" nEv="1.1642011718750000e+04" nSuw="4.0800000000000000e+02" nBuw="3.0070000000000000e+03" nEvuw="3.4150000000000000e+03" sepI="2.2242642939090729e-01" sepG="-1.0000000000000000e+00" res="-9.9000000000000000e+01" rms="0.0000000000000000e+00" nType="1" CC="0.0000000000000000e+00"/>
            <Node pos="r" depth="3" Seq="4" IVar="-1" Cut="0.0000000000000000e+00" cType="1" nS="9.2170738220214844e+01" nB="8.7060894775390625e+02" nEv="9.6277966308593750e+02" nSuw="1.3000000000000000e+01" nBuw="1.3440000000000000e+03" nEvuw="1.3570000000000000e+03" sepI="8.6568996310234070e-02" sepG="-1.0000000000000000e+00" res="-9.9000000000000000e+01" rms="0.0000000000000000e+00" nType="-1" CC="0.0000000000000000e+00"/>
          </Node>
          <Node pos="r" depth="2" Seq="2" IVar="16" Cut="1.6066988930106163e-02" cType="0" nS="1.6791010937500000e+05" nB="1.5790009375000000e+05" nEv="3.2581018750000000e+05" nSuw="2.0590000000000000e+03" nBuw="3.3532100000000000e+05" nEvuw="3.3738000000000000e+05" sepI="2.4976401031017303e-01" sepG="7.6632403564453125e+02" res="-9.9000000000000000e+01" rms="0.0000000000000000e+00" nType="0" CC="0.0000000000000000e+00">
            <Node pos="l" depth="3" Seq="2" IVar="-1" Cut="0.0000000000000000e+00" cType="1" nS="7.4305078125000000e+04" nB="5.4877269531250000e+04" nEv="1.2918234375000000e+05" nSuw="1.0580000000000000e+03" nBuw="8.0903000000000000e+04" nEvuw="8.1961000000000000e+04" sepI="2.4434566497802734e-01" sepG="-1.0000000000000000e+00" res="-9.9000000000000000e+01" rms="0.0000000000000000e+00" nType="1" CC="0.0000000000000000e+00"/>
            <Node pos="r" depth="3" Seq="6" IVar="-1" Cut="0.0000000000000000e+00" cType="1" nS="9.3605031250000000e+04" nB="1.0302282031250000e+05" nEv="1.9662785937500000e+05" nSuw="1.0010000000000000e+03" nBuw="2.5441800000000000e+05" nEvuw="2.5541900000000000e+05" sepI="2.4942648410797119e-01" sepG="-1.0000000000000000e+00" res="-9.9000000000000000e+01" rms="0.0000000000000000e+00" nType="-1" CC="0.0000000000000000e+00"/>
          </Node>
        </Node>
        <Node pos="r" depth="1" Seq="1" IVar="2" Cut="-9.3864830017089844e+01" cType="1" nS="1.1592886962890625e+03" nB="2.8357224121093750e+03" nEv="3.9950112304687500e+03" nSuw="2.1900000000000000e+02" nBuw="3.9000000000000000e+01" nEvuw="2.5800000000000000e+02" sepI="2.0597729086875916e-01" sepG="3.1102151489257812e+02" res="-9.9000000000000000e+01" rms="0.0000000000000000e+00" nType="0" CC="0.0000000000000000e+00">
          <Node pos="l" depth="2" Seq="1" IVar="-1" Cut="0.0000000000000000e+00" cType="1" nS="9.8265936279296875e+02" nB="5.3843731689453125e+02" nEv="1.5210966796875000e+03" nSuw="1.5700000000000000e+02" nBuw="3.0000000000000000e+00" nEvuw="1.6000000000000000e+02" sepI="2.2867806255817413e-01" sepG="-1.0000000000000000e+00" res="-9.9000000000000000e+01" rms="0.0000000000000000e+00" nType="1" CC="0.0000000000000000e+00"/>
          <Node pos="r" depth="2" Seq="3" IVar="-1" Cut="0.0000000000000000e+00" cType="1" nS="1.7662933349609375e+02" nB="2.2972851562500000e+03" nEv="2.4739143066406250e+03" nSuw="6.2000000000000000e+01" nBuw="3.6000000000000000e+01" nEvuw="9.8000000000000000e+01" sepI="6.6299214959144592e-02" sepG="-1.0000000000000000e+00" res="-9.9000000000000000e+01" rms="0.0000000000000000e+00" nType="-1" CC="0.0000000000000000e+00"/>
        </Node>
      </Node>
    </BinaryTree>
    <BinaryTree type="DecisionTree" boostWeight="2.4024876933259981e-01" itree="18">
      <Node pos="s" depth="0" Seq="0" IVar="14" Cut="9.0476191043853760e-01" cType="0" nS="1.8005273437500000e+05" nB="1.6235726562500000e+05" nEv="3.4241000000000000e+05" nSuw="2.6990000000000000e+03" nBuw="3.3971100000000000e+05" nEvuw="3.4241000000000000e+05" sepI="2.4933230876922607e-01" sepG="3.9810095214843750e+02" res="-9.9000000000000000e+01" rms="0.0000000000000000e+00" nType="0" CC="0.0000000000000000e+00">
        <Node pos="l" depth="1" Seq="0" IVar="18" Cut="1.7916189134120941e-01" cType="1" nS="1.0456167187500000e+05" nB="8.3236054687500000e+04" nEv="1.8779771875000000e+05" nSuw="7.8500000000000000e+02" nBuw="2.5416600000000000e+05" nEvuw="2.5495100000000000e+05" sepI="2.4677623808383942e-01" sepG="4.2650305175781250e+02" res="-9.9000000000000000e+01" rms="0.0000000000000000e+00" nType="0" CC="0.0000000000000000e+00">
          <Node pos="l" depth="2" Seq="0" IVar="-1" Cut="1.2140932083129883e+01" cType="1" nS="1.0453447656250000e+05" nB="8.1802085937500000e+04" nEv="1.8633656250000000e+05" nSuw="7.6400000000000000e+02" nBuw="2.5398300000000000e+05" nEvuw="2.5474700000000000e+05" sepI="2.4627922475337982e-01" sepG="-1.0000000000000000e+00" res="-9.9000000000000000e+01" rms="0.0000000000000000e+00" nType="1" CC="0.0000000000000000e+00"/>
          <Node pos="r" depth="2" Seq="2" IVar="-1" Cut="2.0755391120910645e+00" cType="1" nS="2.7197345733642578e+01" nB="1.4339683837890625e+03" nEv="1.4611656494140625e+03" nSuw="2.1000000000000000e+01" nBuw="1.8300000000000000e+02" nEvuw="2.0400000000000000e+02" sepI="1.8266996368765831e-02" sepG="-1.0000000000000000e+00" res="-9.9000000000000000e+01" rms="0.0000000000000000e+00" nType="-1" CC="0.0000000000000000e+00"/>
        </Node>
        <Node pos="r" depth="1" Seq="1" IVar="0" Cut="5.7141559600830078e+01" cType="0" nS="7.5491062500000000e+04" nB="7.9121210937500000e+04" nEv="1.5461228125000000e+05" nSuw="1.9140000000000000e+03" nBuw="8.5545000000000000e+04" nEvuw="8.7459000000000000e+04" sepI="2.4986217916011810e-01" sepG="2.5947613525390625e+02" res="-9.9000000000000000e+01" rms="0.0000000000000000e+00" nType="0" CC="0.0000000000000000e+00">
          <Node pos="l" depth="2" Seq="1" IVar="9" Cut="7.9033031463623047e+00" cType="0" nS="3.5452426757812500e+03" nB="1.4270778808593750e+03" nEv="4.9723203125000000e+03" nSuw="1.9000000000000000e+01" nBuw="2.9020000000000000e+03" nEvuw="2.9210000000000000e+03" sepI="2.0463287830352783e-01" sepG="3.4956741333007812e+02" res="-9.9000000000000000e+01" rms="0.0000000000000000e+00" nType="0" CC="0.0000000000000000e+00">
            <Node pos="l" depth="3" Seq="1" IVar="-1" Cut="0.0000000000000000e+00" cType="1" nS="3.5405607910156250e+03" nB="8.1619134521484375e+02" nEv="4.3567519531250000e+03" nSuw="1.7000000000000000e+01" nBuw="2.4360000000000000e+03" nEvuw="2.4530000000000000e+03" sepI="1.5224334597587585e-01" sepG="-1.0000000000000000e+00" res="-9.9000000000000000e+01" rms="0.0000000000000000e+00" nType="1" CC="0.0000000000000000e+00"/>
            <Node pos="r" depth="3" Seq="5" IVar="-1" Cut="0.0000000000000000e+00" cType="1" nS="4.6818656921386719e+00" nB="6.1088647460937500e+02" nEv="6.1556835937500000e+02" nSuw="2.0000000000000000e+00" nBuw="4.6600000000000000e+02" nEvuw="4.6800000000000000e+02" sepI="7.5479131191968918e-03" sepG="-1.0000000000000000e+00" res="-9.9000000000000000e+01" rms="0.0000000000000000e+00" nType="-1" CC="0.0000000000000000e+00"/>
          </Node>
